{"learner":{"attributes":{"aggregation_window_seconds":"60.0","feature_names":"[\"active_requests\", \"arrival_qps_60s\", \"finished_qps_60s\", \"backlog_growth_qps_60s\", \"active_per_finished_qps_60s\", \"finished_to_arrival_qps_ratio_60s\", \"finished_count_60s\", \"window_mean_seqlen_60s\", \"window_p90_seqlen_60s\", \"window_mean_cachelen_60s\", \"window_p90_cachelen_60s\", \"window_mean_extend_tokens_60s\", \"window_p90_extend_tokens_60s\", \"window_mean_ttft_ms_60s\", \"window_p90_ttft_ms_60s\", \"window_ttft_tail_ratio_60s\", \"delta_active_requests\", \"delta_arrival_qps_60s\", \"delta_finished_qps_60s\", \"delta_backlog_growth_qps_60s\", \"delta_finished_count_60s\", \"delta_window_mean_ttft_ms_60s\", \"delta_window_p90_ttft_ms_60s\", \"future_qps\", \"horizon_seconds\"]","future_qps_horizon_seconds":"[15.0, 30.0, 60.0]","label_transform":"log1p","last_retrain_time":"5359188.079988278","model_type":"xgboost_future","model_version":"61","sample_count":"164","scikit_learn":"{\"_estimator_type\": \"regressor\"}","training_window_seconds":"900.0"},"feature_names":[],"feature_types":[],"gradient_booster":{"model":{"cats":{"enc":[],"feature_segments":[],"sorted_idx":[]},"gbtree_model_param":{"num_parallel_tree":"1","num_trees":"96"},"iteration_indptr":[0,1,2,3,4,5,6,7,8,9,10,11,12,13,14,15,16,17,18,19,20,21,22,23,24,25,26,27,28,29,30,31,32,33,34,35,36,37,38,39,40,41,42,43,44,45,46,47,48,49,50,51,52,53,54,55,56,57,58,59,60,61,62,63,64,65,66,67,68,69,70,71,72,73,74,75,76,77,78,79,80,81,82,83,84,85,86,87,88,89,90,91,92,93,94,95,96],"tree_info":[0,0,0,0,0,0,0,0,0,0,0,0,0,0,0,0,0,0,0,0,0,0,0,0,0,0,0,0,0,0,0,0,0,0,0,0,0,0,0,0,0,0,0,0,0,0,0,0,0,0,0,0,0,0,0,0,0,0,0,0,0,0,0,0,0,0,0,0,0,0,0,0,0,0,0,0,0,0,0,0,0,0,0,0,0,0,0,0,0,0,0,0,0,0,0,0],"trees":[{"base_weights":[8.280474E-3,1.2283562E0,-1.919529E-1,1.6681368E0,-1.1929449E-2,-2.3315744E-1,5.536052E-1,1.4841424E-1,7.084886E-2,-9.469835E-2,-2.753146E-1,5.852623E-2,2.6888046E-2,-1.37165375E-2,4.2179378E-4,-2.3645103E-2,-6.215183E-3],"categories":[],"categories_nodes":[],"categories_segments":[],"categories_sizes":[],"default_left":[0,0,0,0,0,0,0,0,0,0,0,0,0,0,0,0,0],"id":0,"left_children":[1,3,5,7,-1,9,11,-1,-1,13,15,-1,-1,-1,-1,-1,-1],"loss_changes":[3.639217E1,1.2970266E1,4.061286E0,6.988678E-1,0E0,6.8604755E-1,2.508521E-2,0E0,0E0,2.311118E-1,3.4919977E-1,0E0,0E0,0E0,0E0,0E0,0E0],"parents":[2147483647,0,0,1,1,2,2,3,3,5,5,6,6,9,9,10,10],"right_children":[2,4,6,8,-1,10,12,-1,-1,14,16,-1,-1,-1,-1,-1,-1],"split_conditions":[3.5E-1,1.344E4,3.192125E3,2.3333333E-1,-1.1929449E-2,1.264E3,4E-1,1.4841424E-1,7.084886E-2,1.194E3,3.645E3,5.852623E-2,2.6888046E-2,-1.37165375E-2,4.2179378E-4,-2.3645103E-2,-6.215183E-3],"split_indices":[2,4,7,2,0,0,2,0,0,0,4,0,0,0,0,0,0],"split_type":[0,0,0,0,0,0,0,0,0,0,0,0,0,0,0,0,0],"sum_hessian":[1.47E2,2E1,1.27E2,1.5E1,5E0,1.21E2,6E0,1.1E1,4E0,2.9E1,9.2E1,2E0,4E0,1.6E1,1.3E1,8.3E1,9E0],"tree_param":{"num_deleted":"0","num_feature":"25","num_nodes":"17","size_leaf_vector":"1"}},{"base_weights":[-5.6611868E-3,1.1292369E0,-1.8021734E-1,1.702889E-1,1.5280511E0,-2.1837813E-1,5.21519E-1,-1.1134148E-2,8.1083335E-2,1.2973012E-1,5.155192E-2,-9.718903E-2,-2.511092E-1,5.540484E-2,2.5167221E-2,-2.3523503E-4,-1.195088E-2,-2.0763375E-2,7.971064E-3],"categories":[],"categories_nodes":[],"categories_segments":[],"categories_sizes":[],"default_left":[0,0,0,0,0,0,0,0,0,0,0,0,0,0,0,0,0,0,0],"id":1,"left_children":[1,3,5,7,9,11,13,-1,-1,-1,-1,15,17,-1,-1,-1,-1,-1,-1],"loss_changes":[2.972092E1,7.388632E0,3.5951333E0,1.9677665E0,1.1265564E-1,4.6745968E-1,2.988112E-2,0E0,0E0,0E0,0E0,1.3730648E-1,3.1277132E-1,0E0,0E0,0E0,0E0,0E0,0E0],"parents":[2147483647,0,0,1,1,2,2,3,3,4,4,5,5,6,6,11,11,12,12],"right_children":[2,4,6,8,10,12,14,-1,-1,-1,-1,16,18,-1,-1,-1,-1,-1,-1],"split_conditions":[3.5E-1,1.2E1,3.192125E3,1.6666667E-1,3.3333334E-1,5.3333336E-1,4E-1,-1.1134148E-2,8.1083335E-2,1.2973012E-1,5.155192E-2,1.119E3,2.0892222E3,5.540484E-2,2.5167221E-2,-2.3523503E-4,-1.195088E-2,-2.0763375E-2,7.971064E-3],"split_indices":[1,6,7,1,1,1,1,0,0,0,0,11,9,0,0,0,0,0,0],"split_type":[0,0,0,0,0,0,0,0,0,0,0,0,0,0,0,0,0,0,0],"sum_hessian":[1.48E2,1.9E1,1.29E2,6E0,1.3E1,1.23E2,6E0,5E0,1E0,1.1E1,2E0,2.7E1,9.6E1,2E0,4E0,1E1,1.7E1,9.4E1,2E0],"tree_param":{"num_deleted":"0","num_feature":"25","num_nodes":"19","size_leaf_vector":"1"}},{"base_weights":[2.3913765E-3,1.0878897E0,-1.538727E-1,1.419561E0,-9.976196E-3,-1.931089E-1,5.743608E-1,1.3054408E-1,6.6338725E-2,-6.846905E-2,-2.3134564E-1,5.9006166E-2,2.1404343E-2,1.00747105E-2,-8.855826E-3,-1.9825866E-2,-5.188408E-3],"categories":[],"categories_nodes":[],"categories_segments":[],"categories_sizes":[],"default_left":[0,0,0,0,0,0,0,0,0,0,0,0,0,0,0,0,0],"id":2,"left_children":[1,3,5,7,-1,9,11,-1,-1,13,15,-1,-1,-1,-1,-1,-1],"loss_changes":[2.5611053E1,7.8184814E0,3.8825657E0,5.262203E-1,0E0,5.846534E-1,1.531887E-1,0E0,0E0,2.6843202E-1,2.4729204E-1,0E0,0E0,0E0,0E0,0E0,0E0],"parents":[2147483647,0,0,1,1,2,2,3,3,5,5,6,6,9,9,10,10],"right_children":[2,4,6,8,-1,10,12,-1,-1,14,16,-1,-1,-1,-1,-1,-1],"split_conditions":[3.5E-1,1.344E4,3.192125E3,2.1666667E-1,-9.976196E-3,1.264E3,1.242E3,1.3054408E-1,6.6338725E-2,1.0262858E3,3.645E3,5.9006166E-2,2.1404343E-2,1.00747105E-2,-8.855826E-3,-1.9825866E-2,-5.188408E-3],"split_indices":[1,4,7,1,0,0,0,0,0,11,4,0,0,0,0,0,0],"split_type":[0,0,0,0,0,0,0,0,0,0,0,0,0,0,0,0,0],"sum_hessian":[1.49E2,1.8E1,1.31E2,1.4E1,4E0,1.25E2,6E0,9E0,5E0,3E1,9.5E1,3E0,3E0,5E0,2.5E1,8.6E1,9E0],"tree_param":{"num_deleted":"0","num_feature":"25","num_nodes":"17","size_leaf_vector":"1"}},{"base_weights":[-1.8197473E-3,9.3028665E-1,-1.4411217E-1,1.2890161E0,-9.726779E-3,-1.7318933E-1,6.232699E-1,1.1753223E-1,6.1916158E-2,-4.028361E-2,-2.1753353E-1,5.546579E-2,1.37224E-2,-7.580508E-3,1.7650915E-2,-9.161455E-3,-1.947819E-2],"categories":[],"categories_nodes":[],"categories_segments":[],"categories_sizes":[],"default_left":[0,0,0,0,0,0,0,0,0,0,0,0,0,0,0,0,0],"id":3,"left_children":[1,3,5,7,-1,9,11,-1,-1,13,15,-1,-1,-1,-1,-1,-1],"loss_changes":[2.002882E1,7.7034683E0,3.0309844E0,2.546749E-1,0E0,7.397239E-1,3.9301872E-2,0E0,0E0,4.8993665E-1,2.2601557E-1,0E0,0E0,0E0,0E0,0E0,0E0],"parents":[2147483647,0,0,1,1,2,2,3,3,5,5,6,6,9,9,10,10],"right_children":[2,4,6,8,-1,10,12,-1,-1,14,16,-1,-1,-1,-1,-1,-1],"split_conditions":[3.5E-1,1.344E4,1.721E3,2.3333333E-1,-9.726779E-3,1.264E3,4E-1,1.1753223E-1,6.1916158E-2,6.5907E3,5.6666666E-1,5.546579E-2,1.37224E-2,-7.580508E-3,1.7650915E-2,-9.161455E-3,-1.947819E-2],"split_indices":[1,4,11,1,0,0,1,0,0,8,1,0,0,0,0,0,0],"split_type":[0,0,0,0,0,0,0,0,0,0,0,0,0,0,0,0,0],"sum_hessian":[1.49E2,1.9E1,1.3E2,1.4E1,5E0,1.26E2,4E0,9E0,5E0,3.2E1,9.4E1,3E0,1E0,2.7E1,5E0,2E1,7.4E1],"tree_param":{"num_deleted":"0","num_feature":"25","num_nodes":"17","size_leaf_vector":"1"}},{"base_weights":[7.6000467E-3,8.86929E-1,-1.2670666E-1,1.2279636E0,-9.078312E-3,-1.6522463E-1,4.8616016E-1,1.1268258E-1,5.7788406E-2,-5.8705743E-2,-1.9712296E-1,5.213785E-2,2.051822E-2,2.9200416E-3,-1.06926095E-2,-1.6937004E-2,-4.155212E-3],"categories":[],"categories_nodes":[],"categories_segments":[],"categories_sizes":[],"default_left":[0,0,0,0,0,0,0,0,0,0,0,0,0,0,0,0,0],"id":4,"left_children":[1,3,5,7,-1,9,11,-1,-1,13,15,-1,-1,-1,-1,-1,-1],"loss_changes":[1.7827347E1,6.962821E0,3.1727617E0,3.5199547E-1,0E0,4.097519E-1,1.3706279E-1,0E0,0E0,2.1895522E-1,1.9022846E-1,0E0,0E0,0E0,0E0,0E0,0E0],"parents":[2147483647,0,0,1,1,2,2,3,3,5,5,6,6,9,9,10,10],"right_children":[2,4,6,8,-1,10,12,-1,-1,14,16,-1,-1,-1,-1,-1,-1],"split_conditions":[3.5E-1,1.344E4,3.192125E3,2.1666667E-1,-9.078312E-3,1.264E3,4E-1,1.1268258E-1,5.7788406E-2,1.119E3,3.645E3,5.213785E-2,2.051822E-2,2.9200416E-3,-1.06926095E-2,-1.6937004E-2,-4.155212E-3],"split_indices":[2,4,7,2,0,0,2,0,0,11,4,0,0,0,0,0,0],"split_type":[0,0,0,0,0,0,0,0,0,0,0,0,0,0,0,0,0],"sum_hessian":[1.49E2,1.9E1,1.3E2,1.4E1,5E0,1.23E2,7E0,9E0,5E0,2.9E1,9.4E1,3E0,4E0,1.3E1,1.6E1,8.5E1,9E0],"tree_param":{"num_deleted":"0","num_feature":"25","num_nodes":"17","size_leaf_vector":"1"}},{"base_weights":[-2.2475453E-2,8.2171524E-1,-1.20903015E-1,1.2529931E0,-8.473079E-3,-1.5549621E-1,4.563493E-1,1.0443137E-1,2.9160136E-2,-5.4548647E-2,-1.85235E-1,4.900958E-2,1.9205047E-2,-9.80065E-3,2.9379325E-3,-1.2505342E-2,-2.1623688E-2],"categories":[],"categories_nodes":[],"categories_segments":[],"categories_sizes":[],"default_left":[0,0,0,0,0,0,0,0,0,0,0,0,0,0,0,0,0],"id":5,"left_children":[1,3,5,7,-1,9,11,-1,-1,13,15,-1,-1,-1,-1,-1,-1],"loss_changes":[1.2729275E1,6.533763E0,2.806714E0,3.6296844E-2,0E0,3.801632E-1,1.23325825E-1,0E0,0E0,1.9678745E-1,2.0372963E-1,0E0,0E0,0E0,0E0,0E0,0E0],"parents":[2147483647,0,0,1,1,2,2,3,3,5,5,6,6,9,9,10,10],"right_children":[2,4,6,8,-1,10,12,-1,-1,14,16,-1,-1,-1,-1,-1,-1],"split_conditions":[3.5E-1,1.344E4,3.192125E3,3.3333334E-1,-8.473079E-3,1.264E3,4E-1,1.0443137E-1,2.9160136E-2,1.194E3,8.833333E-1,4.900958E-2,1.9205047E-2,-9.80065E-3,2.9379325E-3,-1.2505342E-2,-2.1623688E-2],"split_indices":[1,4,7,1,0,0,1,0,0,0,1,0,0,0,0,0,0],"split_type":[0,0,0,0,0,0,0,0,0,0,0,0,0,0,0,0,0],"sum_hessian":[1.51E2,1.5E1,1.36E2,1E1,5E0,1.29E2,7E0,9E0,1E0,3E1,9.9E1,3E0,4E0,1.7E1,1.3E1,7.6E1,2.3E1],"tree_param":{"num_deleted":"0","num_feature":"25","num_nodes":"17","size_leaf_vector":"1"}},{"base_weights":[-2.6450655E-3,7.704066E-1,-1.1800617E-1,1.0667499E0,-7.908217E-3,-1.4431214E-1,3.7987545E-1,1.14666805E-1,6.425144E-2,-5.1406384E-2,-1.7222814E-1,4.0950216E-2,1.797592E-2,8.508638E-3,-6.8669096E-3,-1.1690541E-2,-2.0876493E-2],"categories":[],"categories_nodes":[],"categories_segments":[],"categories_sizes":[],"default_left":[0,0,0,0,0,0,0,0,0,0,0,0,0,0,0,0,0],"id":6,"left_children":[1,3,5,7,-1,9,11,-1,-1,13,15,-1,-1,-1,-1,-1,-1],"loss_changes":[1.3735469E1,5.257435E0,1.8098539E0,2.9834366E-1,0E0,3.231213E-1,2.8367043E-2,0E0,0E0,1.7751598E-1,1.8878317E-1,0E0,0E0,0E0,0E0,0E0,0E0],"parents":[2147483647,0,0,1,1,2,2,3,3,5,5,6,6,9,9,10,10],"right_children":[2,4,6,8,-1,10,12,-1,-1,14,16,-1,-1,-1,-1,-1,-1],"split_conditions":[3.5E-1,1.344E4,3.192125E3,1.124E3,-7.908217E-3,1.264E3,4E-1,1.14666805E-1,6.425144E-2,1.0262858E3,9.166667E-1,4.0950216E-2,1.797592E-2,8.508638E-3,-6.8669096E-3,-1.1690541E-2,-2.0876493E-2],"split_indices":[1,4,7,0,0,0,1,0,0,11,1,0,0,0,0,0,0],"split_type":[0,0,0,0,0,0,0,0,0,0,0,0,0,0,0,0,0],"sum_hessian":[1.52E2,1.9E1,1.33E2,1.4E1,5E0,1.27E2,6E0,4E0,1E1,3E1,9.7E1,2E0,4E0,5E0,2.5E1,7.7E1,2E1],"tree_param":{"num_deleted":"0","num_feature":"25","num_nodes":"17","size_leaf_vector":"1"}},{"base_weights":[1.3168932E-2,8.2885605E-1,-1.03462316E-1,9.463024E-1,-5.9047956E-3,-1.333067E-1,4.2293602E-1,1.0683729E-1,7.5376725E-1,-4.0296394E-2,-1.6250452E-1,4.3611974E-2,1.5599069E-2,-4.4285962E-3,6.606459E-2,7.941392E-3,-5.774388E-3,-1.0891699E-2,-1.9118816E-2],"categories":[],"categories_nodes":[],"categories_segments":[],"categories_sizes":[],"default_left":[0,0,0,0,0,0,0,0,0,0,0,0,0,0,0,0,0,0,0],"id":7,"left_children":[1,3,5,7,-1,9,11,-1,13,15,17,-1,-1,-1,-1,-1,-1,-1,-1],"loss_changes":[1.3690003E1,1.9781141E0,2.0358448E0,1.9221306E-1,0E0,3.1933546E-1,8.871043E-2,0E0,8.0347824E-1,1.4065838E-1,1.509099E-1,0E0,0E0,0E0,0E0,0E0,0E0,0E0,0E0],"parents":[2147483647,0,0,1,1,2,2,3,3,5,5,6,6,8,8,9,9,10,10],"right_children":[2,4,6,8,-1,10,12,-1,14,16,18,-1,-1,-1,-1,-1,-1,-1,-1],"split_conditions":[3.5E-1,7.2934414E4,3.192125E3,1.12E3,-5.9047956E-3,1.264E3,1.242E3,1.0683729E-1,1.6666667E-1,1.0262858E3,9.166667E-1,4.3611974E-2,1.5599069E-2,-4.4285962E-3,6.606459E-2,7.941392E-3,-5.774388E-3,-1.0891699E-2,-1.9118816E-2],"split_indices":[1,14,7,0,0,0,0,0,1,11,1,0,0,0,0,0,0,0,0],"split_type":[0,0,0,0,0,0,0,0,0,0,0,0,0,0,0,0,0,0,0],"sum_hessian":[1.42E2,1.7E1,1.25E2,1.5E1,2E0,1.19E2,6E0,3E0,1.2E1,2.9E1,9E1,3E0,3E0,1E0,1.1E1,5E0,2.4E1,6.9E1,2.1E1],"tree_param":{"num_deleted":"0","num_feature":"25","num_nodes":"19","size_leaf_vector":"1"}},{"base_weights":[2.264886E-2,7.224202E-1,-9.056535E-2,9.172363E-1,-6.7550964E-3,-1.20198704E-1,3.763681E-1,8.3305E-2,4.1296896E-2,-4.268538E-2,-1.4698707E-1,4.0995255E-2,1.5378914E-2,-8.605829E-3,8.630552E-4,-5.0480426E-3,-1.3459791E-2],"categories":[],"categories_nodes":[],"categories_segments":[],"categories_sizes":[],"default_left":[0,0,0,0,0,0,0,0,0,0,0,0,0,0,0,0,0],"id":8,"left_children":[1,3,5,7,-1,9,11,-1,-1,13,15,-1,-1,-1,-1,-1,-1],"loss_changes":[1.1949036E1,3.3784218E0,1.8440232E0,3.0834293E-1,0E0,2.4912977E-1,1.0193229E-1,0E0,0E0,1.1566279E-1,1.5167785E-1,0E0,0E0,0E0,0E0,0E0,0E0],"parents":[2147483647,0,0,1,1,2,2,3,3,5,5,6,6,9,9,10,10],"right_children":[2,4,6,8,-1,10,12,-1,-1,14,16,-1,-1,-1,-1,-1,-1],"split_conditions":[3.5E-1,1.344E4,3.192125E3,2.3333333E-1,-6.7550964E-3,1.266E3,4E-1,8.3305E-2,4.1296896E-2,1.181E3,5.6666666E-1,4.0995255E-2,1.5378914E-2,-8.605829E-3,8.630552E-4,-5.0480426E-3,-1.3459791E-2],"split_indices":[1,4,7,1,0,0,1,0,0,0,1,0,0,0,0,0,0],"split_type":[0,0,0,0,0,0,0,0,0,0,0,0,0,0,0,0,0],"sum_hessian":[1.49E2,2E1,1.29E2,1.6E1,4E0,1.22E2,7E0,1.1E1,5E0,3.2E1,9E1,3E0,4E0,1.4E1,1.8E1,1.9E1,7.1E1],"tree_param":{"num_deleted":"0","num_feature":"25","num_nodes":"17","size_leaf_vector":"1"}},{"base_weights":[-4.9777394E-3,6.226053E-1,-9.319272E-2,8.2871926E-1,-6.3227843E-3,-1.1250828E-1,3.183085E-1,7.3916145E-2,3.7800826E-2,-1.6358192E-1,-7.9872325E-2,9.359983E-3,3.1177035E-2,-1.0391678E-2,-1.7230941E-2,-7.1245376E-3,8.800573E-3],"categories":[],"categories_nodes":[],"categories_segments":[],"categories_sizes":[],"default_left":[0,0,0,0,0,0,0,0,0,0,0,0,0,0,0,0,0],"id":9,"left_children":[1,3,5,7,-1,9,11,-1,-1,13,15,-1,-1,-1,-1,-1,-1],"loss_changes":[8.085546E0,2.6686196E0,1.0532048E0,3.834057E-2,0E0,1.9195521E-1,4.0649652E-2,0E0,0E0,5.4041743E-2,1.4407939E-1,0E0,0E0,0E0,0E0,0E0,0E0],"parents":[2147483647,0,0,1,1,2,2,3,3,5,5,6,6,9,9,10,10],"right_children":[2,4,6,8,-1,10,12,-1,-1,14,16,-1,-1,-1,-1,-1,-1],"split_conditions":[3.5E-1,1.344E4,3.192125E3,2.3333333E-1,-6.3227843E-3,1.1778182E3,3.105E3,7.3916145E-2,3.7800826E-2,9.6666664E-1,2.0892222E3,9.359983E-3,3.1177035E-2,-1.0391678E-2,-1.7230941E-2,-7.1245376E-3,8.800573E-3],"split_indices":[1,4,7,1,0,9,4,0,0,1,9,0,0,0,0,0,0],"split_type":[0,0,0,0,0,0,0,0,0,0,0,0,0,0,0,0,0],"sum_hessian":[1.44E2,1.7E1,1.27E2,1.3E1,4E0,1.22E2,5E0,9E0,4E0,4.6E1,7.6E1,2E0,3E0,3E1,1.6E1,7.3E1,3E0],"tree_param":{"num_deleted":"0","num_feature":"25","num_nodes":"17","size_leaf_vector":"1"}},{"base_weights":[1.1107823E-2,6.303892E-1,-8.071985E-2,1.2882917E-1,7.889873E-1,-1.0585171E-1,3.3147985E-1,-5.9181214E-3,4.57143E-2,9.099375E-2,4.856748E-2,-3.45175E-2,-1.2548012E-1,3.6664926E-2,1.309748E-2,-7.361245E-3,2.6928084E-3,-3.6671811E-3,-1.148762E-2],"categories":[],"categories_nodes":[],"categories_segments":[],"categories_sizes":[],"default_left":[0,0,0,0,0,0,0,0,0,0,0,0,0,0,0,0,0,0,0],"id":10,"left_children":[1,3,5,7,9,11,13,-1,-1,-1,-1,15,17,-1,-1,-1,-1,-1,-1],"loss_changes":[8.808429E0,1.4892845E0,1.4335992E0,5.808426E-1,2.6014996E-1,1.7489135E-1,9.518558E-2,0E0,0E0,0E0,0E0,1.1677957E-1,1.3768733E-1,0E0,0E0,0E0,0E0,0E0,0E0],"parents":[2147483647,0,0,1,1,2,2,3,3,4,4,5,5,6,6,11,11,12,12],"right_children":[2,4,6,8,10,12,14,-1,-1,-1,-1,16,18,-1,-1,-1,-1,-1,-1],"split_conditions":[3.5E-1,1.2E1,3.192125E3,1.6666667E-1,1.12E3,1.264E3,4E-1,-5.9181214E-3,4.57143E-2,9.099375E-2,4.856748E-2,1.194E3,5.6666666E-1,3.6664926E-2,1.309748E-2,-7.361245E-3,2.6928084E-3,-3.6671811E-3,-1.148762E-2],"split_indices":[1,6,7,1,0,0,1,0,0,0,0,0,1,0,0,0,0,0,0],"split_type":[0,0,0,0,0,0,0,0,0,0,0,0,0,0,0,0,0,0,0],"sum_hessian":[1.53E2,1.9E1,1.34E2,5E0,1.4E1,1.27E2,7E0,4E0,1E0,3E0,1.1E1,2.8E1,9.9E1,3E0,4E0,1.5E1,1.3E1,1.9E1,8E1],"tree_param":{"num_deleted":"0","num_feature":"25","num_nodes":"19","size_leaf_vector":"1"}},{"base_weights":[1.742148E-2,6.245162E-1,-7.0095345E-2,7.5779545E-1,-5.1783943E-3,-9.3936324E-2,3.1118184E-1,8.598158E-2,4.5005858E-2,-2.229538E-2,-1.1534562E-1,3.4465026E-2,1.2259254E-2,-5.432342E-3,5.01254E-3,-7.561212E-3,-1.4188028E-2],"categories":[],"categories_nodes":[],"categories_segments":[],"categories_sizes":[],"default_left":[0,0,0,0,0,0,0,0,0,0,0,0,0,0,0,0,0],"id":11,"left_children":[1,3,5,7,-1,9,11,-1,-1,13,15,-1,-1,-1,-1,-1,-1],"loss_changes":[8.013426E0,1.7944345E0,1.229114E0,3.8545036E-1,0E0,1.8915105E-1,8.5139215E-2,0E0,0E0,1.2049186E-1,1.0723019E-1,0E0,0E0,0E0,0E0,0E0,0E0],"parents":[2147483647,0,0,1,1,2,2,3,3,5,5,6,6,9,9,10,10],"right_children":[2,4,6,8,-1,10,12,-1,-1,14,16,-1,-1,-1,-1,-1,-1],"split_conditions":[3.5E-1,1.344E4,3.192125E3,1.124E3,-5.1783943E-3,1.264E3,4E-1,8.598158E-2,4.5005858E-2,1.206E3,8.833333E-1,3.4465026E-2,1.2259254E-2,-5.432342E-3,5.01254E-3,-7.561212E-3,-1.4188028E-2],"split_indices":[1,4,7,0,0,0,1,0,0,0,1,0,0,0,0,0,0],"split_type":[0,0,0,0,0,0,0,0,0,0,0,0,0,0,0,0,0],"sum_hessian":[1.49E2,1.8E1,1.31E2,1.5E1,3E0,1.24E2,7E0,4E0,1.1E1,2.9E1,9.5E1,3E0,4E0,1.9E1,1E1,7.3E1,2.2E1],"tree_param":{"num_deleted":"0","num_feature":"25","num_nodes":"17","size_leaf_vector":"1"}},{"base_weights":[4.7900737E-4,5.3324E-1,-6.851508E-2,7.087386E-1,-5.184326E-3,1.7954701E-1,-9.336777E-2,8.047877E-2,3.9139338E-2,1.4389174E-2,3.190553E-1,-1.12920046E-1,-2.9176189E-2,-5.7957456E-3,7.81023E-3,3.2397136E-2,1.2270603E-2,-7.9554245E-3,-1.4397289E-2,1.3089506E-3,-5.037903E-3],"categories":[],"categories_nodes":[],"categories_segments":[],"categories_sizes":[],"default_left":[0,0,0,0,0,0,0,0,0,0,0,0,0,0,0,0,0,0,0,0,0],"id":12,"left_children":[1,3,5,7,-1,9,11,-1,-1,13,15,17,19,-1,-1,-1,-1,-1,-1,-1,-1],"loss_changes":[5.7706823E0,1.9351358E0,8.7370044E-1,4.2125463E-1,0E0,2.949406E-1,1.5610206E-1,0E0,0E0,5.766964E-2,3.7514925E-2,6.9752455E-2,4.8741773E-2,0E0,0E0,0E0,0E0,0E0,0E0,0E0,0E0],"parents":[2147483647,0,0,1,1,2,2,3,3,5,5,6,6,9,9,10,10,11,11,12,12],"right_children":[2,4,6,8,-1,10,12,-1,-1,14,16,18,20,-1,-1,-1,-1,-1,-1,-1,-1],"split_conditions":[3.5E-1,1.344E4,2.1E1,2.3416E3,-5.184326E-3,2.341E3,2.7168E3,8.047877E-2,3.9139338E-2,5.6666666E-1,4E-1,1.0833334E0,-3.3333334E-1,-5.7957456E-3,7.81023E-3,3.2397136E-2,1.2270603E-2,-7.9554245E-3,-1.4397289E-2,1.3089506E-3,-5.037903E-3],"split_indices":[1,4,6,12,0,12,4,0,0,1,1,1,17,0,0,0,0,0,0,0,0],"split_type":[0,0,0,0,0,0,0,0,0,0,0,0,0,0,0,0,0,0,0,0,0],"sum_hessian":[1.55E2,1.7E1,1.38E2,1.3E1,4E0,1.2E1,1.26E2,4E0,9E0,6E0,6E0,9.6E1,3E1,3E0,3E0,3E0,3E0,8.2E1,1.4E1,1.3E1,1.7E1],"tree_param":{"num_deleted":"0","num_feature":"25","num_nodes":"21","size_leaf_vector":"1"}},{"base_weights":[1.2802672E-2,4.835272E-1,-6.0277123E-2,6.700504E-1,-5.069491E-3,-8.16926E-2,2.738436E-1,7.532814E-2,3.8856342E-2,-8.683679E-2,9.177029E-2,3.04533E-2,1.0689339E-2,-8.336637E-3,-2.3466295E-3,1.2508469E-2,-4.0794564E-3],"categories":[],"categories_nodes":[],"categories_segments":[],"categories_sizes":[],"default_left":[0,0,0,0,0,0,0,0,0,0,0,0,0,0,0,0,0],"id":13,"left_children":[1,3,5,7,-1,9,11,-1,-1,13,15,-1,-1,-1,-1,-1,-1],"loss_changes":[5.1204123E0,2.0826354E0,9.4541186E-1,2.9355192E-1,0E0,1.1683285E-1,6.897187E-2,0E0,0E0,1.1581373E-1,4.485494E-2,0E0,0E0,0E0,0E0,0E0,0E0],"parents":[2147483647,0,0,1,1,2,2,3,3,5,5,6,6,9,9,10,10],"right_children":[2,4,6,8,-1,10,12,-1,-1,14,16,-1,-1,-1,-1,-1,-1],"split_conditions":[3.5E-1,1.344E4,3.192125E3,1.124E3,-5.069491E-3,2.0892222E3,4E-1,7.532814E-2,3.8856342E-2,2.8344E3,6.333333E-1,3.04533E-2,1.0689339E-2,-8.336637E-3,-2.3466295E-3,1.2508469E-2,-4.0794564E-3],"split_indices":[1,4,7,0,0,9,1,0,0,4,1,0,0,0,0,0,0],"split_type":[0,0,0,0,0,0,0,0,0,0,0,0,0,0,0,0,0],"sum_hessian":[1.47E2,1.9E1,1.28E2,1.4E1,5E0,1.21E2,7E0,4E0,1E1,1.18E2,3E0,3E0,4E0,9E1,2.8E1,2E0,1E0],"tree_param":{"num_deleted":"0","num_feature":"25","num_nodes":"17","size_leaf_vector":"1"}},{"base_weights":[-1.6351604E-3,4.0703845E-1,-5.6932077E-2,5.9088904E-1,-4.7315406E-3,-7.099413E-2,3.1725532E-1,7.102684E-2,3.3041723E-2,-6.6583296E-3,-9.3040206E-2,2.8626107E-2,6.198845E-3,-2.9796641E-3,9.33142E-3,-8.134729E-3,1.4527215E-4],"categories":[],"categories_nodes":[],"categories_segments":[],"categories_sizes":[],"default_left":[0,0,0,0,0,0,0,0,0,0,0,0,0,0,0,0,0],"id":14,"left_children":[1,3,5,7,-1,9,11,-1,-1,13,15,-1,-1,-1,-1,-1,-1],"loss_changes":[3.4129322E0,1.5776916E0,7.2234845E-1,3.1992722E-1,0E0,1.823479E-1,2.091217E-2,0E0,0E0,1.3257438E-1,7.8897774E-2,0E0,0E0,0E0,0E0,0E0,0E0],"parents":[2147483647,0,0,1,1,2,2,3,3,5,5,6,6,9,9,10,10],"right_children":[2,4,6,8,-1,10,12,-1,-1,14,16,-1,-1,-1,-1,-1,-1],"split_conditions":[3.5E-1,1.344E4,1.721E3,1.12E3,-4.7315406E-3,1.264E3,4E-1,7.102684E-2,3.3041723E-2,6.5907E3,3.645E3,2.8626107E-2,6.198845E-3,-2.9796641E-3,9.33142E-3,-8.134729E-3,1.4527215E-4],"split_indices":[1,4,11,0,0,0,1,0,0,8,4,0,0,0,0,0,0],"split_type":[0,0,0,0,0,0,0,0,0,0,0,0,0,0,0,0,0],"sum_hessian":[1.49E2,1.7E1,1.32E2,1.2E1,5E0,1.28E2,4E0,3E0,9E0,3.3E1,9.5E1,3E0,1E0,2.7E1,6E0,8.7E1,8E0],"tree_param":{"num_deleted":"0","num_feature":"25","num_nodes":"17","size_leaf_vector":"1"}},{"base_weights":[1.482938E-2,3.9653665E-1,-4.890619E-2,5.411548E-1,-4.416097E-3,-6.805665E-2,2.420702E-1,6.6765234E-2,3.2739785E-2,-5.4482784E-2,-1.2162659E-2,2.690855E-2,1.1822681E-1,-4.740087E-3,6.3630007E-3,1.0395793E-2,2.853775E-3],"categories":[],"categories_nodes":[],"categories_segments":[],"categories_sizes":[],"default_left":[0,0,0,0,0,0,0,0,0,0,0,0,0,0,0,0,0],"id":15,"left_children":[1,3,5,7,-1,9,11,-1,-1,13,-1,-1,15,-1,-1,-1,-1],"loss_changes":[3.5713296E0,1.4017916E0,7.1858835E-1,2.777052E-1,0E0,1.2736338E-1,5.3647816E-2,0E0,0E0,7.117376E-2,0E0,0E0,2.0243973E-4,0E0,0E0,0E0,0E0],"parents":[2147483647,0,0,1,1,2,2,3,3,5,5,6,6,9,9,12,12],"right_children":[2,4,6,8,-1,10,12,-1,-1,14,-1,-1,16,-1,-1,-1,-1],"split_conditions":[3.5E-1,1.344E4,3.192125E3,1.12E3,-4.416097E-3,1.0833334E0,4E-1,6.6765234E-2,3.2739785E-2,2.0892222E3,-1.2162659E-2,2.690855E-2,4.1666666E-1,-4.740087E-3,6.3630007E-3,1.0395793E-2,2.853775E-3],"split_indices":[2,4,7,0,0,2,2,0,0,9,0,0,2,0,0,0,0],"split_type":[0,0,0,0,0,0,0,0,0,0,0,0,0,0,0,0,0],"sum_hessian":[1.45E2,2E1,1.25E2,1.5E1,5E0,1.18E2,7E0,3E0,1.2E1,1.03E2,1.5E1,3E0,4E0,1E2,3E0,3E0,1E0],"tree_param":{"num_deleted":"0","num_feature":"25","num_nodes":"17","size_leaf_vector":"1"}},{"base_weights":[2.0893665E-2,3.8844332E-1,-4.396222E-2,5.2087533E-1,-4.121698E-3,-5.701121E-2,2.8061572E-1,6.284065E-2,3.7902611E-1,5.4084603E-3,-7.951501E-2,2.5294045E-2,5.5350494E-3,3.334481E-2,1.5184765E-2,-3.5187912E-3,6.0467254E-3,-7.380627E-3,-3.7279673E-4],"categories":[],"categories_nodes":[],"categories_segments":[],"categories_sizes":[],"default_left":[0,0,0,0,0,0,0,0,0,0,0,0,0,0,0,0,0,0,0],"id":16,"left_children":[1,3,5,7,-1,9,11,-1,13,15,17,-1,-1,-1,-1,-1,-1,-1,-1],"loss_changes":[3.4973893E0,1.3086748E0,5.4542494E-1,3.404169E-1,0E0,1.7039627E-1,1.5716076E-2,0E0,1.38270855E-2,1.1770944E-1,8.446413E-2,0E0,0E0,0E0,0E0,0E0,0E0,0E0,0E0],"parents":[2147483647,0,0,1,1,2,2,3,3,5,5,6,6,8,8,9,9,10,10],"right_children":[2,4,6,8,-1,10,12,-1,14,16,18,-1,-1,-1,-1,-1,-1,-1,-1],"split_conditions":[3.5E-1,1.344E4,1.721E3,1.124E3,-4.121698E-3,1.264E3,4E-1,6.284065E-2,3.3333334E-1,1.206E3,1.523E3,2.5294045E-2,5.5350494E-3,3.334481E-2,1.5184765E-2,-3.5187912E-3,6.0467254E-3,-7.380627E-3,-3.7279673E-4],"split_indices":[2,4,11,0,0,0,2,0,2,0,0,0,0,0,0,0,0,0,0],"split_type":[0,0,0,0,0,0,0,0,0,0,0,0,0,0,0,0,0,0,0],"sum_hessian":[1.45E2,2.1E1,1.24E2,1.6E1,5E0,1.2E2,4E0,4E0,1.2E1,3.2E1,8.8E1,3E0,1E0,9E0,3E0,1.9E1,1.3E1,7.5E1,1.3E1],"tree_param":{"num_deleted":"0","num_feature":"25","num_nodes":"19","size_leaf_vector":"1"}},{"base_weights":[1.5010015E-2,3.82212E-1,-4.3522198E-2,4.8575634E-1,-3.702484E-3,-5.9737343E-2,2.152797E-1,5.881886E-2,3.5243684E-1,-5.0184317E-2,-1.0551567E-2,2.3776416E-2,1.0668335E-1,3.094396E-2,1.4273671E-2,-5.067515E-3,-1.2244605E-3,9.41946E-3,2.4977492E-3],"categories":[],"categories_nodes":[],"categories_segments":[],"categories_sizes":[],"default_left":[0,0,0,0,0,0,0,0,0,0,0,0,0,0,0,0,0,0,0],"id":17,"left_children":[1,3,5,7,-1,9,11,-1,13,15,-1,-1,17,-1,-1,-1,-1,-1,-1],"loss_changes":[3.283593E0,9.542098E-1,5.6679964E-1,3.0630398E-1,0E0,7.9545975E-2,3.9467663E-2,0E0,8.7224245E-3,5.0437212E-2,0E0,0E0,4.968159E-4,0E0,0E0,0E0,0E0,0E0,0E0],"parents":[2147483647,0,0,1,1,2,2,3,3,5,5,6,6,8,8,9,9,12,12],"right_children":[2,4,6,8,-1,10,12,-1,14,16,-1,-1,18,-1,-1,-1,-1,-1,-1],"split_conditions":[3.5E-1,1.344E4,3.192125E3,1.124E3,-3.702484E-3,1.0833334E0,4E-1,5.881886E-2,3.3333334E-1,2.8344E3,-1.0551567E-2,2.3776416E-2,4.1666666E-1,3.094396E-2,1.4273671E-2,-5.067515E-3,-1.2244605E-3,9.41946E-3,2.4977492E-3],"split_indices":[1,4,7,0,0,1,1,0,1,4,0,0,1,0,0,0,0,0,0],"split_type":[0,0,0,0,0,0,0,0,0,0,0,0,0,0,0,0,0,0,0],"sum_hessian":[1.51E2,2E1,1.31E2,1.6E1,4E0,1.24E2,7E0,4E0,1.2E1,1.11E2,1.3E1,3E0,4E0,9E0,3E0,8E1,3.1E1,3E0,1E0],"tree_param":{"num_deleted":"0","num_feature":"25","num_nodes":"19","size_leaf_vector":"1"}},{"base_weights":[1.5244389E-2,3.3778462E-1,-3.782374E-2,4.5301569E-1,-3.6000696E-3,-5.2665617E-2,2.02519E-1,5.505446E-2,3.2772022E-1,-1.2069169E-2,-6.6789165E-2,2.2349825E-2,1.0053215E-1,2.8716004E-2,1.3417253E-2,-5.01118E-3,1.1872184E-3,-9.014572E-3,-3.8067806E-3,8.854293E-3,2.3978422E-3],"categories":[],"categories_nodes":[],"categories_segments":[],"categories_sizes":[],"default_left":[0,0,0,0,0,0,0,0,0,0,0,0,0,0,0,0,0,0,0,0,0],"id":18,"left_children":[1,3,5,7,-1,9,11,-1,13,15,17,-1,19,-1,-1,-1,-1,-1,-1,-1,-1],"loss_changes":[2.6658504E0,9.9077916E-1,4.8866212E-1,2.7537608E-1,0E0,7.201141E-2,3.4618676E-2,0E0,4.758239E-3,4.7197603E-2,7.74847E-2,0E0,2.622679E-4,0E0,0E0,0E0,0E0,0E0,0E0,0E0,0E0],"parents":[2147483647,0,0,1,1,2,2,3,3,5,5,6,6,8,8,9,9,10,10,12,12],"right_children":[2,4,6,8,-1,10,12,-1,14,16,18,-1,20,-1,-1,-1,-1,-1,-1,-1,-1],"split_conditions":[3.5E-1,1.344E4,3.192125E3,1.124E3,-3.6000696E-3,1.266E3,4E-1,5.505446E-2,3.3333334E-1,1.162E3,3.1061E3,2.2349825E-2,4.1666666E-1,2.8716004E-2,1.3417253E-2,-5.01118E-3,1.1872184E-3,-9.014572E-3,-3.8067806E-3,8.854293E-3,2.3978422E-3],"split_indices":[1,4,7,0,0,0,1,0,1,0,12,0,1,0,0,0,0,0,0,0,0],"split_type":[0,0,0,0,0,0,0,0,0,0,0,0,0,0,0,0,0,0,0,0,0],"sum_hessian":[1.54E2,2.1E1,1.33E2,1.6E1,5E0,1.26E2,7E0,4E0,1.2E1,3.3E1,9.3E1,3E0,4E0,9E0,3E0,1.1E1,2.2E1,2.6E1,6.7E1,3E0,1E0],"tree_param":{"num_deleted":"0","num_feature":"25","num_nodes":"21","size_leaf_vector":"1"}},{"base_weights":[1.3349902E-2,3.0594966E-1,-3.283392E-2,4.247332E-1,-3.3600617E-3,-4.745041E-2,1.9051766E-1,5.153096E-2,2.2911366E-2,-3.5962947E-2,-1.0662255E-1,2.1008834E-2,9.4739914E-2,2.618076E-3,-3.4369722E-3,-1.890316E-3,-8.7936465E-3,8.323031E-3,2.3019218E-3],"categories":[],"categories_nodes":[],"categories_segments":[],"categories_sizes":[],"default_left":[0,0,0,0,0,0,0,0,0,0,0,0,0,0,0,0,0,0,0],"id":19,"left_children":[1,3,5,7,-1,9,11,-1,-1,13,15,-1,17,-1,-1,-1,-1,-1,-1],"loss_changes":[1.9829984E0,8.4445477E-1,4.2364636E-1,2.7081275E-1,0E0,7.773405E-2,3.0359387E-2,0E0,0E0,5.0444275E-2,2.6032776E-3,0E0,7.3153526E-5,0E0,0E0,0E0,0E0,0E0,0E0],"parents":[2147483647,0,0,1,1,2,2,3,3,5,5,6,6,9,9,10,10,12,12],"right_children":[2,4,6,8,-1,10,12,-1,-1,14,16,-1,18,-1,-1,-1,-1,-1,-1],"split_conditions":[3.5E-1,1.344E4,3.192125E3,1.124E3,-3.3600617E-3,9.166667E-1,4E-1,5.153096E-2,2.2911366E-2,4.2564E3,1.194E3,2.1008834E-2,4.1666666E-1,2.618076E-3,-3.4369722E-3,-1.890316E-3,-8.7936465E-3,8.323031E-3,2.3019218E-3],"split_indices":[1,4,7,0,0,1,1,0,0,8,0,0,1,0,0,0,0,0,0],"split_type":[0,0,0,0,0,0,0,0,0,0,0,0,0,0,0,0,0,0,0],"sum_hessian":[1.45E2,1.9E1,1.26E2,1.4E1,5E0,1.19E2,7E0,4E0,1E1,1.01E2,1.8E1,3E0,4E0,9E0,9.2E1,1E0,1.7E1,3E0,1E0],"tree_param":{"num_deleted":"0","num_feature":"25","num_nodes":"19","size_leaf_vector":"1"}},{"base_weights":[1.2526219E-2,2.925655E-1,-3.3515587E-2,3.9869243E-1,-3.1360434E-3,-4.4218853E-2,1.5781498E-1,4.8232984E-2,2.8037643E-1,-3.5308596E-2,-8.834645E-3,4.306412E-3,1.509143E-2,2.4912365E-2,1.1237525E-2,-3.1332143E-3,6.0574436E-3],"categories":[],"categories_nodes":[],"categories_segments":[],"categories_sizes":[],"default_left":[0,0,0,0,0,0,0,0,0,0,0,0,0,0,0,0,0],"id":20,"left_children":[1,3,5,7,-1,9,11,-1,13,15,-1,-1,-1,-1,-1,-1,-1],"loss_changes":[1.9180456E0,7.5502443E-1,2.6910472E-1,2.1755719E-1,0E0,6.8078995E-2,1.2284771E-2,0E0,8.350074E-3,4.9637526E-2,0E0,0E0,0E0,0E0,0E0,0E0,0E0],"parents":[2147483647,0,0,1,1,2,2,3,3,5,5,6,6,8,8,9,9],"right_children":[2,4,6,8,-1,10,12,-1,14,16,-1,-1,-1,-1,-1,-1,-1],"split_conditions":[3.5E-1,1.344E4,3.192125E3,1.124E3,-3.1360434E-3,1.0833334E0,3.105E3,4.8232984E-2,3.3333334E-1,2.0892222E3,-8.834645E-3,4.306412E-3,1.509143E-2,2.4912365E-2,1.1237525E-2,-3.1332143E-3,6.0574436E-3],"split_indices":[2,4,7,0,0,2,4,0,2,9,0,0,0,0,0,0,0],"split_type":[0,0,0,0,0,0,0,0,0,0,0,0,0,0,0,0,0],"sum_hessian":[1.47E2,2E1,1.27E2,1.5E1,5E0,1.21E2,6E0,4E0,1.1E1,1.08E2,1.3E1,2E0,4E0,8E0,3E0,1.05E2,3E0],"tree_param":{"num_deleted":"0","num_feature":"25","num_nodes":"17","size_leaf_vector":"1"}},{"base_weights":[1.0753516E-2,2.672705E-1,-2.7707716E-2,3.7840444E-1,-2.9269662E-3,-4.057211E-2,1.6872168E-1,4.5146074E-2,1.980826E-2,-6.654998E-2,-2.0406585E-2,1.884281E-2,6.5221246E-3,-2.1191817E-3,-7.995299E-3,-2.1625587E-3,1.0749029E-2],"categories":[],"categories_nodes":[],"categories_segments":[],"categories_sizes":[],"default_left":[0,0,0,0,0,0,0,0,0,0,0,0,0,0,0,0,0],"id":21,"left_children":[1,3,5,7,-1,9,11,-1,-1,13,15,-1,-1,-1,-1,-1,-1],"loss_changes":[1.4379697E0,6.5545344E-1,3.2776746E-1,2.0073342E-1,0E0,6.1504826E-2,2.74041E-2,0E0,0E0,6.691091E-2,7.438534E-2,0E0,0E0,0E0,0E0,0E0,0E0],"parents":[2147483647,0,0,1,1,2,2,3,3,5,5,6,6,9,9,10,10],"right_children":[2,4,6,8,-1,10,12,-1,-1,14,16,-1,-1,-1,-1,-1,-1],"split_conditions":[3.5E-1,1.344E4,3.192125E3,1.124E3,-2.9269662E-3,1.91375E3,4E-1,4.5146074E-2,1.980826E-2,3.5E1,2.0892222E3,1.884281E-2,6.5221246E-3,-2.1191817E-3,-7.995299E-3,-2.1625587E-3,1.0749029E-2],"split_indices":[1,4,7,0,0,4,1,0,0,6,9,0,0,0,0,0,0],"split_type":[0,0,0,0,0,0,0,0,0,0,0,0,0,0,0,0,0],"sum_hessian":[1.44E2,1.8E1,1.26E2,1.3E1,5E0,1.19E2,7E0,4E0,9E0,5.1E1,6.8E1,3E0,4E0,2.4E1,2.7E1,6.6E1,2E0],"tree_param":{"num_deleted":"0","num_feature":"25","num_nodes":"17","size_leaf_vector":"1"}},{"base_weights":[6.8613067E-3,2.9401657E-1,-3.1630825E-2,3.6577994E-1,-2.4527549E-3,-3.880322E-2,1.5113631E-1,3.4991294E-2,1.1952117E-2,-4.9481105E-2,-8.075067E-4,1.4225272E-2,1.7767142E-3,-6.488305E-4,-5.1785205E-3,3.1521684E-3,-1.7542366E-3],"categories":[],"categories_nodes":[],"categories_segments":[],"categories_sizes":[],"default_left":[0,0,0,0,0,0,0,0,0,0,0,0,0,0,0,0,0],"id":22,"left_children":[1,3,5,7,-1,9,11,-1,-1,13,15,-1,-1,-1,-1,-1,-1],"loss_changes":[1.5899101E0,4.0731204E-1,1.7234612E-1,1.5158486E-1,0E0,4.986283E-2,1.3249546E-2,0E0,0E0,6.004335E-2,2.4642872E-2,0E0,0E0,0E0,0E0,0E0,0E0],"parents":[2147483647,0,0,1,1,2,2,3,3,5,5,6,6,9,9,10,10],"right_children":[2,4,6,8,-1,10,12,-1,-1,14,16,-1,-1,-1,-1,-1,-1],"split_conditions":[3.5E-1,1.344E4,3.192125E3,2.3333333E-1,-2.4527549E-3,2.8344E3,4.1666666E-1,3.4991294E-2,1.1952117E-2,3E1,-3.5E-1,1.4225272E-2,1.7767142E-3,-6.488305E-4,-5.1785205E-3,3.1521684E-3,-1.7542366E-3],"split_indices":[1,4,7,1,0,4,1,0,0,6,17,0,0,0,0,0,0],"split_type":[0,0,0,0,0,0,0,0,0,0,0,0,0,0,0,0,0],"sum_hessian":[1.42E2,1.6E1,1.26E2,1.3E1,3E0,1.22E2,4E0,9E0,4E0,9.5E1,2.7E1,3E0,1E0,2.6E1,6.9E1,9E0,1.8E1],"tree_param":{"num_deleted":"0","num_feature":"25","num_nodes":"17","size_leaf_vector":"1"}},{"base_weights":[1.0653067E-2,2.5505278E-1,-2.542637E-2,3.3337948E-1,-2.4750365E-3,-3.655761E-2,1.4750338E-1,4.001729E-2,2.2723745E-1,-4.7802966E-2,-3.4362078E-3,1.6858721E-2,5.3934557E-3,1.965354E-2,7.695694E-3,-4.309389E-3,1.0748545E-3,-3.0605213E-3,2.0617293E-3],"categories":[],"categories_nodes":[],"categories_segments":[],"categories_sizes":[],"default_left":[0,0,0,0,0,0,0,0,0,0,0,0,0,0,0,0,0,0,0],"id":23,"left_children":[1,3,5,7,-1,9,11,-1,13,15,17,-1,-1,-1,-1,-1,-1,-1,-1],"loss_changes":[1.3027022E0,4.3592763E-1,2.5370744E-1,1.5195787E-1,0E0,4.527609E-2,2.6303396E-2,0E0,2.9361844E-3,3.4518898E-2,3.353075E-2,0E0,0E0,0E0,0E0,0E0,0E0,0E0,0E0],"parents":[2147483647,0,0,1,1,2,2,3,3,5,5,6,6,8,8,9,9,10,10],"right_children":[2,4,6,8,-1,10,12,-1,14,16,18,-1,-1,-1,-1,-1,-1,-1,-1],"split_conditions":[3.5E-1,1.344E4,3.192125E3,1.124E3,-2.4750365E-3,2.8344E3,4E-1,4.001729E-2,3.3333334E-1,1.523E3,4.6E1,1.6858721E-2,5.3934557E-3,1.965354E-2,7.695694E-3,-4.309389E-3,1.0748545E-3,-3.0605213E-3,2.0617293E-3],"split_indices":[1,4,7,0,0,4,1,0,1,0,6,0,0,0,0,0,0,0,0],"split_type":[0,0,0,0,0,0,0,0,0,0,0,0,0,0,0,0,0,0,0],"sum_hessian":[1.46E2,1.8E1,1.28E2,1.4E1,4E0,1.21E2,7E0,4E0,1E1,9E1,3.1E1,3E0,4E0,8E0,2E0,8.2E1,8E0,1.4E1,1.7E1],"tree_param":{"num_deleted":"0","num_feature":"25","num_nodes":"19","size_leaf_vector":"1"}},{"base_weights":[1.0543805E-2,2.330646E-1,-2.3509324E-2,3.896141E-2,1.5960127E-1,-3.3770956E-2,1.3848466E-1,-2.2929993E-3,2.1973339E-1,-2.5837583E-2,-6.8565104E-3,1.5847206E-2,6.310339E-2,1.9573905E-2,8.195915E-3,-2.3369757E-3,5.6039235E-3,5.565386E-3,1.4899062E-3],"categories":[],"categories_nodes":[],"categories_segments":[],"categories_sizes":[],"default_left":[0,0,0,0,0,0,0,0,0,0,0,0,0,0,0,0,0,0,0],"id":24,"left_children":[1,3,5,-1,7,9,11,-1,13,15,-1,-1,17,-1,-1,-1,-1,-1,-1],"loss_changes":[1.1421084E0,2.953962E-1,2.2244103E-1,0E0,1.9874999E-1,4.887642E-2,2.3444906E-2,0E0,1.2960017E-2,3.731653E-2,0E0,0E0,1.4195219E-4,0E0,0E0,0E0,0E0,0E0,0E0],"parents":[2147483647,0,0,1,1,2,2,4,4,5,5,6,6,8,8,9,9,12,12],"right_children":[2,4,6,-1,8,10,12,-1,14,16,-1,-1,18,-1,-1,-1,-1,-1,-1],"split_conditions":[3.5E-1,1.12E3,3.192125E3,3.896141E-2,1.6666667E-1,1.0833334E0,4E-1,-2.2929993E-3,3.3333334E-1,2.0892222E3,-6.8565104E-3,1.5847206E-2,4.1666666E-1,1.9573905E-2,8.195915E-3,-2.3369757E-3,5.6039235E-3,5.565386E-3,1.4899062E-3],"split_indices":[1,0,7,0,1,1,1,0,1,9,0,0,1,0,0,0,0,0,0],"split_type":[0,0,0,0,0,0,0,0,0,0,0,0,0,0,0,0,0,0,0],"sum_hessian":[1.49E2,1.9E1,1.3E2,3E0,1.6E1,1.23E2,7E0,4E0,1.2E1,1.08E2,1.5E1,3E0,4E0,9E0,3E0,1.05E2,3E0,3E0,1E0],"tree_param":{"num_deleted":"0","num_feature":"25","num_nodes":"19","size_leaf_vector":"1"}},{"base_weights":[1.1527441E-2,2.1764126E-1,-2.0767901E-2,2.8043532E-1,-2.14624E-3,-3.058216E-2,1.3026875E-1,3.527286E-2,1.9020097E-1,-2.2687068E-2,-7.4499235E-2,1.4896373E-2,5.9466265E-2,1.686403E-2,7.7041625E-3,-2.0774968E-3,5.2676965E-3,-1.1316299E-3,-6.1773905E-3,5.231476E-3,1.4303016E-3],"categories":[],"categories_nodes":[],"categories_segments":[],"categories_sizes":[],"default_left":[0,0,0,0,0,0,0,0,0,0,0,0,0,0,0,0,0,0,0,0,0],"id":25,"left_children":[1,3,5,7,-1,9,11,-1,13,15,17,-1,19,-1,-1,-1,-1,-1,-1,-1,-1],"loss_changes":[9.830278E-1,3.145479E-1,1.9371992E-1,1.4782465E-1,0E0,4.0264077E-2,2.0610318E-2,0E0,2.9106736E-3,3.192555E-2,1.860641E-3,0E0,6.332807E-5,0E0,0E0,0E0,0E0,0E0,0E0,0E0,0E0],"parents":[2147483647,0,0,1,1,2,2,3,3,5,5,6,6,8,8,9,9,10,10,12,12],"right_children":[2,4,6,8,-1,10,12,-1,14,16,18,-1,20,-1,-1,-1,-1,-1,-1,-1,-1],"split_conditions":[3.5E-1,1.344E4,3.192125E3,8.389286E2,-2.14624E-3,9.6666664E-1,4E-1,3.527286E-2,3.3333334E-1,2.0892222E3,3.2E1,1.4896373E-2,4.1666666E-1,1.686403E-2,7.7041625E-3,-2.0774968E-3,5.2676965E-3,-1.1316299E-3,-6.1773905E-3,5.231476E-3,1.4303016E-3],"split_indices":[1,4,7,11,0,1,1,0,1,9,6,0,1,0,0,0,0,0,0,0,0],"split_type":[0,0,0,0,0,0,0,0,0,0,0,0,0,0,0,0,0,0,0,0,0],"sum_hessian":[1.46E2,1.9E1,1.27E2,1.5E1,4E0,1.2E2,7E0,4E0,1.1E1,1.03E2,1.7E1,3E0,4E0,8E0,3E0,1E2,3E0,1E0,1.6E1,3E0,1E0],"tree_param":{"num_deleted":"0","num_feature":"25","num_nodes":"21","size_leaf_vector":"1"}},{"base_weights":[1.1265879E-2,1.9189526E-1,-1.7125785E-2,2.617407E-1,-2.1073467E-3,-2.5788909E-2,1.2254202E-1,3.301541E-2,1.7703235E-1,5.315997E-3,-3.6322307E-2,1.40025895E-2,4.483307E-3,1.672989E-2,8.806973E-3,-3.5897635E-3,1.6443208E-3,-3.5930949E-3,7.12378E-4],"categories":[],"categories_nodes":[],"categories_segments":[],"categories_sizes":[],"default_left":[0,0,0,0,0,0,0,0,0,0,0,0,0,0,0,0,0,0,0],"id":26,"left_children":[1,3,5,7,-1,9,11,-1,13,15,17,-1,-1,-1,-1,-1,-1,-1,-1],"loss_changes":[7.930552E-1,3.2699496E-1,1.652948E-1,1.3153028E-1,0E0,4.1803405E-2,1.811611E-2,0E0,2.7584732E-3,2.615958E-2,3.7313387E-2,0E0,0E0,0E0,0E0,0E0,0E0,0E0,0E0],"parents":[2147483647,0,0,1,1,2,2,3,3,5,5,6,6,8,8,9,9,10,10],"right_children":[2,4,6,8,-1,10,12,-1,14,16,18,-1,-1,-1,-1,-1,-1,-1,-1],"split_conditions":[3.5E-1,1.344E4,3.192125E3,1.124E3,-2.1073467E-3,1.266E3,4E-1,3.301541E-2,2.3333333E-1,1.161E3,1.523E3,1.40025895E-2,4.483307E-3,1.672989E-2,8.806973E-3,-3.5897635E-3,1.6443208E-3,-3.5930949E-3,7.12378E-4],"split_indices":[1,4,7,0,0,0,1,0,1,0,0,0,0,0,0,0,0,0,0],"split_type":[0,0,0,0,0,0,0,0,0,0,0,0,0,0,0,0,0,0,0],"sum_hessian":[1.53E2,2E1,1.33E2,1.5E1,5E0,1.26E2,7E0,4E0,1.1E1,3.2E1,9.4E1,3E0,4E0,6E0,5E0,7E0,2.5E1,7.9E1,1.5E1],"tree_param":{"num_deleted":"0","num_feature":"25","num_nodes":"19","size_leaf_vector":"1"}},{"base_weights":[1.2818575E-2,1.8868816E-1,-1.5689733E-2,2.4006201E-1,-1.897644E-3,-2.3383414E-2,1.2283973E-1,3.0902436E-2,1.6535784E-1,-3.3302072E-2,7.4468274E-3,1.3162422E-2,5.043924E-2,1.45118255E-2,6.713476E-3,-2.086736E-3,-7.3059043E-3,3.0601854E-3,-1.1218041E-3,4.5843506E-3,1.1937523E-3],"categories":[],"categories_nodes":[],"categories_segments":[],"categories_sizes":[],"default_left":[0,0,0,0,0,0,0,0,0,0,0,0,0,0,0,0,0,0,0,0,0],"id":27,"left_children":[1,3,5,7,-1,9,11,-1,13,15,17,-1,19,-1,-1,-1,-1,-1,-1,-1,-1],"loss_changes":[7.550221E-1,2.3485172E-1,1.414266E-1,1.2181866E-1,0E0,3.816653E-2,1.2830131E-2,0E0,1.7590821E-3,3.6984503E-2,2.1039011E-2,0E0,1.2023654E-4,0E0,0E0,0E0,0E0,0E0,0E0,0E0,0E0],"parents":[2147483647,0,0,1,1,2,2,3,3,5,5,6,6,8,8,9,9,10,10,12,12],"right_children":[2,4,6,8,-1,10,12,-1,14,16,18,-1,20,-1,-1,-1,-1,-1,-1,-1,-1],"split_conditions":[3.5E-1,1.344E4,3.192125E3,1.124E3,-1.897644E-3,2.8344E3,1.242E3,3.0902436E-2,3.3333334E-1,2.46E3,-3.5E-1,1.3162422E-2,4.1666666E-1,1.45118255E-2,6.713476E-3,-2.086736E-3,-7.3059043E-3,3.0601854E-3,-1.1218041E-3,4.5843506E-3,1.1937523E-3],"split_indices":[1,4,7,0,0,4,0,0,1,4,17,0,1,0,0,0,0,0,0,0,0],"split_type":[0,0,0,0,0,0,0,0,0,0,0,0,0,0,0,0,0,0,0,0,0],"sum_hessian":[1.49E2,2E1,1.29E2,1.6E1,4E0,1.23E2,6E0,4E0,1.2E1,9.3E1,3E1,3E0,3E0,9E0,3E0,8.4E1,9E0,1.2E1,1.8E1,2E0,1E0],"tree_param":{"num_deleted":"0","num_feature":"25","num_nodes":"21","size_leaf_vector":"1"}},{"base_weights":[4.6022446E-3,1.01781435E-1,-2.5859086E-2,1.4008524E-1,-2.2956E-3,5.5886377E-3,-3.5108857E-2,2.4711736E-1,8.491652E-2,2.5787774E-2,-2.6136268E-2,-6.230179E-2,-1.7971916E-2,2.4457823E-2,1.1127074E-2,8.583623E-3,1.1853472E-3,3.6129507E-4,9.883982E-3,1.2020492E-3,-4.1443086E-3,-5.1620686E-3,-1.4248912E-3,-6.2604714E-3,-3.8105252E-4],"categories":[],"categories_nodes":[],"categories_segments":[],"categories_sizes":[],"default_left":[0,0,0,0,0,0,0,0,0,0,0,0,0,0,0,0,0,0,0,0,0,0,0,0,0],"id":28,"left_children":[1,3,5,7,-1,9,11,13,15,17,19,21,23,-1,-1,-1,-1,-1,-1,-1,-1,-1,-1,-1,-1],"loss_changes":[4.4666308E-1,1.8393853E-1,3.3647887E-2,1.4435077E-1,0E0,1.797602E-2,4.035466E-2,1.4457226E-2,2.9785112E-2,3.4794424E-2,1.2400176E-2,2.215013E-3,4.4218738E-2,0E0,0E0,0E0,0E0,0E0,0E0,0E0,0E0,0E0,0E0,0E0,0E0],"parents":[2147483647,0,0,1,1,2,2,3,3,5,5,6,6,7,7,8,8,9,9,10,10,11,11,12,12],"right_children":[2,4,6,8,-1,10,12,14,16,18,20,22,24,-1,-1,-1,-1,-1,-1,-1,-1,-1,-1,-1,-1],"split_conditions":[4.1666666E-1,1.4988123E4,3E1,2.3333333E-1,-2.2956E-3,6E1,1.91375E3,1.234E3,1.251E3,2.0892222E3,4.9161294E3,4.5E-1,3.1061E3,2.4457823E-2,1.1127074E-2,8.583623E-3,1.1853472E-3,3.6129507E-4,9.883982E-3,1.2020492E-3,-4.1443086E-3,-5.1620686E-3,-1.4248912E-3,-6.2604714E-3,-3.8105252E-4],"split_indices":[1,13,6,1,0,24,4,0,0,9,13,18,12,0,0,0,0,0,0,0,0,0,0,0,0],"split_type":[0,0,0,0,0,0,0,0,0,0,0,0,0,0,0,0,0,0,0,0,0,0,0,0,0],"sum_hessian":[1.49E2,3.5E1,1.14E2,2.7E1,8E0,2.6E1,8.8E1,8E0,1.9E1,1.6E1,1E1,3.3E1,5.5E1,4E0,4E0,1.4E1,5E0,1.4E1,2E0,4E0,6E0,3.1E1,2E0,9E0,4.6E1],"tree_param":{"num_deleted":"0","num_feature":"25","num_nodes":"25","size_leaf_vector":"1"}},{"base_weights":[1.0157684E-3,2.9204806E-2,-9.246155E-3,5.9110053E-2,-2.7311996E-2,-2.1517181E-3,8.645537E-2,-3.017765E-2,5.8321476E-2,2.7762775E-3,9.887601E-3,-4.5935614E-3,-1.5395364E-3,9.356841E-3,-4.7038267E-3],"categories":[],"categories_nodes":[],"categories_segments":[],"categories_sizes":[],"default_left":[0,0,0,0,0,0,0,0,0,0,0,0,0,0,0],"id":29,"left_children":[1,-1,3,5,7,-1,9,11,13,-1,-1,-1,-1,-1,-1],"loss_changes":[5.4506564E-1,0E0,1.7697196E-1,7.28816E-2,2.9489748E-2,0E0,3.9917916E-2,3.1658217E-2,3.4348086E-2,0E0,0E0,0E0,0E0,0E0,0E0],"parents":[2147483647,0,0,2,2,3,3,4,4,6,6,7,7,8,8],"right_children":[2,-1,4,6,8,-1,10,12,14,-1,-1,-1,-1,-1,-1],"split_conditions":[1.12E3,2.9204806E-2,4.1666666E-1,1.157E3,2.0892222E3,-2.1517181E-3,2.776073E3,3.1061E3,6.333333E-1,2.7762775E-3,9.887601E-3,-4.5935614E-3,-1.5395364E-3,9.356841E-3,-4.7038267E-3],"split_indices":[0,0,1,0,9,0,14,12,1,0,0,0,0,0,0],"split_type":[0,0,0,0,0,0,0,0,0,0,0,0,0,0,0],"sum_hessian":[1.44E2,3E0,1.41E2,2.9E1,1.12E2,7E0,2.2E1,1.09E2,3E0,1E1,1.2E1,3E1,7.9E1,2E0,1E0],"tree_param":{"num_deleted":"0","num_feature":"25","num_nodes":"15","size_leaf_vector":"1"}},{"base_weights":[7.6107946E-3,1.0021549E-1,-2.2511875E-2,2.4402263E-2,7.9796806E-2,-2.8354688E-2,1.504752E-2,-1.5438843E-3,9.6955985E-2,-2.0542488E-2,-8.8984795E-2,2.9662226E-3,7.111476E-3,1.3657218E-2,4.9899723E-3,-3.2416827E-3,4.888026E-4,-8.06718E-3,1.1825942E-3,-1.2066193E-3,1.4921146E-3],"categories":[],"categories_nodes":[],"categories_segments":[],"categories_sizes":[],"default_left":[0,0,0,0,0,0,0,0,0,0,0,0,0,0,0,0,0,0,0,0,0],"id":30,"left_children":[1,3,5,-1,7,9,11,-1,13,15,17,-1,19,-1,-1,-1,-1,-1,-1,-1,-1],"loss_changes":[4.2068112E-1,1.3039401E-1,2.5444254E-2,0E0,6.1384946E-2,4.506383E-2,2.5336526E-3,0E0,6.587249E-2,4.7638174E-2,1.502239E-2,0E0,3.6108785E-3,0E0,0E0,0E0,0E0,0E0,0E0,0E0,0E0],"parents":[2147483647,0,0,1,1,2,2,4,4,5,5,6,6,8,8,9,9,10,10,12,12],"right_children":[2,4,6,-1,8,10,12,-1,14,16,18,-1,20,-1,-1,-1,-1,-1,-1,-1,-1],"split_conditions":[4.1666666E-1,1.12E3,1.523E3,2.4402263E-2,1.6666667E-1,1.492E3,4.6666667E-1,-1.5438843E-3,2.3333333E-1,1.9967441E3,6E-1,2.9662226E-3,5.6666666E-1,1.3657218E-2,4.9899723E-3,-3.2416827E-3,4.888026E-4,-8.06718E-3,1.1825942E-3,-1.2066193E-3,1.4921146E-3],"split_indices":[1,0,0,0,1,0,1,0,1,4,1,0,1,0,0,0,0,0,0,0,0],"split_type":[0,0,0,0,0,0,0,0,0,0,0,0,0,0,0,0,0,0,0,0,0],"sum_hessian":[1.49E2,3.6E1,1.13E2,2E0,3.4E1,9.8E1,1.5E1,5E0,2.9E1,8.8E1,1E1,3E0,1.2E1,8E0,2.1E1,5E1,3.8E1,9E0,1E0,4E0,8E0],"tree_param":{"num_deleted":"0","num_feature":"25","num_nodes":"21","size_leaf_vector":"1"}},{"base_weights":[7.783155E-3,1.3980237E-1,-1.5514492E-2,1.8727785E-1,-1.440951E-3,-2.0389842E-2,1.0964985E-2,2.5030166E-2,1.2456446E-1,-2.9760487E-2,5.7843383E-3,1.1622105E-2,6.0950345E-3,-1.4069168E-5,-3.3421193E-3,2.5332123E-3,-1.009716E-3],"categories":[],"categories_nodes":[],"categories_segments":[],"categories_sizes":[],"default_left":[0,0,0,0,0,0,0,0,0,0,0,0,0,0,0,0,0],"id":31,"left_children":[1,3,5,7,-1,9,-1,-1,11,13,15,-1,-1,-1,-1,-1,-1],"loss_changes":[4.5122656E-1,1.6820401E-1,9.577785E-2,9.493142E-2,0E0,3.0094951E-2,0E0,0E0,1.9572824E-3,3.198666E-2,1.6119435E-2,0E0,0E0,0E0,0E0,0E0,0E0],"parents":[2147483647,0,0,1,1,2,2,3,3,5,5,8,8,9,9,10,10],"right_children":[2,4,6,8,-1,10,-1,-1,12,14,16,-1,-1,-1,-1,-1,-1],"split_conditions":[3.5E-1,1.344E4,1.721E3,1.124E3,-1.440951E-3,2.8344E3,1.0964985E-2,2.5030166E-2,2.3333333E-1,3E1,1.6438459E0,1.1622105E-2,6.0950345E-3,-1.4069168E-5,-3.3421193E-3,2.5332123E-3,-1.009716E-3],"split_indices":[1,4,11,0,0,4,0,0,1,6,15,0,0,0,0,0,0],"split_type":[0,0,0,0,0,0,0,0,0,0,0,0,0,0,0,0,0],"sum_hessian":[1.45E2,2.1E1,1.24E2,1.6E1,5E0,1.21E2,3E0,4E0,1.2E1,8.9E1,3.2E1,7E0,5E0,2.6E1,6.3E1,1.3E1,1.9E1],"tree_param":{"num_deleted":"0","num_feature":"25","num_nodes":"17","size_leaf_vector":"1"}},{"base_weights":[6.3567376E-3,2.4486579E-2,-1.4696183E-3,6.1204392E-2,-1.9068351E-2,-2.0011186E-3,8.448375E-2,-1.3431589E-2,-4.41761E-3,2.489926E-3,9.537861E-3,-1.2779273E-3,4.4316575E-3],"categories":[],"categories_nodes":[],"categories_segments":[],"categories_sizes":[],"default_left":[0,0,0,0,0,0,0,0,0,0,0,0,0],"id":32,"left_children":[1,-1,3,5,7,-1,9,11,-1,-1,-1,-1,-1],"loss_changes":[3.6873388E-1,0E0,1.7102647E-1,7.035495E-2,2.3915555E-2,0E0,4.63389E-2,1.9434212E-2,0E0,0E0,0E0,0E0,0E0],"parents":[2147483647,0,0,2,2,3,3,4,4,6,6,7,7],"right_children":[2,-1,4,6,8,-1,10,12,-1,-1,-1,-1,-1],"split_conditions":[1.12E3,2.4486579E-2,4.1666666E-1,1.157E3,1.0833334E0,-2.0011186E-3,-3.6666667E-1,2.0892222E3,-4.41761E-3,2.489926E-3,9.537861E-3,-1.2779273E-3,4.4316575E-3],"split_indices":[0,0,1,0,1,0,17,9,0,0,0,0,0],"split_type":[0,0,0,0,0,0,0,0,0,0,0,0,0],"sum_hessian":[1.56E2,3E0,1.53E2,3.3E1,1.2E2,7E0,2.6E1,1.05E2,1.5E1,1.1E1,1.5E1,1.02E2,3E0],"tree_param":{"num_deleted":"0","num_feature":"25","num_nodes":"13","size_leaf_vector":"1"}},{"base_weights":[5.2447594E-3,2.3017386E-2,-3.1018222E-3,-1.5570188E-2,3.0680295E-2,9.082226E-3,-2.3908755E-2,-5.2575176E-3,3.806651E-2,2.278945E-3,-1.9851036E-3,-1.2916861E-3,-4.7751E-3,-1.8610286E-3,4.3383734E-3],"categories":[],"categories_nodes":[],"categories_segments":[],"categories_sizes":[],"default_left":[0,0,0,0,0,0,0,0,0,0,0,0,0,0,0],"id":33,"left_children":[1,-1,3,5,7,9,11,-1,13,-1,-1,-1,-1,-1,-1],"loss_changes":[3.2861003E-1,0E0,5.7761956E-2,2.0773726E-2,2.8846636E-2,1.7808061E-2,1.9867409E-2,0E0,3.595621E-2,0E0,0E0,0E0,0E0,0E0,0E0],"parents":[2147483647,0,0,2,2,3,3,4,4,5,5,6,6,8,8],"right_children":[2,-1,4,6,8,10,12,-1,14,-1,-1,-1,-1,-1,-1],"split_conditions":[1.12E3,2.3017386E-2,2.958E3,3E1,7.6970416E2,6E1,1.4218541E3,-5.2575176E-3,1.157E3,2.278945E-3,-1.9851036E-3,-1.2916861E-3,-4.7751E-3,-1.8610286E-3,4.3383734E-3],"split_indices":[0,0,4,6,13,24,9,0,0,0,0,0,0,0,0],"split_type":[0,0,0,0,0,0,0,0,0,0,0,0,0,0,0],"sum_hessian":[1.38E2,3E0,1.35E2,9.9E1,3.6E1,2.5E1,7.4E1,2E0,3.4E1,1.6E1,9E0,6.2E1,1.2E1,7E0,2.7E1],"tree_param":{"num_deleted":"0","num_feature":"25","num_nodes":"15","size_leaf_vector":"1"}},{"base_weights":[7.6768044E-3,1.2795046E-1,-8.907948E-3,1.6910471E-1,-1.0297241E-3,-1.2911181E-2,9.455576E-2,2.1209855E-2,8.334801E-3,-2.7847476E-2,-1.8372472E-3,9.474535E-3,-3.791809E-5,-2.7255277E-4,-3.9039557E-3,-5.0417107E-4,8.474604E-3],"categories":[],"categories_nodes":[],"categories_segments":[],"categories_sizes":[],"default_left":[0,0,0,0,0,0,0,0,0,0,0,0,0,0,0,0,0],"id":34,"left_children":[1,3,5,7,-1,9,11,-1,-1,13,15,-1,-1,-1,-1,-1,-1],"loss_changes":[2.9635668E-1,1.0649428E-1,5.547963E-2,5.9646994E-2,0E0,2.0955086E-2,1.1400752E-2,0E0,0E0,2.7485963E-2,3.627495E-2,0E0,0E0,0E0,0E0,0E0,0E0],"parents":[2147483647,0,0,1,1,2,2,3,3,5,5,6,6,9,9,10,10],"right_children":[2,4,6,8,-1,10,12,-1,-1,14,16,-1,-1,-1,-1,-1,-1],"split_conditions":[3.5E-1,1.344E4,1.721E3,8.389286E2,-1.0297241E-3,1.91375E3,4E-1,2.1209855E-2,8.334801E-3,3.5E1,2.0892222E3,9.474535E-3,-3.791809E-5,-2.7255277E-4,-3.9039557E-3,-5.0417107E-4,8.474604E-3],"split_indices":[2,4,11,11,0,4,2,0,0,6,9,0,0,0,0,0,0],"split_type":[0,0,0,0,0,0,0,0,0,0,0,0,0,0,0,0,0],"sum_hessian":[1.47E2,1.7E1,1.3E2,1.3E1,4E0,1.26E2,4E0,4E0,9E0,5.3E1,7.3E1,3E0,1E0,2.5E1,2.8E1,7.1E1,2E0],"tree_param":{"num_deleted":"0","num_feature":"25","num_nodes":"17","size_leaf_vector":"1"}},{"base_weights":[6.075079E-3,1.1061519E-1,-1.1663055E-2,1.476436E-1,-1.0187593E-3,-1.6986296E-2,7.163966E-2,1.9852431E-2,9.7628005E-2,-1.8986274E-2,4.725957E-2,8.90605E-3,2.5562953E-2,9.253759E-3,4.5838417E-3,-6.135492E-3,-1.3480876E-3,8.022613E-3,-4.4723894E-3,-3.639221E-5,2.5744915E-3],"categories":[],"categories_nodes":[],"categories_segments":[],"categories_sizes":[],"default_left":[0,0,0,0,0,0,0,0,0,0,0,0,0,0,0,0,0,0,0,0,0],"id":35,"left_children":[1,3,5,7,-1,9,11,-1,13,15,17,-1,19,-1,-1,-1,-1,-1,-1,-1,-1],"loss_changes":[2.8129646E-1,1.02363884E-1,5.8864146E-2,6.1234772E-2,0E0,1.670158E-2,1.1782978E-2,0E0,2.8324947E-3,1.34934895E-2,2.7486682E-2,0E0,8.75595E-4,0E0,0E0,0E0,0E0,0E0,0E0,0E0,0E0],"parents":[2147483647,0,0,1,1,2,2,3,3,5,5,6,6,8,8,9,9,10,10,12,12],"right_children":[2,4,6,8,-1,10,12,-1,14,16,18,-1,20,-1,-1,-1,-1,-1,-1,-1,-1],"split_conditions":[3.5E-1,1.344E4,3.192125E3,1.124E3,-1.0187593E-3,2.0892222E3,4E-1,1.9852431E-2,2.3333333E-1,1.311766E3,6.333333E-1,8.90605E-3,1.242E3,9.253759E-3,4.5838417E-3,-6.135492E-3,-1.3480876E-3,8.022613E-3,-4.4723894E-3,-3.639221E-5,2.5744915E-3],"split_indices":[1,4,7,0,0,9,1,0,1,14,1,0,0,0,0,0,0,0,0,0,0],"split_type":[0,0,0,0,0,0,0,0,0,0,0,0,0,0,0,0,0,0,0,0,0],"sum_hessian":[1.5E2,2.1E1,1.29E2,1.6E1,5E0,1.22E2,7E0,4E0,1.2E1,1.19E2,3E0,3E0,4E0,7E0,5E0,3E0,1.16E2,2E0,1E0,1E0,3E0],"tree_param":{"num_deleted":"0","num_feature":"25","num_nodes":"21","size_leaf_vector":"1"}},{"base_weights":[5.930379E-3,1.18052155E-1,-1.0253289E-2,1.4293504E-1,-8.793926E-4,4.384007E-2,-1.653105E-2,1.8581863E-2,9.379951E-2,6.427697E-2,-4.201673E-3,-1.3284545E-2,-6.0367584E-3,8.606014E-3,4.2398833E-3,9.174665E-4,8.028728E-3,-6.605312E-4,-3.673462E-3],"categories":[],"categories_nodes":[],"categories_segments":[],"categories_sizes":[],"default_left":[0,0,0,0,0,0,0,0,0,0,0,0,0,0,0,0,0,0,0],"id":36,"left_children":[1,3,5,7,-1,9,11,-1,13,15,-1,17,-1,-1,-1,-1,-1,-1,-1],"loss_changes":[2.733917E-1,6.25802E-2,4.5549974E-2,4.8447788E-2,0E0,3.094637E-2,2.1763615E-2,0E0,1.0433942E-3,2.1714427E-2,0E0,1.8325904E-2,0E0,0E0,0E0,0E0,0E0,0E0,0E0],"parents":[2147483647,0,0,1,1,2,2,3,3,5,5,6,6,8,8,9,9,11,11],"right_children":[2,4,6,8,-1,10,12,-1,14,16,-1,18,-1,-1,-1,-1,-1,-1,-1],"split_conditions":[3.5E-1,1.344E4,2.1E1,8.389286E2,-8.793926E-4,4.3333334E-1,1.9192667E3,1.8581863E-2,2.3333333E-1,1.4E1,-4.201673E-3,1.0833334E0,-6.0367584E-3,8.606014E-3,4.2398833E-3,9.174665E-4,8.028728E-3,-6.605312E-4,-3.673462E-3],"split_indices":[1,4,6,11,0,17,9,0,1,6,0,1,0,0,0,0,0,0,0],"split_type":[0,0,0,0,0,0,0,0,0,0,0,0,0,0,0,0,0,0,0],"sum_hessian":[1.49E2,1.8E1,1.31E2,1.5E1,3E0,1.3E1,1.18E2,4E0,1.1E1,1.1E1,2E0,1.13E2,5E0,7E0,4E0,5E0,6E0,9.9E1,1.4E1],"tree_param":{"num_deleted":"0","num_feature":"25","num_nodes":"19","size_leaf_vector":"1"}},{"base_weights":[6.027475E-3,1.0163897E-1,-8.565778E-3,1.8057747E-2,6.84184E-2,-1.2869646E-2,6.298077E-2,-8.423767E-4,9.172712E-2,-2.5299665E-2,-2.9532844E-3,7.889986E-3,2.1869373E-2,8.751228E-3,3.995552E-3,-3.1081273E-4,-3.312403E-3,-5.4143165E-4,7.1665444E-3,-3.5608292E-4,2.3649787E-3],"categories":[],"categories_nodes":[],"categories_segments":[],"categories_sizes":[],"default_left":[0,0,0,0,0,0,0,0,0,0,0,0,0,0,0,0,0,0,0,0,0],"id":37,"left_children":[1,3,5,-1,7,9,11,-1,13,15,17,-1,19,-1,-1,-1,-1,-1,-1,-1,-1],"loss_changes":[2.2132531E-1,7.112068E-2,4.3304443E-2,0E0,3.4089096E-2,1.6072417E-2,9.566151E-3,0E0,4.8688203E-3,1.9842677E-2,2.67272E-2,0E0,1.1439789E-3,0E0,0E0,0E0,0E0,0E0,0E0,0E0,0E0],"parents":[2147483647,0,0,1,1,2,2,4,4,5,5,6,6,8,8,9,9,10,10,12,12],"right_children":[2,4,6,-1,8,10,12,-1,14,16,18,-1,20,-1,-1,-1,-1,-1,-1,-1,-1],"split_conditions":[3.5E-1,1.12E3,3.192125E3,1.8057747E-2,1.6666667E-1,1.91375E3,4E-1,-8.423767E-4,2.3333333E-1,3.5E1,2.0892222E3,7.889986E-3,1.242E3,8.751228E-3,3.995552E-3,-3.1081273E-4,-3.312403E-3,-5.4143165E-4,7.1665444E-3,-3.5608292E-4,2.3649787E-3],"split_indices":[1,0,7,0,1,4,1,0,1,6,9,0,0,0,0,0,0,0,0,0,0],"split_type":[0,0,0,0,0,0,0,0,0,0,0,0,0,0,0,0,0,0,0,0,0],"sum_hessian":[1.57E2,2E1,1.37E2,3E0,1.7E1,1.3E2,7E0,4E0,1.3E1,5.7E1,7.3E1,3E0,4E0,8E0,5E0,2.5E1,3.2E1,7.1E1,2E0,1E0,3E0],"tree_param":{"num_deleted":"0","num_feature":"25","num_nodes":"21","size_leaf_vector":"1"}},{"base_weights":[8.492962E-3,9.493469E-2,-5.7552345E-3,1.6974278E-2,6.360637E-2,4.8417166E-2,-1.1776665E-2,-7.8845216E-4,8.529949E-2,-1.9685172E-3,7.27849E-2,-5.6952666E-3,-9.56929E-3,8.128941E-3,3.7291588E-3,2.223072E-3,7.0479475E-3,4.7181293E-4,-1.4500098E-3],"categories":[],"categories_nodes":[],"categories_segments":[],"categories_sizes":[],"default_left":[0,0,0,0,0,0,0,0,0,0,0,0,0,0,0,0,0,0,0],"id":38,"left_children":[1,3,5,-1,7,9,11,-1,13,-1,15,-1,17,-1,-1,-1,-1,-1,-1],"loss_changes":[1.8282892E-1,6.363815E-2,4.2323194E-2,0E0,2.9525854E-2,2.4923448E-2,1.4532076E-2,0E0,4.0979907E-3,0E0,4.442822E-3,0E0,1.50604835E-2,0E0,0E0,0E0,0E0,0E0,0E0],"parents":[2147483647,0,0,1,1,2,2,4,4,5,5,6,6,8,8,10,10,12,12],"right_children":[2,4,6,-1,8,10,12,-1,14,-1,16,-1,18,-1,-1,-1,-1,-1,-1],"split_conditions":[3.5E-1,1.12E3,2.1E1,1.6974278E-2,1.6666667E-1,1.148E3,7.6970416E2,-7.8845216E-4,2.3333333E-1,-1.9685172E-3,1.4E1,-5.6952666E-3,-6.666667E-2,8.128941E-3,3.7291588E-3,2.223072E-3,7.0479475E-3,4.7181293E-4,-1.4500098E-3],"split_indices":[1,0,6,0,1,0,13,0,1,0,6,0,17,0,0,0,0,0,0],"split_type":[0,0,0,0,0,0,0,0,0,0,0,0,0,0,0,0,0,0,0],"sum_hessian":[1.47E2,2E1,1.27E2,3E0,1.7E1,1.2E1,1.15E2,4E0,1.3E1,3E0,9E0,3E0,1.12E2,8E0,5E0,3E0,6E0,4E1,7.2E1],"tree_param":{"num_deleted":"0","num_feature":"25","num_nodes":"19","size_leaf_vector":"1"}},{"base_weights":[5.30134E-3,1.595581E-2,-9.098053E-5,2.5420055E-2,-1.337703E-2,-2.0086002E-2,4.36748E-2,-3.3959307E-2,-4.402574E-3,-2.004945E-3,1.983013E-3,1.9061349E-4,4.75718E-3,-5.9420285E-3,-1.6170169E-3,-1.8554814E-3,4.5736777E-4],"categories":[],"categories_nodes":[],"categories_segments":[],"categories_sizes":[],"default_left":[0,0,0,0,0,0,0,0,0,0,0,0,0,0,0,0,0],"id":39,"left_children":[1,-1,3,5,7,9,11,13,15,-1,-1,-1,-1,-1,-1,-1,-1],"loss_changes":[1.5495922E-1,0E0,4.9486473E-2,4.2412326E-2,1.7583108E-2,3.970466E-3,2.3330338E-2,1.4570735E-2,1.3063357E-2,0E0,0E0,0E0,0E0,0E0,0E0,0E0,0E0],"parents":[2147483647,0,0,2,2,3,3,4,4,5,5,6,6,7,7,8,8],"right_children":[2,-1,4,6,8,10,12,14,16,-1,-1,-1,-1,-1,-1,-1,-1],"split_conditions":[1.12E3,1.595581E-2,1.264E3,1.162E3,3.1061E3,6.333333E-1,2.0286487E3,6E-1,1.8827028E3,-2.004945E-3,1.983013E-3,1.9061349E-4,4.75718E-3,-5.9420285E-3,-1.6170169E-3,-1.8554814E-3,4.5736777E-4],"split_indices":[0,0,0,0,12,1,4,1,4,0,0,0,0,0,0,0,0],"split_type":[0,0,0,0,0,0,0,0,0,0,0,0,0,0,0,0,0],"sum_hessian":[1.47E2,3E0,1.44E2,4.9E1,9.5E1,1.4E1,3.5E1,2.8E1,6.7E1,1.3E1,1E0,1E1,2.5E1,6E0,2.2E1,2.3E1,4.4E1],"tree_param":{"num_deleted":"0","num_feature":"25","num_nodes":"17","size_leaf_vector":"1"}},{"base_weights":[3.8701936E-3,7.984653E-2,-9.017112E-3,1.4998455E-2,5.2984264E-2,-1.1527249E-2,4.4780254E-2,-6.498146E-4,7.5388364E-2,-1.597964E-2,1.7698511E-2,5.9629316E-3,1.12679005E-2,7.2727036E-3,3.1634392E-3,-8.6592406E-4,-4.257525E-3,1.8691198E-3,-5.244255E-4,-8.140564E-4,1.7446136E-3],"categories":[],"categories_nodes":[],"categories_segments":[],"categories_sizes":[],"default_left":[0,0,0,0,0,0,0,0,0,0,0,0,0,0,0,0,0,0,0,0,0],"id":40,"left_children":[1,3,5,-1,7,9,11,-1,13,15,17,-1,19,-1,-1,-1,-1,-1,-1,-1,-1],"loss_changes":[1.4856866E-1,5.3675026E-2,1.807123E-2,0E0,2.6624221E-2,1.6548382E-2,5.1433695E-3,0E0,4.1938946E-3,2.035099E-2,2.489124E-3,0E0,1.1259511E-3,0E0,0E0,0E0,0E0,0E0,0E0,0E0,0E0],"parents":[2147483647,0,0,1,1,2,2,4,4,5,5,6,6,8,8,9,9,10,10,12,12],"right_children":[2,4,6,-1,8,10,12,-1,14,16,18,-1,20,-1,-1,-1,-1,-1,-1,-1,-1],"split_conditions":[3.5E-1,1.12E3,3.192125E3,1.4998455E-2,1.6666667E-1,1.523E3,4E-1,-6.498146E-4,2.3333333E-1,1.499E3,8.6286536E2,5.9629316E-3,1.242E3,7.2727036E-3,3.1634392E-3,-8.6592406E-4,-4.257525E-3,1.8691198E-3,-5.244255E-4,-8.140564E-4,1.7446136E-3],"split_indices":[2,0,7,0,2,0,2,0,2,0,13,0,0,0,0,0,0,0,0,0,0],"split_type":[0,0,0,0,0,0,0,0,0,0,0,0,0,0,0,0,0,0,0,0,0],"sum_hessian":[1.5E2,2.1E1,1.29E2,3E0,1.8E1,1.24E2,5E0,5E0,1.3E1,1.08E2,1.6E1,2E0,3E0,8E0,5E0,9.6E1,1.2E1,1.3E1,3E0,1E0,2E0],"tree_param":{"num_deleted":"0","num_feature":"25","num_nodes":"21","size_leaf_vector":"1"}},{"base_weights":[4.9985684E-3,7.861251E-2,-6.662268E-3,1.4098548E-2,5.255196E-2,1.6019914E-2,-1.6590303E-2,-5.680542E-4,7.010276E-2,-2.1757316E-3,3.277254E-2,-3.646395E-2,-7.468363E-3,6.7555318E-3,2.9525503E-3,1.5088511E-3,6.0630958E-3,-5.321757E-3,-1.7476454E-3,-2.1626465E-3,5.014351E-4],"categories":[],"categories_nodes":[],"categories_segments":[],"categories_sizes":[],"default_left":[0,0,0,0,0,0,0,0,0,0,0,0,0,0,0,0,0,0,0,0,0],"id":41,"left_children":[1,3,5,-1,7,9,11,-1,13,-1,15,17,19,-1,-1,-1,-1,-1,-1,-1,-1],"loss_changes":[1.3185897E-1,4.4162974E-2,3.0215979E-2,0E0,1.9342907E-2,3.057493E-2,1.6587289E-2,0E0,3.5484806E-3,0E0,1.6523678E-2,1.1289377E-2,1.7637989E-2,0E0,0E0,0E0,0E0,0E0,0E0,0E0,0E0],"parents":[2147483647,0,0,1,1,2,2,4,4,5,5,6,6,8,8,10,10,11,11,12,12],"right_children":[2,4,6,-1,8,10,12,-1,14,-1,16,18,20,-1,-1,-1,-1,-1,-1,-1,-1],"split_conditions":[3.5E-1,1.12E3,1.266E3,1.4098548E-2,1.6666667E-1,1.162E3,3.1592E3,-5.680542E-4,2.3333333E-1,-2.1757316E-3,7.54E3,6E-1,1.8827028E3,6.7555318E-3,2.9525503E-3,1.5088511E-3,6.0630958E-3,-5.321757E-3,-1.7476454E-3,-2.1626465E-3,5.014351E-4],"split_indices":[1,0,0,0,1,0,12,0,1,0,8,1,4,0,0,0,0,0,0,0,0],"split_type":[0,0,0,0,0,0,0,0,0,0,0,0,0,0,0,0,0,0,0,0,0],"sum_hessian":[1.52E2,2E1,1.32E2,3E0,1.7E1,4E1,9.2E1,4E0,1.3E1,1.1E1,2.9E1,2.8E1,6.4E1,8E0,5E0,2.3E1,6E0,8E0,2E1,2.6E1,3.8E1],"tree_param":{"num_deleted":"0","num_feature":"25","num_nodes":"21","size_leaf_vector":"1"}},{"base_weights":[3.9465805E-3,1.3252659E-2,-6.3647015E-4,3.258182E-2,-1.0207181E-2,4.145679E-2,-1.2785832E-2,-1.4622377E-2,1.5066399E-2,3.8074206E-3,-4.5785902E-4,-4.763317E-4,-1.4106242E-3,-7.647341E-4,-4.536293E-3,1.9664036E-3,-1.6287668E-4],"categories":[],"categories_nodes":[],"categories_segments":[],"categories_sizes":[],"default_left":[0,0,0,0,0,0,0,0,0,0,0,0,0,0,0,0,0],"id":42,"left_children":[1,-1,3,5,7,9,11,13,15,-1,-1,-1,-1,-1,-1,-1,-1],"loss_changes":[1.0756968E-1,0E0,4.5477584E-2,1.3414424E-2,1.26065565E-2,8.08876E-3,9.3689654E-5,1.9699229E-2,2.816042E-3,0E0,0E0,0E0,0E0,0E0,0E0,0E0,0E0],"parents":[2147483647,0,0,2,2,3,3,4,4,5,5,6,6,7,7,8,8],"right_children":[2,-1,4,6,8,10,12,14,16,-1,-1,-1,-1,-1,-1,-1,-1],"split_conditions":[1.12E3,1.3252659E-2,4.1666666E-1,7.2934414E4,1.523E3,1.6666667E-1,1.132E3,1.492E3,8.458515E2,3.8074206E-3,-4.5785902E-4,-4.763317E-4,-1.4106242E-3,-7.647341E-4,-4.536293E-3,1.9664036E-3,-1.6287668E-4],"split_indices":[0,0,1,14,0,17,0,0,13,0,0,0,0,0,0,0,0],"split_type":[0,0,0,0,0,0,0,0,0,0,0,0,0,0,0,0,0],"sum_hessian":[1.44E2,3E0,1.41E2,3.1E1,1.1E2,2.6E1,5E0,9.4E1,1.6E1,2.3E1,3E0,3E0,2E0,8.5E1,9E0,1E1,6E0],"tree_param":{"num_deleted":"0","num_feature":"25","num_nodes":"17","size_leaf_vector":"1"}},{"base_weights":[5.2118544E-3,6.5326385E-2,-6.0401084E-3,1.24575235E-2,4.2858124E-2,1.5200486E-2,-1.5550619E-2,7.04676E-2,4.351192E-3,-1.5461055E-2,2.7129244E-2,-1.9825157E-2,1.1036277E-2,7.83334E-3,2.5019073E-3,-6.5110525E-4,1.7598724E-3,-1.7717627E-3,2.0559502E-3,-7.3110854E-4,3.0341393E-3,-6.1529875E-4,-2.3229332E-3,1.4892111E-3,-7.0201873E-4],"categories":[],"categories_nodes":[],"categories_segments":[],"categories_sizes":[],"default_left":[0,0,0,0,0,0,0,0,0,0,0,0,0,0,0,0,0,0,0,0,0,0,0,0,0],"id":43,"left_children":[1,3,5,-1,7,9,11,13,15,17,19,21,23,-1,-1,-1,-1,-1,-1,-1,-1,-1,-1,-1,-1],"loss_changes":[9.4415076E-2,3.8007423E-2,2.4073426E-2,0E0,1.9893352E-2,1.3952349E-2,9.5378235E-3,8.771956E-3,2.1627655E-3,3.5963417E-3,1.0919936E-2,7.712465E-3,1.9651367E-3,0E0,0E0,0E0,0E0,0E0,0E0,0E0,0E0,0E0,0E0,0E0,0E0],"parents":[2147483647,0,0,1,1,2,2,4,4,5,5,6,6,7,7,8,8,9,9,10,10,11,11,12,12],"right_children":[2,4,6,-1,8,10,12,14,16,18,20,22,24,-1,-1,-1,-1,-1,-1,-1,-1,-1,-1,-1,-1],"split_conditions":[3.5E-1,1.12E3,1.266E3,1.24575235E-2,7.404E3,1.162E3,1.523E3,2.3333333E-1,1.132E3,6.333333E-1,1.7581395E3,5E-2,8.458515E2,7.83334E-3,2.5019073E-3,-6.5110525E-4,1.7598724E-3,-1.7717627E-3,2.0559502E-3,-7.3110854E-4,3.0341393E-3,-6.1529875E-4,-2.3229332E-3,1.4892111E-3,-7.0201873E-4],"split_indices":[1,0,0,0,4,0,0,1,0,1,4,18,13,0,0,0,0,0,0,0,0,0,0,0,0],"split_type":[0,0,0,0,0,0,0,0,0,0,0,0,0,0,0,0,0,0,0,0,0,0,0,0,0],"sum_hessian":[1.38E2,2.1E1,1.17E2,3E0,1.8E1,3.6E1,8.1E1,1E1,8E0,1E1,2.6E1,7E1,1.1E1,5E0,5E0,5E0,3E0,9E0,1E0,6E0,2E1,3.1E1,3.9E1,8E0,3E0],"tree_param":{"num_deleted":"0","num_feature":"25","num_nodes":"25","size_leaf_vector":"1"}},{"base_weights":[3.6748052E-3,1.1710052E-2,-1.8075328E-4,2.1038674E-2,-1.2114798E-2,-6.6306856E-3,3.393083E-2,-1.6813481E-2,1.4378993E-2,2.3693084E-3,-1.2683613E-3,3.624762E-3,-1.05808256E-4,-9.5559366E-4,-3.3388373E-3,1.5949503E-3,-4.7115324E-4],"categories":[],"categories_nodes":[],"categories_segments":[],"categories_sizes":[],"default_left":[0,0,0,0,0,0,0,0,0,0,0,0,0,0,0,0,0],"id":44,"left_children":[1,-1,3,5,7,9,11,13,15,-1,-1,-1,-1,-1,-1,-1,-1],"loss_changes":[8.365556E-2,0E0,3.7986685E-2,1.948774E-2,1.2192411E-2,6.4876126E-3,1.490204E-2,9.450879E-3,1.8071595E-3,0E0,0E0,0E0,0E0,0E0,0E0,0E0,0E0],"parents":[2147483647,0,0,2,2,3,3,4,4,5,5,6,6,7,7,8,8],"right_children":[2,-1,4,6,8,10,12,14,16,-1,-1,-1,-1,-1,-1,-1,-1],"split_conditions":[1.12E3,1.1710052E-2,1.264E3,1.162E3,1.523E3,1.124E3,6.333333E-1,1.499E3,8.6286536E2,2.3693084E-3,-1.2683613E-3,3.624762E-3,-1.05808256E-4,-9.5559366E-4,-3.3388373E-3,1.5949503E-3,-4.7115324E-4],"split_indices":[0,0,0,0,0,0,2,0,13,0,0,0,0,0,0,0,0],"split_type":[0,0,0,0,0,0,0,0,0,0,0,0,0,0,0,0,0],"sum_hessian":[1.51E2,3E0,1.48E2,5.3E1,9.5E1,1.7E1,3.6E1,8.1E1,1.4E1,3E0,1.4E1,2.7E1,9E0,6.9E1,1.2E1,1.1E1,3E0],"tree_param":{"num_deleted":"0","num_feature":"25","num_nodes":"17","size_leaf_vector":"1"}},{"base_weights":[3.912527E-3,1.1007442E-2,2.9753038E-4,2.9178306E-2,-6.6267676E-3,3.7783224E-2,-1.0104418E-2,-3.5662998E-2,-3.6896027E-3,3.7156998E-3,3.2424927E-4,-3.3259392E-4,-1.1732483E-3,-1.0365295E-3,-4.825546E-3,-5.6288805E-4,2.18982E-3],"categories":[],"categories_nodes":[],"categories_segments":[],"categories_sizes":[],"default_left":[0,0,0,0,0,0,0,0,0,0,0,0,0,0,0,0,0],"id":45,"left_children":[1,-1,3,5,7,9,11,13,15,-1,-1,-1,-1,-1,-1,-1,-1],"loss_changes":[7.341376E-2,0E0,2.9990245E-2,1.0184489E-2,1.0187805E-2,6.824661E-3,1.01780926E-4,5.376882E-3,1.1731058E-2,0E0,0E0,0E0,0E0,0E0,0E0,0E0,0E0],"parents":[2147483647,0,0,2,2,3,3,4,4,5,5,6,6,7,7,8,8],"right_children":[2,-1,4,6,8,10,12,14,16,-1,-1,-1,-1,-1,-1,-1,-1],"split_conditions":[1.12E3,1.1007442E-2,4E-1,7.2934414E4,1.4164678E3,1.242E3,1.132E3,1.374E3,2.958E3,3.7156998E-3,3.2424927E-4,-3.3259392E-4,-1.1732483E-3,-1.0365295E-3,-4.825546E-3,-5.6288805E-4,2.18982E-3],"split_indices":[0,0,1,14,14,0,0,0,4,0,0,0,0,0,0,0,0],"split_type":[0,0,0,0,0,0,0,0,0,0,0,0,0,0,0,0,0],"sum_hessian":[1.51E2,3E0,1.48E2,2.8E1,1.2E2,2.3E1,5E0,1E1,1.1E2,1.8E1,5E0,3E0,2E0,6E0,4E0,1E2,1E1],"tree_param":{"num_deleted":"0","num_feature":"25","num_nodes":"17","size_leaf_vector":"1"}},{"base_weights":[1.6328844E-3,5.6653786E-2,-4.447604E-3,-1.0388239E-3,9.523095E-2,-1.7679215E-3,-2.5592265E-3,-9.546852E-3,1.0789998E-3,1.0347004E-2,5.662139E-2,-3.6233137E-3,-3.2643022E-4,-9.950256E-4,-2.7788797E-4,8.092499E-4,5.1119537E-3,-4.026702E-4,1.2524183E-3],"categories":[],"categories_nodes":[],"categories_segments":[],"categories_sizes":[],"default_left":[0,0,0,0,0,0,0,0,0,0,0,0,0,0,0,0,0,0,0],"id":46,"left_children":[1,3,5,7,9,11,-1,13,-1,-1,15,-1,17,-1,-1,-1,-1,-1,-1],"loss_changes":[5.0435062E-2,3.348319E-2,9.981028E-3,9.938957E-4,4.528299E-3,7.8275595E-3,0E0,4.4583925E-5,0E0,0E0,1.3844408E-3,0E0,9.256227E-3,0E0,0E0,0E0,0E0,0E0,0E0],"parents":[2147483647,0,0,1,1,2,2,3,3,4,4,5,5,7,7,10,10,12,12],"right_children":[2,4,6,8,10,12,-1,14,-1,-1,16,-1,18,-1,-1,-1,-1,-1,-1],"split_conditions":[3.3333334E-1,2.1E1,1.1333333E0,1.6666667E-1,1.6666667E-1,7.6970416E2,-2.5592265E-3,1.3488E4,1.0789998E-3,1.0347004E-2,2E-1,-3.6233137E-3,2.958E3,-9.950256E-4,-2.7788797E-4,8.092499E-4,5.1119537E-3,-4.026702E-4,1.2524183E-3],"split_indices":[1,6,1,1,1,13,0,4,0,0,1,0,4,0,0,0,0,0,0],"split_type":[0,0,0,0,0,0,0,0,0,0,0,0,0,0,0,0,0,0,0],"sum_hessian":[1.49E2,1.4E1,1.35E2,6E0,8E0,1.24E2,1.1E1,4E0,2E0,3E0,5E0,3E0,1.21E2,2E0,2E0,1E0,4E0,9.4E1,2.7E1],"tree_param":{"num_deleted":"0","num_feature":"25","num_nodes":"19","size_leaf_vector":"1"}},{"base_weights":[4.2081256E-3,6.0823105E-2,-2.899689E-3,9.726162E-3,3.9120335E-2,-4.8392126E-3,3.9929867E-2,-9.03759E-3,5.928726E-2,-2.4075746E-3,-2.300186E-3,1.4178276E-3,4.498342E-3,-9.419504E-4,-2.6306152E-4,5.099733E-3,7.6610566E-4,-3.4059046E-3,-8.11034E-5],"categories":[],"categories_nodes":[],"categories_segments":[],"categories_sizes":[],"default_left":[0,0,0,0,0,0,0,0,0,0,0,0,0,0,0,0,0,0,0],"id":47,"left_children":[1,3,5,-1,7,9,11,13,15,17,-1,-1,-1,-1,-1,-1,-1,-1,-1],"loss_changes":[6.13425E-2,1.7658852E-2,1.1490607E-2,0E0,1.4132576E-2,7.5481697E-3,1.1752248E-3,3.9956125E-5,1.6063526E-3,6.674797E-3,0E0,0E0,0E0,0E0,0E0,0E0,0E0,0E0,0E0],"parents":[2147483647,0,0,1,1,2,2,4,4,5,5,6,6,7,7,8,8,9,9],"right_children":[2,4,6,-1,8,10,12,14,16,18,-1,-1,-1,-1,-1,-1,-1,-1,-1],"split_conditions":[3.3333334E-1,1.12E3,1.5908096E3,9.726162E-3,1.6666667E-1,1.1333333E0,1.181E3,1.124E3,1.238E3,7.6970416E2,-2.300186E-3,1.4178276E-3,4.498342E-3,-9.419504E-4,-2.6306152E-4,5.099733E-3,7.6610566E-4,-3.4059046E-3,-8.11034E-5],"split_indices":[1,0,11,0,1,1,0,0,0,13,0,0,0,0,0,0,0,0,0],"split_type":[0,0,0,0,0,0,0,0,0,0,0,0,0,0,0,0,0,0,0],"sum_hessian":[1.51E2,1.6E1,1.35E2,3E0,1.3E1,1.3E2,5E0,4E0,9E0,1.19E2,1.1E1,3E0,2E0,2E0,2E0,8E0,1E0,3E0,1.16E2],"tree_param":{"num_deleted":"0","num_feature":"25","num_nodes":"19","size_leaf_vector":"1"}},{"base_weights":[1.8586952E-3,3.1424988E-2,-7.925336E-3,7.064824E-2,1.4281255E-2,-2.0545974E-2,-2.3933484E-3,8.456345E-3,1.9053967E-3,2.6588138E-2,-1.328675E-2,-4.3671172E-2,-7.58735E-3,9.894916E-4,-2.5833894E-2,6.3462154E-4,3.1547614E-3,-1.4076424E-3,-2.8015135E-4,-3.9010197E-3,-1.7037868E-3,2.2729428E-3,-1.5332433E-3,6.208809E-4,-1.0548318E-3,-7.355245E-4,-2.3075675E-3],"categories":[],"categories_nodes":[],"categories_segments":[],"categories_sizes":[],"default_left":[0,0,0,0,0,0,0,0,0,0,0,0,0,0,0,0,0,0,0,0,0,0,0,0,0,0,0],"id":48,"left_children":[1,3,5,7,9,11,13,-1,-1,15,17,19,21,23,25,-1,-1,-1,-1,-1,-1,-1,-1,-1,-1,-1,-1],"loss_changes":[4.3062124E-2,2.3871072E-2,7.770354E-3,1.5541125E-2,9.513726E-3,9.857457E-3,6.289915E-3,0E0,0E0,4.2406013E-3,3.1782954E-4,3.2849982E-4,1.0131041E-2,6.82132E-3,2.3577735E-4,0E0,0E0,0E0,0E0,0E0,0E0,0E0,0E0,0E0,0E0,0E0,0E0],"parents":[2147483647,0,0,1,1,2,2,3,3,4,4,5,5,6,6,9,9,10,10,11,11,12,12,13,13,14,14],"right_children":[2,4,6,8,10,12,14,-1,-1,16,18,20,22,24,26,-1,-1,-1,-1,-1,-1,-1,-1,-1,-1,-1,-1],"split_conditions":[4.1666666E-1,2.3038164E3,3.1061E3,2.3333333E-1,1.4988123E4,1.109607E3,1.0833334E0,8.456345E-3,1.9053967E-3,-2E-1,1.3488E4,6E-1,7.1666664E-1,3.616E3,1.1333333E0,6.3462154E-4,3.1547614E-3,-1.4076424E-3,-2.8015135E-4,-3.9010197E-3,-1.7037868E-3,2.2729428E-3,-1.5332433E-3,6.208809E-4,-1.0548318E-3,-7.355245E-4,-2.3075675E-3],"split_indices":[1,7,12,1,13,13,1,0,0,17,4,1,1,12,1,0,0,0,0,0,0,0,0,0,0,0,0],"split_type":[0,0,0,0,0,0,0,0,0,0,0,0,0,0,0,0,0,0,0,0,0,0,0,0,0,0,0],"sum_hessian":[1.47E2,3.6E1,1.11E2,1E1,2.6E1,3.3E1,7.8E1,5E0,5E0,1.8E1,8E0,1.1E1,2.2E1,6.9E1,9E0,8E0,1E1,5E0,3E0,8E0,3E0,5E0,1.7E1,4.7E1,2.2E1,2E0,7E0],"tree_param":{"num_deleted":"0","num_feature":"25","num_nodes":"27","size_leaf_vector":"1"}},{"base_weights":[4.385053E-3,5.7688586E-2,-1.7053864E-3,8.2248256E-2,-7.880402E-3,-1.3393251E-2,7.0829517E-3,8.282274E-3,3.6006354E-2,-8.166504E-4,-2.3406981E-4,6.2490394E-4,-2.5170572E-2,4.4883653E-3,5.4977415E-3,7.712046E-4,4.0296423E-3,1.7221259E-3,-8.8174816E-4,-1.4661078E-3,-3.0168646E-3,-2.9674815E-3,5.414232E-4],"categories":[],"categories_nodes":[],"categories_segments":[],"categories_sizes":[],"default_left":[0,0,0,0,0,0,0,0,0,0,0,0,0,0,0,0,0,0,0,0,0,0,0],"id":49,"left_children":[1,3,5,7,9,11,13,-1,15,-1,-1,17,19,21,-1,-1,-1,-1,-1,-1,-1,-1,-1],"loss_changes":[4.7496106E-2,2.4803441E-2,1.3653495E-2,7.096708E-3,2.7796312E-5,9.42622E-3,1.1846024E-2,0E0,1.4080759E-3,0E0,0E0,6.8100533E-3,1.9695722E-3,7.2649675E-3,0E0,0E0,0E0,0E0,0E0,0E0,0E0,0E0,0E0],"parents":[2147483647,0,0,1,1,2,2,3,3,4,4,5,5,6,6,8,8,11,11,12,12,13,13],"right_children":[2,4,6,8,10,12,14,-1,16,-1,-1,18,20,22,-1,-1,-1,-1,-1,-1,-1,-1,-1],"split_conditions":[2.3333333E-1,1.344E4,1.91375E3,1.234E3,1.124E3,3.5E1,2.0548096E3,8.282274E-3,2E-1,-8.166504E-4,-2.3406981E-4,2.292115E3,1.387E3,7.6970416E2,5.4977415E-3,7.712046E-4,4.0296423E-3,1.7221259E-3,-8.8174816E-4,-1.4661078E-3,-3.0168646E-3,-2.9674815E-3,5.414232E-4],"split_indices":[1,4,4,0,0,6,9,0,1,0,0,14,0,13,0,0,0,0,0,0,0,0,0],"split_type":[0,0,0,0,0,0,0,0,0,0,0,0,0,0,0,0,0,0,0,0,0,0,0],"sum_hessian":[1.45E2,1.4E1,1.31E2,1E1,4E0,5.6E1,7.5E1,6E0,4E0,2E0,2E0,2.6E1,3E1,7.3E1,2E0,2E0,2E0,9E0,1.7E1,2.1E1,9E0,3E0,7E1],"tree_param":{"num_deleted":"0","num_feature":"25","num_nodes":"23","size_leaf_vector":"1"}},{"base_weights":[1.8594569E-3,8.138237E-3,-8.894025E-4,1.3890599E-2,-9.213346E-3,-1.7619573E-2,2.3542834E-2,-2.4220483E-2,-3.119139E-3,-1.6054187E-3,-2.2158303E-4,2.3254089E-3,-5.955451E-4,-1.0213852E-3,-3.6566583E-3,-1.9320439E-3,2.631054E-4],"categories":[],"categories_nodes":[],"categories_segments":[],"categories_sizes":[],"default_left":[0,0,0,0,0,0,0,0,0,0,0,0,0,0,0,0,0],"id":50,"left_children":[1,-1,3,5,7,9,11,13,15,-1,-1,-1,-1,-1,-1,-1,-1],"loss_changes":[4.0994626E-2,0E0,1.8090053E-2,1.6534425E-2,8.521374E-3,4.1702762E-4,7.2354693E-3,6.061204E-3,9.243676E-3,0E0,0E0,0E0,0E0,0E0,0E0,0E0,0E0],"parents":[2147483647,0,0,2,2,3,3,4,4,5,5,6,6,7,7,8,8],"right_children":[2,-1,4,6,8,10,12,14,16,-1,-1,-1,-1,-1,-1,-1,-1],"split_conditions":[1.12E3,8.138237E-3,1.264E3,1.161E3,3.1061E3,1.3488E4,4.3333334E-1,1.462E3,1.3712465E0,-1.6054187E-3,-2.2158303E-4,2.3254089E-3,-5.955451E-4,-1.0213852E-3,-3.6566583E-3,-1.9320439E-3,2.631054E-4],"split_indices":[0,0,0,0,12,4,18,0,15,0,0,0,0,0,0,0,0],"split_type":[0,0,0,0,0,0,0,0,0,0,0,0,0,0,0,0,0],"sum_hessian":[1.48E2,3E0,1.45E2,5.2E1,9.3E1,1.2E1,4E1,2.6E1,6.7E1,1E1,2E0,3.4E1,6E0,1.8E1,8E0,1.5E1,5.2E1],"tree_param":{"num_deleted":"0","num_feature":"25","num_nodes":"17","size_leaf_vector":"1"}},{"base_weights":[1.6992845E-3,6.7999265E-3,2.195994E-5,1.1483516E-2,-6.734557E-3,-1.6290791E-2,2.1129495E-2,-1.0586659E-2,1.0332028E-2,-1.5504201E-3,-2.3597716E-4,3.2991087E-3,9.368896E-4,-1.2358278E-4,-1.4640045E-3,1.3672797E-3,-2.1846226E-4],"categories":[],"categories_nodes":[],"categories_segments":[],"categories_sizes":[],"default_left":[0,0,0,0,0,0,0,0,0,0,0,0,0,0,0,0,0],"id":51,"left_children":[1,-1,3,5,7,9,11,13,15,-1,-1,-1,-1,-1,-1,-1,-1],"loss_changes":[2.1235697E-2,0E0,1.1693366E-2,1.5347198E-2,6.354894E-3,5.6108413E-4,7.471742E-3,5.4117283E-3,1.6359114E-3,0E0,0E0,0E0,0E0,0E0,0E0,0E0,0E0],"parents":[2147483647,0,0,2,2,3,3,4,4,5,5,6,6,7,7,8,8],"right_children":[2,-1,4,6,8,10,12,14,16,-1,-1,-1,-1,-1,-1,-1,-1],"split_conditions":[1.12E3,6.7999265E-3,1.266E3,1.161E3,1.523E3,1.3488E4,4E-1,5E-2,8.458515E2,-1.5504201E-3,-2.3597716E-4,3.2991087E-3,9.368896E-4,-1.2358278E-4,-1.4640045E-3,1.3672797E-3,-2.1846226E-4],"split_indices":[0,0,0,0,0,4,1,17,13,0,0,0,0,0,0,0,0],"split_type":[0,0,0,0,0,0,0,0,0,0,0,0,0,0,0,0,0],"sum_hessian":[1.51E2,2E0,1.49E2,5.5E1,9.4E1,1.4E1,4.1E1,7.7E1,1.7E1,1.1E1,3E0,1.2E1,2.9E1,3.6E1,4.1E1,1.1E1,6E0],"tree_param":{"num_deleted":"0","num_feature":"25","num_nodes":"17","size_leaf_vector":"1"}},{"base_weights":[2.3532466E-3,7.973075E-2,-9.3279756E-4,7.835587E-3,-4.5358657E-4,1.0598329E-2,-6.9337804E-3,-1.2230575E-2,2.1029627E-2,-1.0661107E-2,1.057594E-2,-1.3031717E-3,1.9462204E-3,2.1118638E-3,-6.739107E-4,-5.2991573E-4,-2.4269896E-3,2.096319E-3,4.2842864E-4],"categories":[],"categories_nodes":[],"categories_segments":[],"categories_sizes":[],"default_left":[0,0,0,0,0,0,0,0,0,0,0,0,0,0,0,0,0,0,0],"id":52,"left_children":[1,3,5,-1,-1,7,9,11,13,15,17,-1,-1,-1,-1,-1,-1,-1,-1],"loss_changes":[3.745146E-2,9.888291E-3,9.899615E-3,0E0,0E0,1.1925824E-2,6.2476094E-3,2.770577E-3,5.598666E-3,5.9950715E-3,1.2466561E-3,0E0,0E0,0E0,0E0,0E0,0E0,0E0,0E0],"parents":[2147483647,0,0,1,1,2,2,5,5,6,6,7,7,8,8,9,9,10,10],"right_children":[2,4,6,-1,-1,8,10,12,14,16,18,-1,-1,-1,-1,-1,-1,-1,-1],"split_conditions":[1.124E3,1.344E4,1.26E3,7.835587E-3,-4.5358657E-4,1.162E3,1.523E3,6.333333E-1,6.333333E-1,1.499E3,4.6666667E-1,-1.3031717E-3,1.9462204E-3,2.1118638E-3,-6.739107E-4,-5.2991573E-4,-2.4269896E-3,2.096319E-3,4.2842864E-4],"split_indices":[0,4,0,0,0,0,0,1,1,0,1,0,0,0,0,0,0,0,0],"split_type":[0,0,0,0,0,0,0,0,0,0,0,0,0,0,0,0,0,0,0],"sum_hessian":[1.46E2,5E0,1.41E2,4E0,1E0,4.8E1,9.3E1,1.5E1,3.3E1,7.7E1,1.6E1,1.4E1,1E0,2.8E1,5E0,6.5E1,1.2E1,3E0,1.3E1],"tree_param":{"num_deleted":"0","num_feature":"25","num_nodes":"19","size_leaf_vector":"1"}},{"base_weights":[2.2060196E-3,6.771812E-3,7.7990386E-5,-5.756455E-3,1.45975435E-2,9.4573945E-4,-1.4392862E-2,-1.5845563E-2,2.1608096E-2,-1.345306E-3,6.1824877E-4,-4.3873105E-4,-2.0061613E-3,2.6997883E-4,-3.2571696E-3,2.2339893E-3,-9.174771E-5],"categories":[],"categories_nodes":[],"categories_segments":[],"categories_sizes":[],"default_left":[0,0,0,0,0,0,0,0,0,0,0,0,0,0,0,0,0],"id":53,"left_children":[1,-1,3,5,7,9,11,13,15,-1,-1,-1,-1,-1,-1,-1,-1],"loss_changes":[2.7888075E-2,0E0,1.3299341E-2,6.4964946E-3,9.946426E-3,7.839968E-3,4.526401E-3,4.4393176E-3,5.3503215E-3,0E0,0E0,0E0,0E0,0E0,0E0,0E0,0E0],"parents":[2147483647,0,0,2,2,3,3,4,4,5,5,6,6,7,7,8,8],"right_children":[2,-1,4,6,8,10,12,14,16,-1,-1,-1,-1,-1,-1,-1,-1],"split_conditions":[1.12E3,6.771812E-3,2.958E3,4.1E1,8.2086115E2,6E-1,5E-2,3.6666667E-1,7.404E3,-1.345306E-3,6.1824877E-4,-4.3873105E-4,-2.0061613E-3,2.6997883E-4,-3.2571696E-3,2.2339893E-3,-9.174771E-5],"split_indices":[0,0,4,6,13,1,17,1,4,0,0,0,0,0,0,0,0],"split_type":[0,0,0,0,0,0,0,0,0,0,0,0,0,0,0,0,0],"sum_hessian":[1.58E2,3E0,1.55E2,1.11E2,4.4E1,6.3E1,4.8E1,8E0,3.6E1,1.7E1,4.6E1,2.7E1,2.1E1,5E0,3E0,2.8E1,8E0],"tree_param":{"num_deleted":"0","num_feature":"25","num_nodes":"17","size_leaf_vector":"1"}},{"base_weights":[2.6036846E-3,3.959039E-2,-2.1435157E-3,5.846103E-2,-4.749298E-3,9.460412E-3,-6.7144088E-3,6.3944245E-3,2.3670038E-2,-5.757141E-4,-1.3813018E-4,1.8888474E-2,-1.0123436E-2,-1.8841961E-2,2.4008751E-4,3.7813187E-4,3.2830301E-3,-1.1641388E-3,2.0503963E-3,-3.2876777E-3,1.1497115E-3,-1.1771611E-3,-2.4746226E-3,5.769192E-4,-1.2733479E-3],"categories":[],"categories_nodes":[],"categories_segments":[],"categories_sizes":[],"default_left":[0,0,0,0,0,0,0,0,0,0,0,0,0,0,0,0,0,0,0,0,0,0,0,0,0],"id":54,"left_children":[1,3,5,7,9,11,13,-1,15,-1,-1,17,19,21,23,-1,-1,-1,-1,-1,-1,-1,-1,-1,-1],"loss_changes":[2.624677E-2,1.4501864E-2,7.1178824E-3,7.0712976E-3,3.1955642E-5,7.2074495E-3,8.101262E-3,0E0,1.7800627E-3,0E0,0E0,6.2343096E-3,1.0453277E-2,1.2914874E-3,7.0982478E-3,0E0,0E0,0E0,0E0,0E0,0E0,0E0,0E0,0E0,0E0],"parents":[2147483647,0,0,1,1,2,2,3,3,4,4,5,5,6,6,8,8,11,11,12,12,13,13,14,14],"right_children":[2,4,6,8,10,12,14,-1,16,-1,-1,18,20,22,24,-1,-1,-1,-1,-1,-1,-1,-1,-1,-1],"split_conditions":[2.3333333E-1,1.344E4,3E1,1.234E3,1.124E3,6E1,1.91375E3,6.3944245E-3,2E-1,-5.757141E-4,-1.3813018E-4,1.157E3,1.8057142E3,1.387E3,1.499E3,3.7813187E-4,3.2830301E-3,-1.1641388E-3,2.0503963E-3,-3.2876777E-3,1.1497115E-3,-1.1771611E-3,-2.4746226E-3,5.769192E-4,-1.2733479E-3],"split_indices":[1,4,6,0,0,24,4,0,1,0,0,0,4,0,0,0,0,0,0,0,0,0,0,0,0],"split_type":[0,0,0,0,0,0,0,0,0,0,0,0,0,0,0,0,0,0,0,0,0,0,0,0,0],"sum_hessian":[1.48E2,1.6E1,1.32E2,1.1E1,5E0,3.7E1,9.5E1,6E0,5E0,2E0,3E0,2.5E1,1.2E1,3.4E1,6.1E1,3E0,2E0,4E0,2.1E1,5E0,7E0,2.7E1,7E0,4.3E1,1.8E1],"tree_param":{"num_deleted":"0","num_feature":"25","num_nodes":"25","size_leaf_vector":"1"}},{"base_weights":[3.5025654E-3,5.9818267E-3,1.5123334E-3,1.36169195E-2,-4.4318754E-3,-1.120524E-2,2.044394E-2,-1.7080436E-2,3.187941E-3,-1.1676598E-3,-1.2983322E-4,-3.610272E-4,2.179961E-3,-1.0029684E-3,-2.2474974E-3,-2.0660083E-3,4.9488136E-4],"categories":[],"categories_nodes":[],"categories_segments":[],"categories_sizes":[],"default_left":[0,0,0,0,0,0,0,0,0,0,0,0,0,0,0,0,0],"id":55,"left_children":[1,-1,3,5,7,9,11,13,15,-1,-1,-1,-1,-1,-1,-1,-1],"loss_changes":[2.0879885E-2,0E0,1.04934145E-2,8.363227E-3,9.4996635E-3,3.3369078E-4,6.5770876E-3,1.4991546E-3,5.5527193E-3,0E0,0E0,0E0,0E0,0E0,0E0,0E0,0E0],"parents":[2147483647,0,0,2,2,3,3,4,4,5,5,6,6,7,7,8,8],"right_children":[2,-1,4,6,8,10,12,14,16,-1,-1,-1,-1,-1,-1,-1,-1],"split_conditions":[1.12E3,5.9818267E-3,3E1,1.157E3,1.91375E3,1.3488E4,1.7581395E3,1.387E3,1.4164678E3,-1.1676598E-3,-1.2983322E-4,-3.610272E-4,2.179961E-3,-1.0029684E-3,-2.2474974E-3,-2.0660083E-3,4.9488136E-4],"split_indices":[0,0,6,0,4,4,4,0,14,0,0,0,0,0,0,0,0],"split_type":[0,0,0,0,0,0,0,0,0,0,0,0,0,0,0,0,0],"sum_hessian":[1.47E2,3E0,1.44E2,4.7E1,9.7E1,1E1,3.7E1,3.6E1,6.1E1,7E0,3E0,8E0,2.9E1,2.7E1,9E0,5E0,5.6E1],"tree_param":{"num_deleted":"0","num_feature":"25","num_nodes":"17","size_leaf_vector":"1"}},{"base_weights":[1.5482838E-3,5.62294E-3,-3.3268312E-4,9.935156E-3,-4.8154024E-3,-7.648766E-5,3.210926E-2,-1.7338442E-3,-2.277829E-2,-3.98942E-3,5.435128E-4,5.2244565E-3,9.840088E-4,-5.870214E-4,5.072207E-4,3.635915E-4,-2.186517E-3],"categories":[],"categories_nodes":[],"categories_segments":[],"categories_sizes":[],"default_left":[0,0,0,0,0,0,0,0,0,0,0,0,0,0,0,0,0],"id":56,"left_children":[1,-1,3,5,7,9,11,13,15,-1,-1,-1,-1,-1,-1,-1,-1],"loss_changes":[1.94176E-2,0E0,6.813935E-3,9.992421E-3,5.661935E-3,1.1285542E-2,8.403042E-3,4.073476E-3,1.9903267E-3,0E0,0E0,0E0,0E0,0E0,0E0,0E0,0E0],"parents":[2147483647,0,0,2,2,3,3,4,4,5,5,6,6,7,7,8,8],"right_children":[2,-1,4,6,8,10,12,14,16,-1,-1,-1,-1,-1,-1,-1,-1],"split_conditions":[1.12E3,5.62294E-3,3E1,3.5E-1,1.4423658E3,1.6954061E0,3.8333333E-1,1.24044E3,5E-2,-3.98942E-3,5.435128E-4,5.2244565E-3,9.840088E-4,-5.870214E-4,5.072207E-4,3.635915E-4,-2.186517E-3],"split_indices":[0,0,6,17,9,15,17,9,17,0,0,0,0,0,0,0,0],"split_type":[0,0,0,0,0,0,0,0,0,0,0,0,0,0,0,0,0],"sum_hessian":[1.49E2,3E0,1.46E2,4.4E1,1.02E2,3.1E1,1.3E1,8.8E1,1.4E1,3E0,2.8E1,4E0,9E0,5.2E1,3.6E1,2E0,1.2E1],"tree_param":{"num_deleted":"0","num_feature":"25","num_nodes":"17","size_leaf_vector":"1"}},{"base_weights":[1.9352841E-3,3.3840403E-2,-2.219848E-3,5.018417E-2,-4.4871964E-3,-8.953979E-3,2.6190744E-3,5.5029625E-3,2.0116806E-2,-5.117289E-4,-1.546669E-4,-5.740779E-5,-1.7530765E-2,2.2630973E-2,-3.0009472E-3,1.9203186E-4,2.9626463E-3,-4.312782E-3,3.1470266E-4,-1.7741097E-3,-6.668126E-4,1.1757456E-3,4.3806457E-3,-1.390268E-3,4.4439852E-4],"categories":[],"categories_nodes":[],"categories_segments":[],"categories_sizes":[],"default_left":[0,0,0,0,0,0,0,0,0,0,0,0,0,0,0,0,0,0,0,0,0,0,0,0,0],"id":57,"left_children":[1,3,5,7,9,11,13,-1,15,-1,-1,17,19,21,23,-1,-1,-1,-1,-1,-1,-1,-1,-1,-1],"loss_changes":[1.9562908E-2,1.0874283E-2,4.292209E-3,5.328292E-3,1.6891478E-5,4.1957134E-3,8.727897E-3,0E0,1.7092791E-3,0E0,0E0,6.230252E-3,1.0112925E-3,3.5285521E-3,7.6002716E-3,0E0,0E0,0E0,0E0,0E0,0E0,0E0,0E0,0E0,0E0],"parents":[2147483647,0,0,1,1,2,2,3,3,4,4,5,5,6,6,8,8,11,11,12,12,13,13,14,14],"right_children":[2,4,6,8,10,12,14,-1,16,-1,-1,18,20,22,24,-1,-1,-1,-1,-1,-1,-1,-1,-1,-1],"split_conditions":[2.3333333E-1,1.344E4,1.91375E3,1.234E3,1.124E3,3.6E1,2.1225E3,5.5029625E-3,2E-1,-5.117289E-4,-1.546669E-4,1.6E1,5E1,2.0548096E3,9.297895E2,1.9203186E-4,2.9626463E-3,-4.312782E-3,3.1470266E-4,-1.7741097E-3,-6.668126E-4,1.1757456E-3,4.3806457E-3,-1.390268E-3,4.4439852E-4],"split_indices":[1,4,4,0,0,6,4,0,1,0,0,6,6,9,13,0,0,0,0,0,0,0,0,0,0],"split_type":[0,0,0,0,0,0,0,0,0,0,0,0,0,0,0,0,0,0,0,0,0,0,0,0,0],"sum_hessian":[1.46E2,1.6E1,1.3E2,1.1E1,5E0,5.4E1,7.6E1,6E0,5E0,2E0,3E0,2.7E1,2.7E1,1.6E1,6E1,3E0,2E0,1E0,2.6E1,1.7E1,1E1,1.4E1,2E0,2.2E1,3.8E1],"tree_param":{"num_deleted":"0","num_feature":"25","num_nodes":"25","size_leaf_vector":"1"}},{"base_weights":[2.4947212E-3,-1.6979873E-3,2.920332E-2,-3.2078556E-3,2.4859428E-2,4.063352E-2,-4.2394004E-3,-5.382615E-3,9.656455E-3,3.6756515E-3,-2.4416447E-3,5.125634E-3,1.7889977E-2,-4.844411E-4,-1.4539718E-4,-1.8917433E-4,-3.33436E-3,5.891588E-5,1.3375053E-3,1.2159474E-3,-2.2145843E-3,1.8053055E-4,2.0264434E-3],"categories":[],"categories_nodes":[],"categories_segments":[],"categories_sizes":[],"default_left":[0,0,0,0,0,0,0,0,0,0,0,0,0,0,0,0,0,0,0,0,0,0,0],"id":58,"left_children":[1,3,5,7,9,11,13,15,17,-1,19,-1,21,-1,-1,-1,-1,-1,-1,-1,-1,-1,-1],"loss_changes":[1.6510848E-2,5.212315E-3,7.8174025E-3,3.465145E-3,4.1419175E-3,6.849356E-3,1.5385383E-5,1.1403317E-2,1.121621E-3,0E0,2.2018335E-3,0E0,9.89727E-4,0E0,0E0,0E0,0E0,0E0,0E0,0E0,0E0,0E0,0E0],"parents":[2147483647,0,0,1,1,2,2,3,3,4,4,5,5,6,6,7,7,8,8,10,10,12,12],"right_children":[2,4,6,8,10,12,14,16,18,-1,20,-1,22,-1,-1,-1,-1,-1,-1,-1,-1,-1,-1],"split_conditions":[4.282857E3,1.5908096E3,1.344E4,1.513E3,4E-1,2.6636E3,1.124E3,1.499E3,5.833333E-1,3.6756515E-3,1.181E3,5.125634E-3,2E-1,-4.844411E-4,-1.4539718E-4,-1.8917433E-4,-3.33436E-3,5.891588E-5,1.3375053E-3,1.2159474E-3,-2.2145843E-3,1.8053055E-4,2.0264434E-3],"split_indices":[4,11,4,0,1,12,0,0,1,0,0,0,1,0,0,0,0,0,0,0,0,0,0],"split_type":[0,0,0,0,0,0,0,0,0,0,0,0,0,0,0,0,0,0,0,0,0,0,0],"sum_hessian":[1.46E2,1.27E2,1.9E1,1.21E2,6E0,1.4E1,5E0,1.04E2,1.7E1,3E0,3E0,6E0,8E0,2E0,3E0,9.7E1,7E0,8E0,9E0,2E0,1E0,3E0,5E0],"tree_param":{"num_deleted":"0","num_feature":"25","num_nodes":"23","size_leaf_vector":"1"}},{"base_weights":[1.5672197E-3,5.415861E-2,-6.349716E-4,5.336807E-3,-3.4395218E-4,-3.2619853E-3,1.4907156E-2,-4.434828E-3,1.697479E-2,2.4965506E-2,-1.2779236E-3,-9.5562355E-5,-9.196936E-4,3.0792237E-3,5.364227E-5,7.1945185E-5,2.1516865E-3,-2.078683E-4,1.7832436E-4],"categories":[],"categories_nodes":[],"categories_segments":[],"categories_sizes":[],"default_left":[0,0,0,0,0,0,0,0,0,0,0,0,0,0,0,0,0,0,0],"id":59,"left_children":[1,3,5,-1,-1,7,9,11,13,15,17,-1,-1,-1,-1,-1,-1,-1,-1],"loss_changes":[1.7291017E-2,4.689222E-3,5.928058E-3,0E0,0E0,3.0183652E-3,3.4506037E-3,2.6862083E-3,2.4297521E-3,5.7981163E-4,4.7468355E-5,0E0,0E0,0E0,0E0,0E0,0E0,0E0,0E0],"parents":[2147483647,0,0,1,1,2,2,5,5,6,6,7,7,8,8,9,9,10,10],"right_children":[2,4,6,-1,-1,8,10,12,14,16,18,-1,-1,-1,-1,-1,-1,-1,-1],"split_conditions":[1.124E3,1.344E4,3.7464E3,5.336807E-3,-3.4395218E-4,1.5908096E3,7.0624E3,1.9450268E0,4E-1,2E-1,1.3123143E3,-9.5562355E-5,-9.196936E-4,3.0792237E-3,5.364227E-5,7.1945185E-5,2.1516865E-3,-2.078683E-4,1.7832436E-4],"split_indices":[0,4,4,0,0,11,8,15,1,1,11,0,0,0,0,0,0,0,0],"split_type":[0,0,0,0,0,0,0,0,0,0,0,0,0,0,0,0,0,0,0],"sum_hessian":[1.48E2,5E0,1.43E2,4E0,1E0,1.23E2,2E1,1.17E2,6E0,1.2E1,8E0,8.1E1,3.6E1,2E0,4E0,1E0,1.1E1,6E0,2E0],"tree_param":{"num_deleted":"0","num_feature":"25","num_nodes":"19","size_leaf_vector":"1"}},{"base_weights":[1.9714767E-3,-4.511852E-3,1.7103553E-2,-1.6479144E-2,-4.6491012E-4,2.0299276E-2,-6.519238E-3,1.8191934E-2,-2.1792412E-2,-5.0720675E-3,1.2281759E-2,-7.987022E-3,2.3760196E-2,-1.24197E-4,-8.7748206E-4,2.3106956E-3,4.0000916E-4,-1.1859131E-3,-2.8482166E-3,-7.376939E-4,1.261261E-3,-5.1870075E-4,1.6176173E-3,-6.0246784E-5,-1.0046895E-3,2.1896171E-3,-8.847999E-4],"categories":[],"categories_nodes":[],"categories_segments":[],"categories_sizes":[],"default_left":[0,0,0,0,0,0,0,0,0,0,0,0,0,0,0,0,0,0,0,0,0,0,0,0,0,0,0],"id":60,"left_children":[1,3,5,7,9,11,13,15,17,19,21,23,25,-1,-1,-1,-1,-1,-1,-1,-1,-1,-1,-1,-1,-1,-1],"loss_changes":[1.4400677E-2,4.9807243E-3,3.4539783E-3,5.1860805E-3,4.642915E-3,4.0077437E-3,1.1556345E-4,4.197535E-4,1.6856799E-3,5.1599653E-3,3.2594574E-3,1.5589554E-4,4.702268E-3,0E0,0E0,0E0,0E0,0E0,0E0,0E0,0E0,0E0,0E0,0E0,0E0,0E0,0E0],"parents":[2147483647,0,0,1,1,2,2,3,3,4,4,5,5,6,6,7,7,8,8,9,9,10,10,11,11,12,12],"right_children":[2,4,6,8,10,12,14,16,18,20,22,24,26,-1,-1,-1,-1,-1,-1,-1,-1,-1,-1,-1,-1,-1,-1],"split_conditions":[2.958E3,6.166667E-1,7.2934414E4,8.8206315E-1,1.9967441E3,8.1976294E2,1.132E3,1.194E3,6.5907E3,1.479E3,-3.1666666E-1,1.499E3,1.6666667E-1,-1.24197E-4,-8.7748206E-4,2.3106956E-3,4.0000916E-4,-1.1859131E-3,-2.8482166E-3,-7.376939E-4,1.261261E-3,-5.1870075E-4,1.6176173E-3,-6.0246784E-5,-1.0046895E-3,2.1896171E-3,-8.847999E-4],"split_indices":[4,1,14,15,4,13,0,0,8,0,17,0,17,0,0,0,0,0,0,0,0,0,0,0,0,0,0],"split_type":[0,0,0,0,0,0,0,0,0,0,0,0,0,0,0,0,0,0,0,0,0,0,0,0,0,0,0],"sum_hessian":[1.45E2,1.02E2,4.3E1,2.5E1,7.7E1,3.8E1,5E0,3E0,2.2E1,5.7E1,2E1,4E0,3.4E1,3E0,2E0,1E0,2E0,1.6E1,6E0,4.8E1,9E0,6E0,1.4E1,2E0,2E0,3.1E1,3E0],"tree_param":{"num_deleted":"0","num_feature":"25","num_nodes":"27","size_leaf_vector":"1"}},{"base_weights":[1.5899464E-3,2.6244024E-2,-1.480924E-3,3.94063E-2,-4.454533E-3,-2.6866206E-4,-1.2273927E-3,4.7092438E-2,5.203247E-5,-5.5704755E-4,-1.1675835E-4,-2.476715E-3,9.310762E-3,4.421321E-3,1.6811752E-3,-3.5503227E-4,1.3121795E-3,3.2545798E-3,-2.7252195E-4],"categories":[],"categories_nodes":[],"categories_segments":[],"categories_sizes":[],"default_left":[0,0,0,0,0,0,0,0,0,0,0,0,0,0,0,0,0,0,0],"id":61,"left_children":[1,3,5,7,9,11,-1,13,-1,-1,-1,15,17,-1,-1,-1,-1,-1,-1],"loss_changes":[1.1622415E-2,7.044604E-3,2.297992E-3,3.5439692E-3,3.4917153E-5,2.7093485E-3,0E0,9.702053E-4,0E0,0E0,0E0,3.923412E-3,9.713629E-3,0E0,0E0,0E0,0E0,0E0,0E0],"parents":[2147483647,0,0,1,1,2,2,3,3,4,4,5,5,7,7,11,11,12,12],"right_children":[2,4,6,8,10,12,-1,14,-1,-1,-1,16,18,-1,-1,-1,-1,-1,-1],"split_conditions":[2.3333333E-1,1.344E4,1.1333333E0,1.238E3,1.124E3,3.5E-1,-1.2273927E-3,6E1,5.203247E-5,-5.5704755E-4,-1.1675835E-4,8E-1,3.8333333E-1,4.421321E-3,1.6811752E-3,-3.5503227E-4,1.3121795E-3,3.2545798E-3,-2.7252195E-4],"split_indices":[2,4,2,0,0,17,0,24,0,0,0,2,18,0,0,0,0,0,0],"split_type":[0,0,0,0,0,0,0,0,0,0,0,0,0,0,0,0,0,0,0],"sum_hessian":[1.52E2,1.6E1,1.36E2,1.1E1,5E0,1.26E2,1E1,9E0,2E0,2E0,3E0,1.03E2,2.3E1,6E0,3E0,9.4E1,9E0,6E0,1.7E1],"tree_param":{"num_deleted":"0","num_feature":"25","num_nodes":"19","size_leaf_vector":"1"}},{"base_weights":[8.6181326E-4,3.8389206E-2,-9.6841983E-4,4.6159974E-3,-5.273437E-4,-7.339682E-3,3.0513452E-3,-4.055481E-3,-5.6297304E-3,1.420487E-3,3.9463295E-3,5.3063204E-4,-9.828737E-4,4.0170725E-4,-8.7147515E-4],"categories":[],"categories_nodes":[],"categories_segments":[],"categories_sizes":[],"default_left":[0,0,0,0,0,0,0,0,0,0,0,0,0,0,0],"id":62,"left_children":[1,3,5,-1,-1,7,9,-1,11,13,-1,-1,-1,-1,-1],"loss_changes":[1.0339757E-2,6.4606676E-3,3.7103763E-3,0E0,0E0,3.8660548E-3,6.646981E-3,0E0,4.570724E-3,3.912336E-3,0E0,0E0,0E0,0E0,0E0],"parents":[2147483647,0,0,1,1,2,2,5,5,6,6,8,8,9,9],"right_children":[2,4,6,-1,-1,8,10,-1,12,14,-1,-1,-1,-1,-1],"split_conditions":[1.124E3,1.344E4,1.91375E3,4.6159974E-3,-5.273437E-4,1.6E1,2.1369333E3,-4.055481E-3,3.2E1,1.499E3,3.9463295E-3,5.3063204E-4,-9.828737E-4,4.0170725E-4,-8.7147515E-4],"split_indices":[0,4,4,0,0,6,9,0,6,0,0,0,0,0,0],"split_type":[0,0,0,0,0,0,0,0,0,0,0,0,0,0,0],"sum_hessian":[1.49E2,6E0,1.43E2,4E0,2E0,5.5E1,8.8E1,1E0,5.4E1,8.6E1,2E0,1.9E1,3.5E1,6.7E1,1.9E1],"tree_param":{"num_deleted":"0","num_feature":"25","num_nodes":"15","size_leaf_vector":"1"}},{"base_weights":[1.6969546E-3,2.3206655E-2,-1.0651646E-3,3.499381E-2,-4.2354264E-3,-2.1772308E-3,1.6583025E-2,4.1888237E-2,2.7821858E-5,-4.992167E-4,-1.3383865E-4,-7.7791214E-3,1.488636E-3,2.7957154E-3,4.63748E-3,3.9461297E-3,1.4719199E-3,-3.8932608E-3,-4.761217E-4,1.5487222E-3,-2.8128328E-4,-1.766777E-3,1.8815803E-3],"categories":[],"categories_nodes":[],"categories_segments":[],"categories_sizes":[],"default_left":[0,0,0,0,0,0,0,0,0,0,0,0,0,0,0,0,0,0,0,0,0,0,0],"id":63,"left_children":[1,3,5,7,9,11,13,15,-1,-1,-1,17,19,-1,21,-1,-1,-1,-1,-1,-1,-1,-1],"loss_changes":[8.87716E-3,5.6471014E-3,2.6463575E-3,2.8518084E-3,2.0383079E-5,2.5990892E-3,1.5928247E-3,8.3965994E-4,0E0,0E0,0E0,3.4465857E-3,6.9546034E-3,0E0,3.5468817E-3,0E0,0E0,0E0,0E0,0E0,0E0,0E0,0E0],"parents":[2147483647,0,0,1,1,2,2,3,3,4,4,5,5,6,6,7,7,11,11,12,12,14,14],"right_children":[2,4,6,8,10,12,14,16,-1,-1,-1,18,20,-1,22,-1,-1,-1,-1,-1,-1,-1,-1],"split_conditions":[2.3333333E-1,1.344E4,1.4217354E3,1.238E3,1.124E3,1.8827028E3,4E-1,6E1,2.7821858E-5,-4.992167E-4,-1.3383865E-4,1.6E1,2.1225E3,2.7957154E-3,6.333333E-1,3.9461297E-3,1.4719199E-3,-3.8932608E-3,-4.761217E-4,1.5487222E-3,-2.8128328E-4,-1.766777E-3,1.8815803E-3],"split_indices":[1,4,11,0,0,4,1,24,0,0,0,6,4,0,1,0,0,0,0,0,0,0,0],"split_type":[0,0,0,0,0,0,0,0,0,0,0,0,0,0,0,0,0,0,0,0,0,0,0],"sum_hessian":[1.48E2,1.6E1,1.32E2,1.1E1,5E0,1.25E2,7E0,9E0,2E0,2E0,3E0,4.9E1,7.6E1,2E0,5E0,6E0,3E0,1E0,4.8E1,1.6E1,6E1,2E0,3E0],"tree_param":{"num_deleted":"0","num_feature":"25","num_nodes":"23","size_leaf_vector":"1"}},{"base_weights":[1.6605757E-3,3.4143448E-2,4.7613197E-5,4.10762E-3,-4.7259012E-4,-1.192657E-3,1.3583262E-2,-3.2548946E-3,9.764535E-3,-4.651451E-3,2.3282051E-2,-1.3960157E-4,-2.035043E-3,1.2815722E-3,-1.9219874E-4,-6.465403E-4,2.6346843E-5,2.9684065E-3,6.053772E-4],"categories":[],"categories_nodes":[],"categories_segments":[],"categories_sizes":[],"default_left":[0,0,0,0,0,0,0,0,0,0,0,0,0,0,0,0,0,0,0],"id":64,"left_children":[1,3,5,-1,-1,7,9,11,13,15,17,-1,-1,-1,-1,-1,-1,-1,-1],"loss_changes":[7.752636E-3,5.12594E-3,2.400077E-3,0E0,0E0,2.9919022E-3,2.2305509E-3,3.673419E-3,1.6367154E-3,8.8089655E-5,1.4570314E-3,0E0,0E0,0E0,0E0,0E0,0E0,0E0,0E0],"parents":[2147483647,0,0,1,1,2,2,5,5,6,6,7,7,8,8,9,9,10,10],"right_children":[2,4,6,-1,-1,8,10,12,14,16,18,-1,-1,-1,-1,-1,-1,-1,-1],"split_conditions":[1.124E3,1.344E4,1.4217354E3,4.10762E-3,-4.7259012E-4,3.645E3,6.666667E-2,3.2342856E3,7.0624E3,1.162E3,4E-1,-1.3960157E-4,-2.035043E-3,1.2815722E-3,-1.9219874E-4,-6.465403E-4,2.6346843E-5,2.9684065E-3,6.053772E-4],"split_indices":[0,4,11,0,0,4,17,4,8,0,1,0,0,0,0,0,0,0,0],"split_type":[0,0,0,0,0,0,0,0,0,0,0,0,0,0,0,0,0,0,0],"sum_hessian":[1.47E2,6E0,1.41E2,4E0,2E0,1.3E2,1.1E1,1.1E2,2E1,4E0,7E0,1.04E2,6E0,1.3E1,7E0,2E0,2E0,3E0,4E0],"tree_param":{"num_deleted":"0","num_feature":"25","num_nodes":"19","size_leaf_vector":"1"}},{"base_weights":[8.68597E-4,-1.9721347E-3,1.586461E-2,2.5978743E-3,-8.001925E-3,2.8728534E-2,6.231022E-3,7.1615493E-4,2.7902792E-3,-2.105612E-2,-2.1064586E-3,3.2509964E-2,-2.1217346E-4,1.2088844E-3,3.0616377E-3,-9.638077E-4,6.109926E-4,1.2135823E-4,-1.9333598E-3,-4.279578E-4,1.6812744E-3,2.8455209E-3,3.2150268E-4,8.081436E-4,-1.70784E-4],"categories":[],"categories_nodes":[],"categories_segments":[],"categories_sizes":[],"default_left":[0,0,0,0,0,0,0,0,0,0,0,0,0,0,0,0,0,0,0,0,0,0,0,0,0],"id":65,"left_children":[1,3,5,7,9,11,13,15,-1,17,19,21,-1,23,-1,-1,-1,-1,-1,-1,-1,-1,-1,-1,-1],"loss_changes":[6.421235E-3,3.5204252E-3,2.7952096E-3,4.4092652E-3,4.188477E-3,1.2728609E-3,2.3673335E-3,6.2758923E-3,0E0,1.2304373E-3,3.0368872E-3,6.4145867E-4,0E0,4.3785654E-4,0E0,0E0,0E0,0E0,0E0,0E0,0E0,0E0,0E0,0E0,0E0],"parents":[2147483647,0,0,1,1,2,2,3,3,4,4,5,5,6,6,7,7,9,9,10,10,11,11,13,13],"right_children":[2,4,6,8,10,12,14,16,-1,18,20,22,-1,24,-1,-1,-1,-1,-1,-1,-1,-1,-1,-1,-1],"split_conditions":[3.7464E3,4.1E1,2.2924102E3,3.3763635E3,4.6E1,-1.8333334E-1,1.6666668E-2,6E-1,2.7902792E-3,2.0721135E3,2.3169285E3,5.1E1,-2.1217346E-4,7.0624E3,3.0616377E-3,-9.638077E-4,6.109926E-4,1.2135823E-4,-1.9333598E-3,-4.279578E-4,1.6812744E-3,2.8455209E-3,3.2150268E-4,8.081436E-4,-1.70784E-4],"split_indices":[4,6,7,4,6,17,17,1,0,7,7,6,0,8,0,0,0,0,0,0,0,0,0,0,0],"split_type":[0,0,0,0,0,0,0,0,0,0,0,0,0,0,0,0,0,0,0,0,0,0,0,0,0],"sum_hessian":[1.49E2,1.26E2,2.3E1,7.2E1,5.4E1,9E0,1.4E1,6.9E1,3E0,1.6E1,3.8E1,8E0,1E0,1.3E1,1E0,2.4E1,4.5E1,2E0,1.4E1,3.4E1,4E0,7E0,1E0,3E0,1E1],"tree_param":{"num_deleted":"0","num_feature":"25","num_nodes":"25","size_leaf_vector":"1"}},{"base_weights":[1.5821294E-3,1.3241259E-2,-1.4209136E-3,7.408289E-3,3.273956E-3,-2.444495E-3,1.501315E-2,2.6667276E-3,3.858884E-3,-8.87142E-4,-2.9550314E-2,1.945858E-3,1.9497871E-3,1.1704593E-3,-1.9531726E-4,-1.7699388E-4,3.628133E-3,-1.3342819E-3,-3.7563704E-3,4.2659757E-4,-7.64211E-5],"categories":[],"categories_nodes":[],"categories_segments":[],"categories_sizes":[],"default_left":[0,0,0,0,0,0,0,0,0,0,0,0,0,0,0,0,0,0,0,0,0],"id":66,"left_children":[1,3,5,7,-1,9,11,-1,13,15,17,-1,19,-1,-1,-1,-1,-1,-1,-1,-1],"loss_changes":[5.130694E-3,4.541077E-3,2.004827E-3,2.263918E-3,0E0,4.659464E-3,8.0392114E-4,0E0,1.6645157E-3,6.5959576E-3,5.610138E-4,0E0,4.440138E-5,0E0,0E0,0E0,0E0,0E0,0E0,0E0,0E0],"parents":[2147483647,0,0,1,1,2,2,3,3,5,5,6,6,8,8,9,9,10,10,12,12],"right_children":[2,4,6,8,-1,10,12,-1,14,16,18,-1,20,-1,-1,-1,-1,-1,-1,-1,-1],"split_conditions":[4E-1,1.6666668E-2,4.8333332E-1,1.12E3,3.273956E-3,4.3333334E-1,9.166667E-1,2.6667276E-3,4.2031E3,2.0892222E3,6.5907E3,1.945858E-3,1.181E3,1.1704593E-3,-1.9531726E-4,-1.7699388E-4,3.628133E-3,-1.3342819E-3,-3.7563704E-3,4.2659757E-4,-7.64211E-5],"split_indices":[1,17,17,0,0,17,1,0,8,9,8,0,0,0,0,0,0,0,0,0,0],"split_type":[0,0,0,0,0,0,0,0,0,0,0,0,0,0,0,0,0,0,0,0,0],"sum_hessian":[1.45E2,2.9E1,1.16E2,2.5E1,4E0,1.1E2,6E0,2E0,2.3E1,1.05E2,5E0,3E0,3E0,8E0,1.5E1,1.03E2,2E0,4E0,1E0,1E0,2E0],"tree_param":{"num_deleted":"0","num_feature":"25","num_nodes":"21","size_leaf_vector":"1"}},{"base_weights":[1.2168383E-3,2.944374E-3,2.5329334E-4,-5.6713247E-3,3.5832524E-3,-3.6061096E-3,-4.0773354E-3,-1.1345863E-2,6.058245E-3,-5.46329E-4,1.489315E-3,-2.754593E-4,-1.2282901E-3,2.6524952E-3,2.8128934E-4],"categories":[],"categories_nodes":[],"categories_segments":[],"categories_sizes":[],"default_left":[0,0,0,0,0,0,0,0,0,0,0,0,0,0,0],"id":67,"left_children":[1,-1,3,5,7,-1,9,11,13,-1,-1,-1,-1,-1,-1],"loss_changes":[5.202831E-3,0E0,2.9599033E-3,3.2080137E-3,3.6158832E-3,0E0,3.4368888E-3,3.9053953E-4,5.6009935E-3,0E0,0E0,0E0,0E0,0E0,0E0],"parents":[2147483647,0,0,2,2,3,3,4,4,6,6,7,7,8,8],"right_children":[2,-1,4,6,8,-1,10,12,14,-1,-1,-1,-1,-1,-1],"split_conditions":[1.12E3,2.944374E-3,1.91375E3,1.6E1,1.161E3,-3.6061096E-3,2.6956758E3,1.132E3,3.0059E3,-5.46329E-4,1.489315E-3,-2.754593E-4,-1.2282901E-3,2.6524952E-3,2.8128934E-4],"split_indices":[0,0,4,6,0,0,7,0,12,0,0,0,0,0,0],"split_type":[0,0,0,0,0,0,0,0,0,0,0,0,0,0,0],"sum_hessian":[1.51E2,3E0,1.48E2,5.3E1,9.5E1,1E0,5.2E1,1.3E1,8.2E1,4.7E1,5E0,5E0,8E0,6E0,7.6E1],"tree_param":{"num_deleted":"0","num_feature":"25","num_nodes":"15","size_leaf_vector":"1"}},{"base_weights":[1.10984E-3,2.7624948E-2,-1.6033406E-4,3.3418883E-3,-4.1315716E-4,-2.5254476E-3,6.4539663E-3,-1.14366915E-2,1.2521744E-4,2.4799728E-3,2.7630397E-3,1.2691497E-3,-1.3913872E-3,-3.137964E-4,1.0118212E-3,-1.3160935E-3,4.61838E-4],"categories":[],"categories_nodes":[],"categories_segments":[],"categories_sizes":[],"default_left":[0,0,0,0,0,0,0,0,0,0,0,0,0,0,0,0,0],"id":68,"left_children":[1,3,5,-1,-1,7,9,11,13,-1,15,-1,-1,-1,-1,-1,-1],"loss_changes":[5.1572863E-3,3.4632222E-3,2.3159045E-3,0E0,0E0,2.5760909E-3,3.4476046E-3,4.340807E-3,4.3580197E-3,0E0,2.1191456E-3,0E0,0E0,0E0,0E0,0E0,0E0],"parents":[2147483647,0,0,1,1,2,2,5,5,6,6,7,7,8,8,10,10],"right_children":[2,4,6,-1,-1,8,10,12,14,-1,16,-1,-1,-1,-1,-1,-1],"split_conditions":[1.124E3,1.344E4,2.958E3,3.3418883E-3,-4.1315716E-4,6.166667E-1,3.0375E3,8.8206315E-1,1.9967441E3,2.4799728E-3,1.4164678E3,1.2691497E-3,-1.3913872E-3,-3.137964E-4,1.0118212E-3,-1.3160935E-3,4.61838E-4],"split_indices":[0,4,4,0,0,1,4,15,4,0,14,0,0,0,0,0,0],"split_type":[0,0,0,0,0,0,0,0,0,0,0,0,0,0,0,0,0],"sum_hessian":[1.52E2,6E0,1.46E2,4E0,2E0,1.08E2,3.8E1,2.4E1,8.4E1,4E0,3.4E1,4E0,2E1,6.4E1,2E1,4E0,3E1],"tree_param":{"num_deleted":"0","num_feature":"25","num_nodes":"17","size_leaf_vector":"1"}},{"base_weights":[6.7481416E-4,8.265209E-3,-4.392947E-3,1.1492336E-2,-9.019661E-3,-1.9515965E-3,-1.4049928E-2,1.4542516E-2,-9.757723E-3,-1.03483195E-4,-1.2146064E-2,-8.456553E-3,2.7834093E-3,-2.588456E-2,-5.9755645E-3,7.7829073E-4,3.5369047E-3,-2.892011E-3,6.4234156E-4,-1.0762914E-3,-1.7202376E-4,1.3974507E-4,-1.1324596E-3,-1.4902877E-3,5.4072816E-4,-1.0206858E-4,-2.8378295E-3,-6.5314554E-4,7.2402955E-4],"categories":[],"categories_nodes":[],"categories_segments":[],"categories_sizes":[],"default_left":[0,0,0,0,0,0,0,0,0,0,0,0,0,0,0,0,0,0,0,0,0,0,0,0,0,0,0,0,0],"id":69,"left_children":[1,3,5,7,9,11,13,15,17,-1,19,21,23,25,27,-1,-1,-1,-1,-1,-1,-1,-1,-1,-1,-1,-1,-1,-1],"loss_changes":[5.7677887E-3,3.4504854E-3,2.0944271E-3,3.447543E-3,2.2583816E-4,2.2720117E-3,1.5653535E-3,5.9968773E-3,3.5763513E-3,0E0,6.2562525E-5,1.8274069E-3,3.7863976E-3,1.6064327E-3,4.6854708E-4,0E0,0E0,0E0,0E0,0E0,0E0,0E0,0E0,0E0,0E0,0E0,0E0,0E0,0E0],"parents":[2147483647,0,0,1,1,2,2,3,3,4,4,5,5,6,6,7,7,8,8,10,10,11,11,12,12,13,13,14,14],"right_children":[2,4,6,8,10,12,14,16,18,-1,20,22,24,26,28,-1,-1,-1,-1,-1,-1,-1,-1,-1,-1,-1,-1,-1,-1],"split_conditions":[1.273E3,7.2934414E4,1.9450268E0,4.3333334E-1,1.132E3,1.3966179E0,6.8333334E-1,3.5E-1,7.3333335E-1,-1.03483195E-4,5E-1,3.3333335E-2,1.4164678E3,5.833333E-1,1.316E3,7.7829073E-4,3.5369047E-3,-2.892011E-3,6.4234156E-4,-1.0762914E-3,-1.7202376E-4,1.3974507E-4,-1.1324596E-3,-1.4902877E-3,5.4072816E-4,-1.0206858E-4,-2.8378295E-3,-6.5314554E-4,7.2402955E-4],"split_indices":[0,14,15,17,0,15,1,17,1,0,1,17,14,1,0,0,0,0,0,0,0,0,0,0,0,0,0,0,0],"split_type":[0,0,0,0,0,0,0,0,0,0,0,0,0,0,0,0,0,0,0,0,0,0,0,0,0,0,0,0,0],"sum_hessian":[1.48E2,5.9E1,8.9E1,5E1,9E0,7.2E1,1.7E1,4.4E1,6E0,3E0,6E0,3E1,4.2E1,6E0,1.1E1,3.9E1,5E0,2E0,4E0,5E0,1E0,1.1E1,1.9E1,6E0,3.6E1,2E0,4E0,1E1,1E0],"tree_param":{"num_deleted":"0","num_feature":"25","num_nodes":"29","size_leaf_vector":"1"}},{"base_weights":[9.681395E-4,1.5956935E-2,-1.0458578E-3,2.436296E-2,-3.5146077E-3,1.3949372E-3,-6.018775E-3,3.0782165E-3,1.2495875E-2,-4.3263752E-4,-9.727478E-5,-1.4136451E-3,1.2877633E-2,-1.4772998E-2,9.13015E-3,-2.0345688E-4,1.7622375E-3,-6.3637586E-4,8.028324E-5,-2.8355917E-6,1.4608828E-3,3.634177E-4,-1.8516019E-3,-7.139969E-4,1.2713814E-3],"categories":[],"categories_nodes":[],"categories_segments":[],"categories_sizes":[],"default_left":[0,0,0,0,0,0,0,0,0,0,0,0,0,0,0,0,0,0,0,0,0,0,0,0,0],"id":70,"left_children":[1,3,5,7,9,11,13,-1,15,-1,-1,17,19,21,23,-1,-1,-1,-1,-1,-1,-1,-1,-1,-1],"loss_changes":[4.3334863E-3,2.8681569E-3,1.5499055E-3,1.5291986E-3,1.9537569E-5,2.7917125E-3,5.704796E-3,0E0,1.2028537E-3,0E0,0E0,1.1147485E-3,1.1824241E-3,4.4713574E-3,2.0952902E-3,0E0,0E0,0E0,0E0,0E0,0E0,0E0,0E0,0E0,0E0],"parents":[2147483647,0,0,1,1,2,2,3,3,4,4,5,5,6,6,8,8,11,11,12,12,13,13,14,14],"right_children":[2,4,6,8,10,12,14,-1,16,-1,-1,18,20,22,24,-1,-1,-1,-1,-1,-1,-1,-1,-1,-1],"split_conditions":[2.3333333E-1,1.344E4,2.5640667E3,1.124E3,1.124E3,2.384611E3,3E-1,3.0782165E-3,2E-1,-4.3263752E-4,-9.727478E-5,1.4694546E3,1.91375E3,4E-1,1.7581395E3,-2.0345688E-4,1.7622375E-3,-6.3637586E-4,8.028324E-5,-2.8355917E-6,1.4608828E-3,3.634177E-4,-1.8516019E-3,-7.139969E-4,1.2713814E-3],"split_indices":[1,4,7,0,0,7,17,0,1,0,0,4,4,1,4,0,0,0,0,0,0,0,0,0,0],"split_type":[0,0,0,0,0,0,0,0,0,0,0,0,0,0,0,0,0,0,0,0,0,0,0,0,0],"sum_hessian":[1.42E2,1.6E1,1.26E2,1.1E1,5E0,8.5E1,4.1E1,4E0,7E0,2E0,3E0,6.9E1,1.6E1,2.6E1,1.5E1,3E0,4E0,1.8E1,5.1E1,5E0,1.1E1,8E0,1.8E1,4E0,1.1E1],"tree_param":{"num_deleted":"0","num_feature":"25","num_nodes":"25","size_leaf_vector":"1"}},{"base_weights":[1.2482643E-3,-2.3591076E-3,1.0279611E-2,-1.01623135E-2,-1.2809529E-4,1.28659345E-2,-1.1949634E-2,1.388607E-2,-1.5666295E-2,-4.220586E-3,1.0449509E-2,1.0029912E-2,2.8138922E-3,-1.977933E-3,3.8464862E-4,2.0324325E-3,3.7239073E-4,-6.570298E-4,-2.2668075E-3,-5.7654484E-4,1.1332575E-3,1.3732349E-3,-4.1024206E-4,1.2658767E-3,-2.3006438E-4],"categories":[],"categories_nodes":[],"categories_segments":[],"categories_sizes":[],"default_left":[0,0,0,0,0,0,0,0,0,0,0,0,0,0,0,0,0,0,0,0,0,0,0,0,0],"id":71,"left_children":[1,3,5,7,9,11,13,15,17,19,21,23,-1,-1,-1,-1,-1,-1,-1,-1,-1,-1,-1,-1,-1],"loss_changes":[4.9111648E-3,1.8788755E-3,2.6258999E-3,3.3942277E-3,3.723646E-3,2.114554E-3,1.1892382E-3,4.134265E-4,1.6558054E-3,3.5062402E-3,2.5988475E-3,2.7372215E-3,0E0,0E0,0E0,0E0,0E0,0E0,0E0,0E0,0E0,0E0,0E0,0E0,0E0],"parents":[2147483647,0,0,1,1,2,2,3,3,4,4,5,5,6,6,7,7,8,8,9,9,10,10,11,11],"right_children":[2,4,6,8,10,12,14,16,18,20,22,24,-1,-1,-1,-1,-1,-1,-1,-1,-1,-1,-1,-1,-1],"split_conditions":[2.958E3,6.166667E-1,1.6666667E-1,8.8206315E-1,1.9967441E3,1.6666668E-2,1.242E3,1.194E3,8.3333336E-2,1.479E3,1.2997627E3,2.5640667E3,2.8138922E-3,-1.977933E-3,3.8464862E-4,2.0324325E-3,3.7239073E-4,-6.570298E-4,-2.2668075E-3,-5.7654484E-4,1.1332575E-3,1.3732349E-3,-4.1024206E-4,1.2658767E-3,-2.3006438E-4],"split_indices":[4,1,17,15,4,17,0,0,17,0,11,7,0,0,0,0,0,0,0,0,0,0,0,0,0],"split_type":[0,0,0,0,0,0,0,0,0,0,0,0,0,0,0,0,0,0,0,0,0,0,0,0,0],"sum_hessian":[1.49E2,1.07E2,4.2E1,2.3E1,8.4E1,3.8E1,4E0,4E0,1.9E1,6.1E1,2.3E1,3.5E1,3E0,2E0,2E0,1E0,3E0,1.3E1,6E0,5.3E1,8E0,1.6E1,7E0,2.4E1,1.1E1],"tree_param":{"num_deleted":"0","num_feature":"25","num_nodes":"25","size_leaf_vector":"1"}},{"base_weights":[2.0817965E-3,2.1982431E-2,3.105507E-4,3.229381E-3,-3.130277E-3,-1.7320537E-3,5.82271E-3,-3.9731342E-4,-7.764816E-5,-1.0603943E-2,1.209121E-3,-1.06188655E-2,1.001304E-2,1.0604934E-3,-1.2623977E-3,4.895161E-4,-2.3289544E-4,-3.2877922E-3,-3.14985E-5,1.0983173E-3,-9.049912E-4],"categories":[],"categories_nodes":[],