{"learner":{"attributes":{"aggregation_window_seconds":"60.0","feature_names":"[\"active_requests\", \"arrival_qps_60s\", \"finished_qps_60s\", \"backlog_growth_qps_60s\", \"finished_count_60s\", \"window_mean_seqlen_60s\", \"window_p90_seqlen_60s\", \"window_mean_cachelen_60s\", \"window_p90_cachelen_60s\", \"window_mean_extend_tokens_60s\", \"window_p90_extend_tokens_60s\", \"window_mean_ttft_ms_60s\", \"window_p90_ttft_ms_60s\", \"delta_active_requests\", \"delta_arrival_qps_60s\", \"delta_finished_qps_60s\", \"delta_backlog_growth_qps_60s\", \"delta_finished_count_60s\", \"delta_window_mean_ttft_ms_60s\", \"delta_window_p90_ttft_ms_60s\"]","last_retrain_time":"985826.295706283","model_type":"xgboost","model_version":"52","sample_count":"20","scikit_learn":"{\"_estimator_type\": \"regressor\"}","training_window_seconds":"900.0"},"feature_names":[],"feature_types":[],"gradient_booster":{"model":{"cats":{"enc":[],"feature_segments":[],"sorted_idx":[]},"gbtree_model_param":{"num_parallel_tree":"1","num_trees":"96"},"iteration_indptr":[0,1,2,3,4,5,6,7,8,9,10,11,12,13,14,15,16,17,18,19,20,21,22,23,24,25,26,27,28,29,30,31,32,33,34,35,36,37,38,39,40,41,42,43,44,45,46,47,48,49,50,51,52,53,54,55,56,57,58,59,60,61,62,63,64,65,66,67,68,69,70,71,72,73,74,75,76,77,78,79,80,81,82,83,84,85,86,87,88,89,90,91,92,93,94,95,96],"tree_info":[0,0,0,0,0,0,0,0,0,0,0,0,0,0,0,0,0,0,0,0,0,0,0,0,0,0,0,0,0,0,0,0,0,0,0,0,0,0,0,0,0,0,0,0,0,0,0,0,0,0,0,0,0,0,0,0,0,0,0,0,0,0,0,0,0,0,0,0,0,0,0,0,0,0,0,0,0,0,0,0,0,0,0,0,0,0,0,0,0,0,0,0,0,0,0,0],"trees":[{"base_weights":[-2.9298706E2,1.9034226E3,-2.9449336E3,2.0424924E2,4.9053436E1,-6.8174065E1,-2.7369E2],"categories":[],"categories_nodes":[],"categories_segments":[],"categories_sizes":[],"default_left":[0,0,0,0,0,0,0],"id":0,"left_children":[1,3,5,-1,-1,-1,-1],"loss_changes":[1.1627591E8,7.655476E6,6.053584E6,0E0,0E0,0E0,0E0],"parents":[2147483647,0,0,1,1,2,2],"right_children":[2,4,6,-1,-1,-1,-1],"split_conditions":[1.3333334E-1,1E-1,1.8333334E-1,2.0424924E2,4.9053436E1,-6.8174065E1,-2.7369E2],"split_indices":[1,1,1,0,0,0,0],"split_type":[0,0,0,0,0,0,0],"sum_hessian":[1.8E1,1E1,8E0,6E0,4E0,2E0,6E0],"tree_param":{"num_deleted":"0","num_feature":"20","num_nodes":"7","size_leaf_vector":"1"}},{"base_weights":[-1.5555273E2,1.8012373E3,-2.7473225E3,2.5873898E2,9.6421094E2,-6.453802E1,-2.5492259E2,1.06951324E2,4.4404427E1],"categories":[],"categories_nodes":[],"categories_segments":[],"categories_sizes":[],"default_left":[0,0,0,0,0,0,0,0,0],"id":1,"left_children":[1,3,5,-1,7,-1,-1,-1,-1],"loss_changes":[1.0637955E8,1.127502E7,5.100312E6,0E0,6.303105E5,0E0,0E0,0E0,0E0],"parents":[2147483647,0,0,1,1,2,2,4,4],"right_children":[2,4,6,-1,8,-1,-1,-1,-1],"split_conditions":[1.3333334E-1,8.3333336E-2,1.8333334E-1,2.5873898E2,1E-1,-6.453802E1,-2.5492259E2,1.06951324E2,4.4404427E1],"split_indices":[1,1,1,0,1,0,0,0,0],"split_type":[0,0,0,0,0,0,0,0,0],"sum_hessian":[1.9E1,1.1E1,8E0,3E0,8E0,2E0,6E0,3E0,5E0],"tree_param":{"num_deleted":"0","num_feature":"20","num_nodes":"9","size_leaf_vector":"1"}},{"base_weights":[-3.5904605E0,1.7987211E3,-2.706609E3,2.4186499E2,8.085112E2,-3.506703E1,-2.3744221E2,2.4978281E1,8.350681E1],"categories":[],"categories_nodes":[],"categories_segments":[],"categories_sizes":[],"default_left":[0,0,0,0,0,0,0,0,0],"id":2,"left_children":[1,3,5,-1,7,-1,-1,-1,-1],"loss_changes":[9.7430376E7,1.2106848E7,3.442756E6,0E0,6.08382E5,0E0,0E0,0E0,0E0],"parents":[2147483647,0,0,1,1,2,2,4,4],"right_children":[2,4,6,-1,8,-1,-1,-1,-1],"split_conditions":[1.3333334E-1,8.3333336E-2,1.6666667E-1,2.4186499E2,-9.689633E1,-3.506703E1,-2.3744221E2,2.4978281E1,8.350681E1],"split_indices":[1,1,1,0,18,0,0,0,0],"split_type":[0,0,0,0,0,0,0,0,0],"sum_hessian":[1.8E1,1.1E1,7E0,4E0,7E0,1E0,6E0,3E0,4E0],"tree_param":{"num_deleted":"0","num_feature":"20","num_nodes":"9","size_leaf_vector":"1"}},{"base_weights":[5.66949E1,1.6888975E3,-2.3986958E3,2.2638574E2,7.647075E2,-7.820969E1,-2.444653E2,8.688469E1,2.8374811E1],"categories":[],"categories_nodes":[],"categories_segments":[],"categories_sizes":[],"default_left":[0,0,0,0,0,0,0,0,0],"id":3,"left_children":[1,3,5,-1,7,-1,-1,-1,-1],"loss_changes":[8.019736E7,1.0489184E7,4.483112E6,0E0,6.688805E5,0E0,0E0,0E0,0E0],"parents":[2147483647,0,0,1,1,2,2,4,4],"right_children":[2,4,6,-1,8,-1,-1,-1,-1],"split_conditions":[1.3333334E-1,8.3333336E-2,2E-1,2.2638574E2,1.0244923E4,-7.820969E1,-2.444653E2,8.688469E1,2.8374811E1],"split_indices":[1,1,1,0,7,0,0,0,0],"split_type":[0,0,0,0,0,0,0,0,0],"sum_hessian":[1.8E1,1.1E1,7E0,4E0,7E0,3E0,4E0,3E0,4E0],"tree_param":{"num_deleted":"0","num_feature":"20","num_nodes":"9","size_leaf_vector":"1"}},{"base_weights":[-1.885586E1,1.6280052E3,-2.2125754E3,2.234517E3,2.6558813E1,-4.965781E1,-2.0629729E2,2.1189699E2,9.265148E1],"categories":[],"categories_nodes":[],"categories_segments":[],"categories_sizes":[],"default_left":[0,0,0,0,0,0,0,0,0],"id":4,"left_children":[1,3,5,7,-1,-1,-1,-1,-1],"loss_changes":[7.585711E7,8.690794E6,3.644912E6,4.99044E5,0E0,0E0,0E0,0E0,0E0],"parents":[2147483647,0,0,1,1,2,2,3,3],"right_children":[2,4,6,8,-1,-1,-1,-1,-1],"split_conditions":[1.3333334E-1,1E-1,1.8333334E-1,8.3333336E-2,2.6558813E1,-4.965781E1,-2.0629729E2,2.1189699E2,9.265148E1],"split_indices":[1,1,1,1,0,0,0,0,0],"split_type":[0,0,0,0,0,0,0,0,0],"sum_hessian":[1.9E1,1.1E1,8E0,7E0,4E0,2E0,6E0,4E0,3E0],"tree_param":{"num_deleted":"0","num_feature":"20","num_nodes":"9","size_leaf_vector":"1"}},{"base_weights":[1.8564259E1,1.5789476E3,-2.0640095E3,1.9833551E2,8.189253E2,-1.3052885E3,-2.5170844E2,9.7976886E2,1.794104E1,-2.8549686E1,-1.12310356E2,8.534568E1,2.1780312E1],"categories":[],"categories_nodes":[],"categories_segments":[],"categories_sizes":[],"default_left":[0,0,0,0,0,0,0,0,0,0,0,0,0],"id":5,"left_children":[1,3,5,-1,7,9,-1,11,-1,-1,-1,-1,-1],"loss_changes":[6.825123E7,6.180214E6,3.283884E6,0E0,5.45455E5,1.53534E5,0E0,7.90985E4,0E0,0E0,0E0,0E0,0E0],"parents":[2147483647,0,0,1,1,2,2,4,4,5,5,7,7],"right_children":[2,4,6,-1,8,10,-1,12,-1,-1,-1,-1,-1],"split_conditions":[1.3333334E-1,8.3333336E-2,3E-1,1.9833551E2,1.0360889E4,1.6666667E-1,-2.5170844E2,1.1666667E-1,1.794104E1,-2.8549686E1,-1.12310356E2,8.534568E1,2.1780312E1],"split_indices":[1,1,1,0,7,1,0,1,0,0,0,0,0],"split_type":[0,0,0,0,0,0,0,0,0,0,0,0,0],"sum_hessian":[1.9E1,1.1E1,8E0,4E0,7E0,6E0,2E0,5E0,2E0,1E0,5E0,4E0,1E0],"tree_param":{"num_deleted":"0","num_feature":"20","num_nodes":"13","size_leaf_vector":"1"}},{"base_weights":[1.3428515E1,1.4792623E3,-1.9425087E3,1.9626514E3,3.2799E1,-1.2209894E3,-2.3828406E2,1.8564198E2,8.197172E1,-2.7407656E1,-1.0482312E2],"categories":[],"categories_nodes":[],"categories_segments":[],"categories_sizes":[],"default_left":[0,0,0,0,0,0,0,0,0,0,0],"id":6,"left_children":[1,3,5,7,-1,9,-1,-1,-1,-1,-1],"loss_changes":[6.0215056E7,5.397846E6,3.09094E6,3.0778E5,0E0,1.00183E5,0E0,0E0,0E0,0E0,0E0],"parents":[2147483647,0,0,1,1,2,2,3,3,5,5],"right_children":[2,4,6,8,-1,10,-1,-1,-1,-1,-1],"split_conditions":[1.3333334E-1,1E-1,3E-1,8.3333336E-2,3.2799E1,1.6666667E-1,-2.3828406E2,1.8564198E2,8.197172E1,-2.7407656E1,-1.0482312E2],"split_indices":[1,1,1,1,0,1,0,0,0,0,0],"split_type":[0,0,0,0,0,0,0,0,0,0,0],"sum_hessian":[1.9E1,1.1E1,8E0,7E0,4E0,6E0,2E0,4E0,3E0,1E0,5E0],"tree_param":{"num_deleted":"0","num_feature":"20","num_nodes":"11","size_leaf_vector":"1"}},{"base_weights":[-1.7755055E2,1.1634769E3,-1.8316411E3,1.3227078E2,2.7431374E1,-8.2587296E1,-2.2557552E2],"categories":[],"categories_nodes":[],"categories_segments":[],"categories_sizes":[],"default_left":[0,0,0,0,0,0,0],"id":7,"left_children":[1,3,5,-1,-1,-1,-1],"loss_changes":[3.9840148E7,3.453176E6,3.40712E6,0E0,0E0,0E0,0E0],"parents":[2147483647,0,0,1,1,2,2],"right_children":[2,4,6,-1,-1,-1,-1],"split_conditions":[1.3333334E-1,1E-1,3E-1,1.3227078E2,2.7431374E1,-8.2587296E1,-2.2557552E2],"split_indices":[1,1,1,0,0,0,0],"split_type":[0,0,0,0,0,0,0],"sum_hessian":[1.6E1,9E0,7E0,5E0,4E0,5E0,2E0],"tree_param":{"num_deleted":"0","num_feature":"20","num_nodes":"7","size_leaf_vector":"1"}},{"base_weights":[-1.3032504E2,1.0380367E3,-1.8665771E3,1.1873375E2,2.7563175E1,-9.232911E1,-2.1354489E2],"categories":[],"categories_nodes":[],"categories_segments":[],"categories_sizes":[],"default_left":[0,0,0,0,0,0,0],"id":8,"left_children":[1,3,5,-1,-1,-1,-1],"loss_changes":[4.048042E7,3.201365E6,1.494658E6,0E0,0E0,0E0,0E0],"parents":[2147483647,0,0,1,1,2,2],"right_children":[2,4,6,-1,-1,-1,-1],"split_conditions":[1.3333334E-1,1E-1,3E-1,1.1873375E2,2.7563175E1,-9.232911E1,-2.1354489E2],"split_indices":[1,1,1,0,0,0,0],"split_type":[0,0,0,0,0,0,0],"sum_hessian":[1.8E1,1.1E1,7E0,6E0,5E0,5E0,2E0],"tree_param":{"num_deleted":"0","num_feature":"20","num_nodes":"7","size_leaf_vector":"1"}},{"base_weights":[8.0898224E1,1.1561351E3,-1.7739219E3,1.5769675E2,5.0219678E2,-7.738569E1,-2.0215593E2,1.2199478E1,5.9334894E2,5.3270935E1,9.226406E0],"categories":[],"categories_nodes":[],"categories_segments":[],"categories_sizes":[],"default_left":[0,0,0,0,0,0,0,0,0,0,0],"id":9,"left_children":[1,3,5,-1,7,-1,-1,-1,9,-1,-1],"loss_changes":[3.794957E7,5.406164E6,1.807378E6,0E0,1.6452788E5,0E0,0E0,0E0,1.312495E5,0E0,0E0],"parents":[2147483647,0,0,1,1,2,2,4,4,8,8],"right_children":[2,4,6,-1,8,-1,-1,-1,10,-1,-1],"split_conditions":[1.3333334E-1,8.3333336E-2,2.6666668E-1,1.5769675E2,-1.876524E2,-7.738569E1,-2.0215593E2,1.2199478E1,1.0360889E4,5.3270935E1,9.226406E0],"split_indices":[1,1,1,0,18,0,0,0,7,0,0],"split_type":[0,0,0,0,0,0,0,0,0,0,0],"sum_hessian":[1.7E1,1.1E1,6E0,4E0,7E0,4E0,2E0,2E0,5E0,4E0,1E0],"tree_param":{"num_deleted":"0","num_feature":"20","num_nodes":"11","size_leaf_vector":"1"}},{"base_weights":[-5.157509E1,1.2605007E3,-1.5037065E3,1.4760425E2,5.6329034E2,-9.0811774E2,-1.9137427E2,5.879695E1,1.1730521E1,-2.6271042E1,-8.594656E1],"categories":[],"categories_nodes":[],"categories_segments":[],"categories_sizes":[],"default_left":[0,0,0,0,0,0,0,0,0,0,0],"id":10,"left_children":[1,3,5,-1,7,9,-1,-1,-1,-1,-1],"loss_changes":[3.6190944E7,3.03626E6,2.590096E6,0E0,3.2140238E5,3.217175E5,0E0,0E0,0E0,0E0,0E0],"parents":[2147483647,0,0,1,1,2,2,4,4,5,5],"right_children":[2,4,6,-1,8,10,-1,-1,-1,-1,-1],"split_conditions":[1.1666667E-1,8.3333336E-2,3E-1,1.4760425E2,1E-1,1.8333334E-1,-1.9137427E2,5.879695E1,1.1730521E1,-2.6271042E1,-8.594656E1],"split_indices":[1,1,1,0,1,1,0,0,0,0,0],"split_type":[0,0,0,0,0,0,0,0,0,0,0],"sum_hessian":[1.7E1,9E0,8E0,4E0,5E0,6E0,2E0,3E0,2E0,2E0,4E0],"tree_param":{"num_deleted":"0","num_feature":"20","num_nodes":"11","size_leaf_vector":"1"}},{"base_weights":[-2.5900736E0,1.165825E3,-1.4627852E3,1.381575E2,5.0390103E2,-2.4869999E1,-1.7949427E3,5.145625E1,1.2015834E1,-7.951742E1,-1.8116759E2],"categories":[],"categories_nodes":[],"categories_segments":[],"categories_sizes":[],"default_left":[0,0,0,0,0,0,0,0,0,0,0],"id":11,"left_children":[1,3,5,-1,7,-1,9,-1,-1,-1,-1],"loss_changes":[3.070929E7,2.844124E6,2.502922E6,0E0,1.9902175E5,0E0,6.144E3,0E0,0E0,0E0,0E0],"parents":[2147483647,0,0,1,1,2,2,4,4,6,6],"right_children":[2,4,6,-1,8,-1,10,-1,-1,-1,-1],"split_conditions":[1.3333334E-1,8.3333336E-2,1.8333334E-1,1.381575E2,1.0244923E4,-2.4869999E1,3E-1,5.145625E1,1.2015834E1,-7.951742E1,-1.8116759E2],"split_indices":[1,1,1,0,7,0,1,0,0,0,0],"split_type":[0,0,0,0,0,0,0,0,0,0,0],"sum_hessian":[1.6E1,9E0,7E0,4E0,5E0,2E0,5E0,3E0,2E0,3E0,2E0],"tree_param":{"num_deleted":"0","num_feature":"20","num_nodes":"11","size_leaf_vector":"1"}},{"base_weights":[8.986387E1,9.567566E2,-1.3300698E3,1.2931549E2,4.8395746E2,-7.0151825E2,-1.7150531E2,5.661735E2,1.0464063E1,-1.417375E1,-6.167625E1,5.341475E1,1.6661146E1],"categories":[],"categories_nodes":[],"categories_segments":[],"categories_sizes":[],"default_left":[0,0,0,0,0,0,0,0,0,0,0,0,0],"id":12,"left_children":[1,3,5,-1,7,9,-1,11,-1,-1,-1,-1,-1],"loss_changes":[2.5891158E7,3.272404E6,2.587928E6,0E0,1.872605E5,8.185625E4,0E0,1.1526675E5,0E0,0E0,0E0,0E0,0E0],"parents":[2147483647,0,0,1,1,2,2,4,4,5,5,7,7],"right_children":[2,4,6,-1,8,10,-1,12,-1,-1,-1,-1,-1],"split_conditions":[1.3333334E-1,8.3333336E-2,3E-1,1.2931549E2,1.0360889E4,1.6666667E-1,-1.7150531E2,1.1666667E-1,1.0464063E1,-1.417375E1,-6.167625E1,5.341475E1,1.6661146E1],"split_indices":[1,1,1,0,7,1,0,1,0,0,0,0,0],"split_type":[0,0,0,0,0,0,0,0,0,0,0,0,0],"sum_hessian":[1.9E1,1.2E1,7E0,4E0,8E0,5E0,2E0,6E0,2E0,1E0,4E0,4E0,2E0],"tree_param":{"num_deleted":"0","num_feature":"20","num_nodes":"13","size_leaf_vector":"1"}},{"base_weights":[-2.6653711E1,9.021263E2,-1.2620656E3,1.21039246E2,4.075703E2,-1.3772E2,-4.4017437E1,1.167375E1,4.2829998E1],"categories":[],"categories_nodes":[],"categories_segments":[],"categories_sizes":[],"default_left":[0,0,0,0,0,0,0,0,0],"id":13,"left_children":[1,3,5,-1,7,-1,-1,-1,-1],"loss_changes":[2.408706E7,3.008629E6,1.996226E6,0E0,1.8939625E5,0E0,0E0,0E0,0E0],"parents":[2147483647,0,0,1,1,2,2,4,4],"right_children":[2,4,6,-1,8,-1,-1,-1,-1],"split_conditions":[1.3333334E-1,8.3333336E-2,2.9731643E4,1.21039246E2,-9.689633E1,-1.3772E2,-4.4017437E1,1.167375E1,4.2829998E1],"split_indices":[1,1,5,0,18,0,0,0,0],"split_type":[0,0,0,0,0,0,0,0,0],"sum_hessian":[1.9E1,1.1E1,8E0,4E0,7E0,4E0,4E0,3E0,4E0],"tree_param":{"num_deleted":"0","num_feature":"20","num_nodes":"9","size_leaf_vector":"1"}},{"base_weights":[6.540391E1,8.4234674E2,-1.2053037E3,1.3787167E2,5.2548364E2,-6.382376E2,-1.5501343E2,5.7354218E1,1.9716719E1,-1.9173437E1,-6.2208435E1],"categories":[],"categories_nodes":[],"categories_segments":[],"categories_sizes":[],"default_left":[0,0,0,0,0,0,0,0,0,0,0],"id":14,"left_children":[1,3,5,-1,7,9,-1,-1,-1,-1,-1],"loss_changes":[2.0760626E7,2.723618E6,2.0857E6,0E0,4.1090075E5,1.469195E5,0E0,0E0,0E0,0E0,0E0],"parents":[2147483647,0,0,1,1,2,2,4,4,5,5],"right_children":[2,4,6,-1,8,10,-1,-1,-1,-1,-1],"split_conditions":[1.3333334E-1,3.8333333E-1,3E-1,1.3787167E2,1E-1,1.8333334E-1,-1.5501343E2,5.7354218E1,1.9716719E1,-1.9173437E1,-6.2208435E1],"split_indices":[1,2,1,0,1,1,0,0,0,0,0],"split_type":[0,0,0,0,0,0,0,0,0,0,0],"sum_hessian":[1.9E1,1.2E1,7E0,2E0,1E1,5E0,2E0,5E0,5E0,2E0,3E0],"tree_param":{"num_deleted":"0","num_feature":"20","num_nodes":"11","size_leaf_vector":"1"}},{"base_weights":[5.9098633E1,7.914934E2,-1.1384302E3,1.3051854E2,4.904517E2,-6.0074347E2,-1.4674614E2,5.353052E1,2.3002995E2,-1.8150938E1,-5.8476013E1,9.790546E0,2.3750729E1],"categories":[],"categories_nodes":[],"categories_segments":[],"categories_sizes":[],"default_left":[0,0,0,0,0,0,0,0,0,0,0,0,0],"id":15,"left_children":[1,3,5,-1,7,9,-1,-1,11,-1,-1,-1,-1],"loss_changes":[1.8442336E7,2.487167E6,1.891436E6,0E0,3.5793275E5,1.26229E5,0E0,0E0,6.847125E3,0E0,0E0,0E0,0E0],"parents":[2147483647,0,0,1,1,2,2,4,4,5,5,8,8],"right_children":[2,4,6,-1,8,10,-1,-1,12,-1,-1,-1,-1],"split_conditions":[1.3333334E-1,3.8333333E-1,3E-1,1.3051854E2,1E-1,1.8333334E-1,-1.4674614E2,5.353052E1,-9.689633E1,-1.8150938E1,-5.8476013E1,9.790546E0,2.3750729E1],"split_indices":[1,2,1,0,1,1,0,0,18,0,0,0,0],"split_type":[0,0,0,0,0,0,0,0,0,0,0,0,0],"sum_hessian":[1.9E1,1.2E1,7E0,2E0,1E1,5E0,2E0,5E0,5E0,2E0,3E0,3E0,2E0],"tree_param":{"num_deleted":"0","num_feature":"20","num_nodes":"13","size_leaf_vector":"1"}},{"base_weights":[-5.4730673E0,8.515242E2,-1.052306E3,1.23557495E2,5.2592883E2,-6.0875226E2,-1.3891968E2,4.9112232E1,1.1627708E1,-1.7182812E1,-5.787056E1],"categories":[],"categories_nodes":[],"categories_segments":[],"categories_sizes":[],"default_left":[0,0,0,0,0,0,0,0,0,0,0],"id":16,"left_children":[1,3,5,-1,7,9,-1,-1,-1,-1,-1],"loss_changes":[1.7941588E7,1.669535E6,1.67418E6,0E0,2.1210425E5,1.60751E5,0E0,0E0,0E0,0E0,0E0],"parents":[2147483647,0,0,1,1,2,2,4,4,5,5],"right_children":[2,4,6,-1,8,10,-1,-1,-1,-1,-1],"split_conditions":[1.3333334E-1,3.8333333E-1,3E-1,1.23557495E2,-3.5E-1,1.8333334E-1,-1.3891968E2,4.9112232E1,1.1627708E1,-1.7182812E1,-5.787056E1],"split_indices":[1,2,1,0,3,1,0,0,0,0,0],"split_type":[0,0,0,0,0,0,0,0,0,0,0],"sum_hessian":[1.8E1,1E1,8E0,2E0,8E0,6E0,2E0,6E0,2E0,2E0,4E0],"tree_param":{"num_deleted":"0","num_feature":"20","num_nodes":"11","size_leaf_vector":"1"}},{"base_weights":[-1.4831209E1,8.485863E2,-8.767656E2,1.16967705E2,5.124468E2,-2.2776485E2,-1.271472E3,4.574446E1,3.8773437E0,6.376406E0,-2.5964687E1,-6.1704247E1,-1.5089265E2],"categories":[],"categories_nodes":[],"categories_segments":[],"categories_sizes":[],"default_left":[0,0,0,0,0,0,0,0,0,0,0,0,0],"id":17,"left_children":[1,3,5,-1,7,9,11,-1,-1,-1,-1,-1,-1],"loss_changes":[1.4883988E7,1.313004E6,2.272051E6,0E0,1.9261775E5,1.7467481E5,3.89881E5,0E0,0E0,0E0,0E0,0E0,0E0],"parents":[2147483647,0,0,1,1,2,2,4,4,5,5,6,6],"right_children":[2,4,6,-1,8,10,12,-1,-1,-1,-1,-1,-1],"split_conditions":[4.993341E4,3.8333333E-1,-2.5E-1,1.16967705E2,1.0360889E4,-3.1666666E-1,5.1666665E-1,4.574446E1,3.8773437E0,6.376406E0,-2.5964687E1,-6.1704247E1,-1.5089265E2],"split_indices":[11,2,3,0,7,3,2,0,0,0,0,0,0],"split_type":[0,0,0,0,0,0,0,0,0,0,0,0,0],"sum_hessian":[1.8E1,9E0,9E0,2E0,7E0,4E0,5E0,6E0,1E0,1E0,3E0,4E0,1E0],"tree_param":{"num_deleted":"0","num_feature":"20","num_nodes":"13","size_leaf_vector":"1"}},{"base_weights":[-3.1681446E1,6.514863E2,-9.3905164E2,3.6654843E2,1.1072937E2,-6.037554E2,-1.4485687E2,4.3091992E2,5.8166666E0,-1.4881562E1,-5.695979E1,6.121406E0,3.7649418E1],"categories":[],"categories_nodes":[],"categories_segments":[],"categories_sizes":[],"default_left":[0,0,0,0,0,0,0,0,0,0,0,0,0],"id":18,"left_children":[1,3,5,7,-1,9,-1,11,-1,-1,-1,-1,-1],"loss_changes":[1.3009502E7,1.9977055E6,1.53715E6,1.5781775E5,0E0,2.29287E5,0E0,7.6541375E4,0E0,0E0,0E0,0E0,0E0],"parents":[2147483647,0,0,1,1,2,2,3,3,5,5,7,7],"right_children":[2,4,6,8,-1,10,-1,12,-1,-1,-1,-1,-1],"split_conditions":[1.3333334E-1,-3E-1,3.3333334E-1,1.0360889E4,1.1072937E2,1.8333334E-1,-1.4485687E2,2.132446E4,5.8166666E0,-1.4881562E1,-5.695979E1,6.121406E0,3.7649418E1],"split_indices":[1,3,1,7,0,1,0,9,0,0,0,0,0],"split_type":[0,0,0,0,0,0,0,0,0,0,0,0,0],"sum_hessian":[1.9E1,1.1E1,8E0,9E0,2E0,7E0,1E0,7E0,2E0,2E0,5E0,1E0,6E0],"tree_param":{"num_deleted":"0","num_feature":"20","num_nodes":"13","size_leaf_vector":"1"}},{"base_weights":[-2.2208202E1,-1.0662494E3,5.013987E2,-5.3162395E1,-1.3906265E2,1.0709421E3,1.664871E2,1.04823746E2,3.796854E1,2.741455E2,-1.4087812E1,2.6488956E1,5.506458E0],"categories":[],"categories_nodes":[],"categories_segments":[],"categories_sizes":[],"default_left":[0,0,0,0,0,0,0,0,0,0,0,0,0],"id":19,"left_children":[1,3,5,-1,-1,7,9,-1,-1,11,-1,-1,-1],"loss_changes":[1.146796E7,7.34642E5,2.492156E6,0E0,0E0,9.1802E4,4.170977E5,0E0,0E0,7.077781E4,0E0,0E0,0E0],"parents":[2147483647,0,0,1,1,2,2,5,5,6,6,9,9],"right_children":[2,4,6,-1,-1,8,10,-1,-1,12,-1,-1,-1],"split_conditions":[3.1111227E4,5.1666665E-1,4.3333334E-1,-5.3162395E1,-1.3906265E2,3.8333333E-1,-3E-1,1.04823746E2,3.796854E1,1.0360889E4,-1.4087812E1,2.6488956E1,5.506458E0],"split_indices":[5,2,2,0,0,2,3,0,0,7,0,0,0],"split_type":[0,0,0,0,0,0,0,0,0,0,0,0,0],"sum_hessian":[1.9E1,6E0,1.3E1,5E0,1E0,4E0,9E0,2E0,2E0,7E0,2E0,5E0,2E0],"tree_param":{"num_deleted":"0","num_feature":"20","num_nodes":"13","size_leaf_vector":"1"}},{"base_weights":[-3.9359374E0,6.2335547E2,-8.3988715E2,9.923312E1,3.7590234E2,-5.2768506E2,-1.3350015E2,4.4544336E2,5.212708E0,-1.3336562E1,-4.9618122E1,3.794723E1,9.7265625E0],"categories":[],"categories_nodes":[],"categories_segments":[],"categories_sizes":[],"default_left":[0,0,0,0,0,0,0,0,0,0,0,0,0],"id":20,"left_children":[1,3,5,-1,7,9,-1,11,-1,-1,-1,-1,-1],"loss_changes":[1.1011248E7,1.3660425E6,1.448384E6,0E0,1.870695E5,1.638475E5,0E0,1.7197875E4,0E0,0E0,0E0,0E0,0E0],"parents":[2147483647,0,0,1,1,2,2,4,4,5,5,7,7],"right_children":[2,4,6,-1,8,10,-1,12,-1,-1,-1,-1,-1],"split_conditions":[1.3333334E-1,3.8333333E-1,3.3333334E-1,9.923312E1,1.0360889E4,1.8333334E-1,-1.3350015E2,1.1666667E-1,5.212708E0,-1.3336562E1,-4.9618122E1,3.794723E1,9.7265625E0],"split_indices":[1,2,1,0,7,1,0,1,0,0,0,0,0],"split_type":[0,0,0,0,0,0,0,0,0,0,0,0,0],"sum_hessian":[1.9E1,1.1E1,8E0,2E0,9E0,7E0,1E0,7E0,2E0,2E0,5E0,6E0,1E0],"tree_param":{"num_deleted":"0","num_feature":"20","num_nodes":"13","size_leaf_vector":"1"}},{"base_weights":[-2.8813243E-1,5.4959045E2,-7.9452515E2,9.394062E1,3.2926385E2,-4.9334033E2,-1.2816016E2,3.65262E1,1.4707292E2,-1.2625312E1,-4.631031E1,1.5644896E1,5.915078E0],"categories":[],"categories_nodes":[],"categories_segments":[],"categories_sizes":[],"default_left":[0,0,0,0,0,0,0,0,0,0,0,0,0],"id":21,"left_children":[1,3,5,-1,7,9,-1,-1,11,-1,-1,-1,-1],"loss_changes":[9.608076E6,1.4025605E6,1.3984655E6,0E0,1.87999E5,1.3824512E5,0E0,0E0,6.8174688E3,0E0,0E0,0E0,0E0],"parents":[2147483647,0,0,1,1,2,2,4,4,5,5,8,8],"right_children":[2,4,6,-1,8,10,-1,-1,12,-1,-1,-1,-1],"split_conditions":[1.3333334E-1,3.8333333E-1,3.3333334E-1,9.394062E1,1E-1,1.8333334E-1,-1.2816016E2,3.65262E1,1.0256593E4,-1.2625312E1,-4.631031E1,1.5644896E1,5.915078E0],"split_indices":[1,2,1,0,1,1,0,0,7,0,0,0,0],"split_type":[0,0,0,0,0,0,0,0,0,0,0,0,0],"sum_hessian":[2E1,1.2E1,8E0,2E0,1E1,7E0,1E0,5E0,5E0,2E0,5E0,2E0,3E0],"tree_param":{"num_deleted":"0","num_feature":"20","num_nodes":"13","size_leaf_vector":"1"}},{"base_weights":[1.2424696E1,4.6807602E2,-9.768906E2,8.893042E1,2.5000888E2,-4.4567997E1,-1.23033745E2,3.3239124E1,9.609319E1,1.1112083E1,-6.430156E0],"categories":[],"categories_nodes":[],"categories_segments":[],"categories_sizes":[],"default_left":[0,0,0,0,0,0,0,0,0,0,0],"id":22,"left_children":[1,3,5,-1,7,-1,-1,-1,9,-1,-1],"loss_changes":[8.57135E6,1.5464768E6,5.563175E5,0E0,2.4024431E5,0E0,0E0,0E0,6.4044594E4,0E0,0E0],"parents":[2147483647,0,0,1,1,2,2,4,4,8,8],"right_children":[2,4,6,-1,8,-1,-1,-1,10,-1,-1],"split_conditions":[1.6666667E-1,3.8333333E-1,3.3333334E-1,8.893042E1,1E-1,-4.4567997E1,-1.23033745E2,3.3239124E1,1.3333334E-1,1.1112083E1,-6.430156E0],"split_indices":[1,2,1,0,1,0,0,0,1,0,0],"split_type":[0,0,0,0,0,0,0,0,0,0,0],"sum_hessian":[1.7E1,1.2E1,5E0,2E0,1E1,4E0,1E0,4E0,6E0,5E0,1E0],"tree_param":{"num_deleted":"0","num_feature":"20","num_nodes":"11","size_leaf_vector":"1"}},{"base_weights":[-1.2504102E1,5.0990234E2,-7.076567E2,8.41875E1,2.961797E2,-4.270127E2,-1.1811234E2,3.1875156E1,1.1423203E2,-1.0592084E1,-4.025198E1,4.8934374E0,1.3059531E1],"categories":[],"categories_nodes":[],"categories_segments":[],"categories_sizes":[],"default_left":[0,0,0,0,0,0,0,0,0,0,0,0,0],"id":23,"left_children":[1,3,5,-1,7,9,-1,-1,11,-1,-1,-1,-1],"loss_changes":[7.62388E6,1.0795012E6,1.311256E6,0E0,1.4054469E5,1.12829375E5,0E0,0E0,3.0185938E3,0E0,0E0,0E0,0E0],"parents":[2147483647,0,0,1,1,2,2,4,4,5,5,8,8],"right_children":[2,4,6,-1,8,10,-1,-1,12,-1,-1,-1,-1],"split_conditions":[1.3333334E-1,3.8333333E-1,3.3333334E-1,8.41875E1,1E-1,1.8333334E-1,-1.1811234E2,3.1875156E1,3.367525E4,-1.0592084E1,-4.025198E1,4.8934374E0,1.3059531E1],"split_indices":[1,2,1,0,1,1,0,0,5,0,0,0,0],"split_type":[0,0,0,0,0,0,0,0,0,0,0,0,0],"sum_hessian":[1.9E1,1.1E1,8E0,2E0,9E0,7E0,1E0,5E0,4E0,2E0,5E0,3E0,1E0],"tree_param":{"num_deleted":"0","num_feature":"20","num_nodes":"13","size_leaf_vector":"1"}},{"base_weights":[-6.242825E1,2.924841E2,-8.8015234E2,4.2578167E1,4.6148438E1,-3.91395E1,-1.1338781E2,1.2420052E2,-1.0027082E1,1.3739062E1,4.5997653E0],"categories":[],"categories_nodes":[],"categories_segments":[],"categories_sizes":[],"default_left":[0,0,0,0,0,0,0,0,0,0,0],"id":24,"left_children":[1,3,5,-1,7,-1,-1,9,-1,-1,-1],"loss_changes":[5.7716175E6,8.022401E5,5.66537E5,0E0,1.2264645E5,0E0,0E0,9.151148E3,0E0,0E0,0E0],"parents":[2147483647,0,0,1,1,2,2,4,4,7,7],"right_children":[2,4,6,-1,8,-1,-1,10,-1,-1,-1],"split_conditions":[1.8333334E-1,1E-1,3.3333334E-1,4.2578167E1,1.3333334E-1,-3.91395E1,-1.1338781E2,1.0256593E4,-1.0027082E1,1.3739062E1,4.5997653E0],"split_indices":[1,1,1,0,1,0,0,7,0,0,0],"split_type":[0,0,0,0,0,0,0,0,0,0,0],"sum_hessian":[1.8E1,1.3E1,5E0,6E0,7E0,4E0,1E0,5E0,2E0,2E0,3E0],"tree_param":{"num_deleted":"0","num_feature":"20","num_nodes":"11","size_leaf_vector":"1"}},{"base_weights":[2.7026173E1,4.327533E2,-6.356587E2,7.742667E1,2.4748119E2,-3.377087E2,-1.0885234E2,2.6911613E1,1.1732031E2,-9.492291E0,-3.2128E1,1.3006353E1,4.323672E0],"categories":[],"categories_nodes":[],"categories_segments":[],"categories_sizes":[],"default_left":[0,0,0,0,0,0,0,0,0,0,0,0,0],"id":25,"left_children":[1,3,5,-1,7,9,-1,-1,11,-1,-1,-1,-1],"loss_changes":[5.6524675E6,1.0492398E6,1.2685948E6,0E0,8.7838375E4,5.0318688E4,0E0,0E0,8.395711E3,0E0,0E0,0E0,0E0],"parents":[2147483647,0,0,1,1,2,2,4,4,5,5,8,8],"right_children":[2,4,6,-1,8,10,-1,-1,12,-1,-1,-1,-1],"split_conditions":[1.3333334E-1,3.8333333E-1,3.3333334E-1,7.742667E1,1E-1,1.8333334E-1,-1.0885234E2,2.6911613E1,1.0256593E4,-9.492291E0,-3.2128E1,1.3006353E1,4.323672E0],"split_indices":[1,2,1,0,1,1,0,0,7,0,0,0,0],"split_type":[0,0,0,0,0,0,0,0,0,0,0,0,0],"sum_hessian":[1.9E1,1.2E1,7E0,2E0,1E1,6E0,1E0,5E0,5E0,2E0,4E0,2E0,3E0],"tree_param":{"num_deleted":"0","num_feature":"20","num_nodes":"13","size_leaf_vector":"1"}},{"base_weights":[-1.342984E2,2.2136394E2,-7.2481976E2,4.6568204E2,4.099463E1,-3.281708E1,-1.04498276E2,5.497297E1,1.9081718E1,1.10822266E2,-8.986042E0,1.2312604E1,4.0642185E0],"categories":[],"categories_nodes":[],"categories_segments":[],"categories_sizes":[],"default_left":[0,0,0,0,0,0,0,0,0,0,0,0,0],"id":26,"left_children":[1,3,5,7,9,-1,-1,-1,-1,11,-1,-1,-1],"loss_changes":[3.9409205E6,5.0971938E5,7.4457075E5,8.765475E4,9.809604E4,0E0,0E0,0E0,0E0,7.696828E3,0E0,0E0,0E0],"parents":[2147483647,0,0,1,1,2,2,3,3,4,4,9,9],"right_children":[2,4,6,8,10,-1,-1,-1,-1,12,-1,-1,-1],"split_conditions":[1.8333334E-1,1E-1,3.3333334E-1,8.3333336E-2,1.3333334E-1,-3.281708E1,-1.04498276E2,5.497297E1,1.9081718E1,1.0256593E4,-8.986042E0,1.2312604E1,4.0642185E0],"split_indices":[1,1,1,1,1,0,0,0,0,7,0,0,0],"split_type":[0,0,0,0,0,0,0,0,0,0,0,0,0],"sum_hessian":[1.7E1,1.1E1,6E0,4E0,7E0,5E0,1E0,1E0,3E0,5E0,2E0,2E0,3E0],"tree_param":{"num_deleted":"0","num_feature":"20","num_nodes":"13","size_leaf_vector":"1"}},{"base_weights":[-1.3387747E1,3.500607E2,-6.8645087E2,7.036541E1,1.7382599E2,-3.0629324E1,-1.00318275E2,2.2387062E1,7.3270645E1,8.374948E0,-4.609062E0],"categories":[],"categories_nodes":[],"categories_segments":[],"categories_sizes":[],"default_left":[0,0,0,0,0,0,0,0,0,0,0],"id":27,"left_children":[1,3,5,-1,7,-1,-1,-1,9,-1,-1],"loss_changes":[4.8881505E6,1.0602358E6,7.2594125E5,0E0,9.675719E4,0E0,0E0,0E0,3.4814477E4,0E0,0E0],"parents":[2147483647,0,0,1,1,2,2,4,4,8,8],"right_children":[2,4,6,-1,8,-1,-1,-1,10,-1,-1],"split_conditions":[1.6666667E-1,3.8333333E-1,3.3333334E-1,7.036541E1,1E-1,-3.0629324E1,-1.00318275E2,2.2387062E1,1.3333334E-1,8.374948E0,-4.609062E0],"split_indices":[1,2,1,0,1,0,0,0,1,0,0],"split_type":[0,0,0,0,0,0,0,0,0,0,0],"sum_hessian":[1.8E1,1.2E1,6E0,2E0,1E1,5E0,1E0,4E0,6E0,5E0,1E0],"tree_param":{"num_deleted":"0","num_feature":"20","num_nodes":"11","size_leaf_vector":"1"}},{"base_weights":[3.0021381E1,2.6052783E2,-8.9950977E2,6.6612495E1,1.19319756E2,-3.1743958E1,-9.6305626E1,1.991765E2,-1.0409297E1,1.8599617E1,2.62625E0],"categories":[],"categories_nodes":[],"categories_segments":[],"categories_sizes":[],"default_left":[0,0,0,0,0,0,0,0,0,0,0],"id":28,"left_children":[1,3,5,-1,7,-1,-1,9,-1,-1,-1],"loss_changes":[4.3053425E6,1.1932742E6,1.34245E5,0E0,3.0478406E5,0E0,0E0,5.3335344E4,0E0,0E0,0E0],"parents":[2147483647,0,0,1,1,2,2,4,4,7,7],"right_children":[2,4,6,-1,8,-1,-1,10,-1,-1,-1],"split_conditions":[2E-1,3.8333333E-1,3.3333334E-1,6.6612495E1,1.3333334E-1,-3.1743958E1,-9.6305626E1,1.0360889E4,-1.0409297E1,1.8599617E1,2.62625E0],"split_indices":[1,2,1,0,1,0,0,7,0,0,0],"split_type":[0,0,0,0,0,0,0,0,0,0,0],"sum_hessian":[1.8E1,1.5E1,3E0,2E0,1.3E1,2E0,1E0,1E1,3E0,8E0,2E0],"tree_param":{"num_deleted":"0","num_feature":"20","num_nodes":"11","size_leaf_vector":"1"}},{"base_weights":[9.093967E0,-6.710625E2,3.223128E2,-2.7440624E1,-9.245344E1,6.3059788E1,1.6593857E2,1.9880664E2,-6.5096874E0,1.894832E1,2.48625E0],"categories":[],"categories_nodes":[],"categories_segments":[],"categories_sizes":[],"default_left":[0,0,0,0,0,0,0,0,0,0,0],"id":29,"left_children":[1,3,5,-1,-1,-1,7,9,-1,-1,-1],"loss_changes":[4.0509728E6,5.574595E5,8.163815E5,0E0,0E0,0E0,1.05591625E5,5.6455312E4,0E0,0E0,0E0],"parents":[2147483647,0,0,1,1,2,2,6,6,7,7],"right_children":[2,4,6,-1,-1,-1,8,10,-1,-1,-1],"split_conditions":[3.1111227E4,5.1666665E-1,3.8333333E-1,-2.7440624E1,-9.245344E1,6.3059788E1,-3E-1,1.0360889E4,-6.5096874E0,1.894832E1,2.48625E0],"split_indices":[5,2,2,0,0,0,3,7,0,0,0],"split_type":[0,0,0,0,0,0,0,0,0,0,0],"sum_hessian":[1.7E1,5E0,1.2E1,4E0,1E0,2E0,1E1,9E0,1E0,7E0,2E0],"tree_param":{"num_deleted":"0","num_feature":"20","num_nodes":"11","size_leaf_vector":"1"}},{"base_weights":[-1.3571232E1,3.7731757E2,-5.0048584E2,5.9696663E1,1.9181885E2,-2.5500056E2,-8.875531E1,1.8505156E1,4.888802E1,-8.975547E0,-2.6724531E1,4.672031E0,1.1945312E0],"categories":[],"categories_nodes":[],"categories_segments":[],"categories_sizes":[],"default_left":[0,0,0,0,0,0,0,0,0,0,0,0,0],"id":30,"left_children":[1,3,5,-1,7,9,-1,-1,11,-1,-1,-1,-1],"loss_changes":[3.424443E6,5.411509E5,9.130089E5,0E0,3.3852625E4,4.1548625E4,0E0,0E0,9.700342E1,0E0,0E0,0E0,0E0],"parents":[2147483647,0,0,1,1,2,2,4,4,5,5,8,8],"right_children":[2,4,6,-1,8,10,-1,-1,12,-1,-1,-1,-1],"split_conditions":[1.3333334E-1,3.8333333E-1,3.3333334E-1,5.9696663E1,1.1666667E-1,2E-1,-8.875531E1,1.8505156E1,4.5E-1,-8.975547E0,-2.6724531E1,4.672031E0,1.1945312E0],"split_indices":[1,2,1,0,1,1,0,0,2,0,0,0,0],"split_type":[0,0,0,0,0,0,0,0,0,0,0,0,0],"sum_hessian":[1.6E1,9E0,7E0,2E0,7E0,6E0,1E0,5E0,2E0,3E0,3E0,1E0,1E0],"tree_param":{"num_deleted":"0","num_feature":"20","num_nodes":"13","size_leaf_vector":"1"}},{"base_weights":[-1.2859933E1,2.6863785E2,-5.0387354E2,5.6512913E1,1.3680794E2,-2.7155133E2,-8.5205154E1,1.7658958E1,4.5324776E1,-8.99E0,-2.501975E1,5.359948E0,-3.3889062E0],"categories":[],"categories_nodes":[],"categories_segments":[],"categories_sizes":[],"default_left":[0,0,0,0,0,0,0,0,0,0,0,0,0],"id":31,"left_children":[1,3,5,-1,7,9,-1,-1,11,-1,-1,-1,-1],"loss_changes":[3.0379635E6,7.113205E5,7.537971E5,0E0,8.2132266E4,1.0756594E4,0E0,0E0,1.6142093E4,0E0,0E0,0E0,0E0],"parents":[2147483647,0,0,1,1,2,2,4,4,5,5,8,8],"right_children":[2,4,6,-1,8,10,-1,-1,12,-1,-1,-1,-1],"split_conditions":[1.6666667E-1,3.8333333E-1,3.3333334E-1,5.6512913E1,1E-1,2E-1,-8.5205154E1,1.7658958E1,1.3333334E-1,-8.99E0,-2.501975E1,5.359948E0,-3.3889062E0],"split_indices":[1,2,1,0,1,1,0,0,1,0,0,0,0],"split_type":[0,0,0,0,0,0,0,0,0,0,0,0,0],"sum_hessian":[2E1,1.3E1,7E0,2E0,1.1E1,6E0,1E0,5E0,6E0,2E0,4E0,5E0,1E0],"tree_param":{"num_deleted":"0","num_feature":"20","num_nodes":"13","size_leaf_vector":"1"}},{"base_weights":[3.1155427E0,2.2368802E2,-6.59225E2,5.349896E1,1.0377764E2,-2.5024061E1,-8.1796875E1,1.806206E2,-1.5975911E1,1.6465178E1,1.7046875E-1,3.3271093E0,-6.992292E0],"categories":[],"categories_nodes":[],"categories_segments":[],"categories_sizes":[],"default_left":[0,0,0,0,0,0,0,0,0,0,0,0,0],"id":32,"left_children":[1,3,5,-1,7,-1,-1,9,11,-1,-1,-1,-1],"loss_changes":[2.9232485E6,7.310898E5,3.09342E5,0E0,1.2251442E5,0E0,0E0,3.553661E4,2.830535E4,0E0,0E0,0E0,0E0],"parents":[2147483647,0,0,1,1,2,2,4,4,7,7,8,8],"right_children":[2,4,6,-1,8,-1,-1,10,12,-1,-1,-1,-1],"split_conditions":[2E-1,3.8333333E-1,3.3333334E-1,5.349896E1,-3.5E-1,-2.5024061E1,-8.1796875E1,1.0360889E4,1.3333334E-1,1.6465178E1,1.7046875E-1,3.3271093E0,-6.992292E0],"split_indices":[1,2,1,0,3,0,0,7,1,0,0,0,0],"split_type":[0,0,0,0,0,0,0,0,0,0,0,0,0],"sum_hessian":[1.8E1,1.4E1,4E0,2E0,1.2E1,3E0,1E0,7E0,5E0,6E0,1E0,3E0,2E0],"tree_param":{"num_deleted":"0","num_feature":"20","num_nodes":"13","size_leaf_vector":"1"}},{"base_weights":[-3.4898005E0,2.8180045E2,-4.9206027E2,1.4823946E2,5.0645622E1,-2.4688281E2,-7.8525E1,1.8066943E2,1.23463545E1,-8.137708E0,-2.3522655E1,1.5336161E1,4.137656E0,1.6359374E-1,1.3179687E0],"categories":[],"categories_nodes":[],"categories_segments":[],"categories_sizes":[],"default_left":[0,0,0,0,0,0,0,0,0,0,0,0,0,0,0],"id":33,"left_children":[1,3,5,7,-1,9,-1,11,13,-1,-1,-1,-1,-1,-1],"loss_changes":[2.6475818E6,4.691455E5,5.977734E5,4.18395E4,0E0,1.1157031E4,0E0,1.4661406E3,9.389154E1,0E0,0E0,0E0,0E0,0E0,0E0],"parents":[2147483647,0,0,1,1,2,2,3,3,5,5,7,7,8,8],"right_children":[2,4,6,8,-1,10,-1,12,14,-1,-1,-1,-1,-1,-1],"split_conditions":[1.3333334E-1,-3E-1,3.3333334E-1,1.0360889E4,5.0645622E1,2E-1,-7.8525E1,1.1666667E-1,-3.6666667E-1,-8.137708E0,-2.3522655E1,1.5336161E1,4.137656E0,1.6359374E-1,1.3179687E0],"split_indices":[1,3,1,7,0,1,0,1,3,0,0,0,0,0,0],"split_type":[0,0,0,0,0,0,0,0,0,0,0,0,0,0,0],"sum_hessian":[1.7E1,1.1E1,6E0,9E0,2E0,5E0,1E0,7E0,2E0,2E0,3E0,6E0,1E0,1E0,1E0],"tree_param":{"num_deleted":"0","num_feature":"20","num_nodes":"15","size_leaf_vector":"1"}},{"base_weights":[-1.1859581E1,1.27755516E2,-6.3924686E1,5.22083E2,5.9651227E0,4.7944584E1,1.1616406E1,9.29579E1,-1.2551823E2,9.155E0,9.4822913E-1,-2.648125E0,-1.09905E1],"categories":[],"categories_nodes":[],"categories_segments":[],"categories_sizes":[],"default_left":[0,0,0,0,0,0,0,0,0,0,0,0,0],"id":34,"left_children":[1,3,-1,5,7,-1,-1,9,11,-1,-1,-1,-1],"loss_changes":[2.1902768E6,8.1331575E5,0E0,2.9394E4,1.7180134E5,0E0,0E0,1.4322516E4,2.0305078E3,0E0,0E0,0E0,0E0],"parents":[2147483647,0,0,1,1,3,3,4,4,7,7,8,8],"right_children":[2,4,-1,6,8,-1,-1,10,12,-1,-1,-1,-1],"split_conditions":[3E-1,8.3333336E-2,-6.3924686E1,3.8333333E-1,1.3333334E-1,4.7944584E1,1.1616406E1,1.0360889E4,1.6666667E-1,9.155E0,9.4822913E-1,-2.648125E0,-1.09905E1],"split_indices":[1,1,0,2,1,0,0,7,1,0,0,0,0],"split_type":[0,0,0,0,0,0,0,0,0,0,0,0,0],"sum_hessian":[1.8E1,1.6E1,2E0,3E0,1.3E1,2E0,1E0,8E0,5E0,6E0,2E0,1E0,4E0],"tree_param":{"num_deleted":"0","num_feature":"20","num_nodes":"13","size_leaf_vector":"1"}},{"base_weights":[-1.5391211E1,-5.680656E2,1.582815E2,-2.0393047E1,-7.282703E1,4.53875E1,5.9319477E1,1.3138477E2,-7.734E0,1.2801875E1,8.976041E-1],"categories":[],"categories_nodes":[],"categories_segments":[],"categories_sizes":[],"default_left":[0,0,0,0,0,0,0,0,0,0,0],"id":35,"left_children":[1,3,5,-1,-1,-1,7,9,-1,-1,-1],"loss_changes":[2.0096035E6,3.0386012E5,6.140515E5,0E0,0E0,0E0,1.7008664E5,3.261811E4,0E0,0E0,0E0],"parents":[2147483647,0,0,1,1,2,2,6,6,7,7],"right_children":[2,4,6,-1,-1,-1,8,10,-1,-1,-1],"split_conditions":[2.9731643E4,3.3333334E-1,3.8333333E-1,-2.0393047E1,-7.282703E1,4.53875E1,1.3333334E-1,1.0360889E4,-7.734E0,1.2801875E1,8.976041E-1],"split_indices":[5,1,2,0,0,0,1,7,0,0,0],"split_type":[0,0,0,0,0,0,0,0,0,0,0],"sum_hessian":[1.9E1,4E0,1.5E1,3E0,1E0,2E0,1.3E1,9E0,4E0,7E0,2E0],"tree_param":{"num_deleted":"0","num_feature":"20","num_nodes":"11","size_leaf_vector":"1"}},{"base_weights":[-1.8562706E1,-5.412633E2,1.5690834E2,-1.9169374E1,-6.99139E1,4.2528125E2,2.065625E1,4.2966873E1,1.3737291E1,8.9992744E1,-8.05461E1,9.569375E0,8.4968746E-1,-2.4453124E-1,-7.9323435E0],"categories":[],"categories_nodes":[],"categories_segments":[],"categories_sizes":[],"default_left":[0,0,0,0,0,0,0,0,0,0,0,0,0,0,0],"id":36,"left_children":[1,3,5,-1,-1,7,9,-1,-1,11,13,-1,-1,-1,-1],"loss_changes":[1.8275862E6,2.9232162E5,5.397108E5,0E0,0E0,4.9522562E4,8.443574E4,0E0,0E0,1.5188918E4,6.906619E3,0E0,0E0,0E0,0E0],"parents":[2147483647,0,0,1,1,2,2,5,5,6,6,9,9,10,10],"right_children":[2,4,6,-1,-1,8,10,-1,-1,12,14,-1,-1,-1,-1],"split_conditions":[2.9731643E4,3.3333334E-1,8.3333336E-2,-1.9169374E1,-6.99139E1,3.8333333E-1,1.1666667E-1,4.2966873E1,1.3737291E1,1.0360889E4,1.3333334E-1,9.569375E0,8.4968746E-1,-2.4453124E-1,-7.9323435E0],"split_indices":[5,1,1,0,0,2,1,0,0,7,1,0,0,0,0],"split_type":[0,0,0,0,0,0,0,0,0,0,0,0,0,0,0],"sum_hessian":[1.8E1,4E0,1.4E1,3E0,1E0,4E0,1E1,2E0,2E0,6E0,4E0,4E0,2E0,1E0,3E0],"tree_param":{"num_deleted":"0","num_feature":"20","num_nodes":"15","size_leaf_vector":"1"}},{"base_weights":[-8.296875E-1,1.1502365E2,-6.9567316E2,4.0259845E2,4.1023993E0,-1.6363438E1,-6.711734E1,4.0675205E1,1.3004583E1,7.352127E1,-1.0070963E2,6.1510414E-1,7.298571E0,-1.9154687E0,-8.9019375E0],"categories":[],"categories_nodes":[],"categories_segments":[],"categories_sizes":[],"default_left":[0,0,0,0,0,0,0,0,0,0,0,0,0,0,0],"id":37,"left_children":[1,3,5,7,9,-1,-1,-1,-1,11,13,-1,-1,-1,-1],"loss_changes":[1.6900178E6,5.725152E5,3.952275E4,4.4381125E4,1.0926735E5,0E0,0E0,0E0,0E0,9.792086E3,2.201746E3,0E0,0E0,0E0,0E0],"parents":[2147483647,0,0,1,1,2,2,3,3,4,4,9,9,10,10],"right_children":[2,4,6,8,10,-1,-1,-1,-1,12,14,-1,-1,-1,-1],"split_conditions":[3E-1,8.3333336E-2,3.3333334E-1,3.8333333E-1,1.3333334E-1,-1.6363438E1,-6.711734E1,4.0675205E1,1.3004583E1,-1.876524E2,1.6666667E-1,6.1510414E-1,7.298571E0,-1.9154687E0,-8.9019375E0],"split_indices":[1,1,1,2,1,0,0,0,0,18,1,0,0,0,0],"split_type":[0,0,0,0,0,0,0,0,0,0,0,0,0,0,0],"sum_hessian":[1.9E1,1.7E1,2E0,4E0,1.3E1,1E0,1E0,2E0,2E0,8E0,5E0,2E0,6E0,1E0,4E0],"tree_param":{"num_deleted":"0","num_feature":"20","num_nodes":"15","size_leaf_vector":"1"}},{"base_weights":[-6.453277E1,5.2621826E1,-6.678464E2,2.2631575E2,-4.6904118E1,-1.5708906E1,-6.4432655E1,2.5632917E1,7.9332027E0,2.4864397E1,-1.1039938E1,5.358281E0,5.3458333E-1],"categories":[],"categories_nodes":[],"categories_segments":[],"categories_sizes":[],"default_left":[0,0,0,0,0,0,0,0,0,0,0,0,0],"id":38,"left_children":[1,3,5,7,9,-1,-1,-1,-1,11,-1,-1,-1],"loss_changes":[1.3074005E6,2.8720797E5,3.6424E4,4.0012406E4,7.5346625E4,0E0,0E0,0E0,0E0,4.9124937E3,0E0,0E0,0E0],"parents":[2147483647,0,0,1,1,2,2,3,3,4,4,9,9],"right_children":[2,4,6,8,10,-1,-1,-1,-1,12,-1,-1,-1],"split_conditions":[3E-1,1E-1,3.3333334E-1,8.3333336E-2,1.6666667E-1,-1.5708906E1,-6.4432655E1,2.5632917E1,7.9332027E0,1.4976E4,-1.1039938E1,5.358281E0,5.3458333E-1],"split_indices":[1,1,1,1,1,0,0,0,0,8,0,0,0],"split_type":[0,0,0,0,0,0,0,0,0,0,0,0,0],"sum_hessian":[1.7E1,1.5E1,2E0,5E0,1E1,1E0,1E0,2E0,3E0,6E0,4E0,1E0,5E0],"tree_param":{"num_deleted":"0","num_feature":"20","num_nodes":"13","size_leaf_vector":"1"}},{"base_weights":[-1.647909E1,1.6117308E2,-4.7507892E2,3.713875E1,6.3867897E1,-1.6580235E1,-6.1855312E1,1.1315625E2,-5.067578E1,1.0421205E1,-2.6421875E-1,-2.80625E-1,-5.2183332E0],"categories":[],"categories_nodes":[],"categories_segments":[],"categories_sizes":[],"default_left":[0,0,0,0,0,0,0,0,0,0,0,0,0],"id":39,"left_children":[1,3,5,-1,7,-1,-1,9,11,-1,-1,-1,-1],"loss_changes":[1.4615811E6,3.53713E5,2.3896525E5,0E0,6.783664E4,0E0,0E0,1.6370031E4,2.517002E3,0E0,0E0,0E0,0E0],"parents":[2147483647,0,0,1,1,2,2,4,4,7,7,8,8],"right_children":[2,4,6,-1,8,-1,-1,10,12,-1,-1,-1,-1],"split_conditions":[-2.5E-1,3.8333333E-1,5.1666665E-1,3.713875E1,-3.5E-1,-1.6580235E1,-6.1855312E1,1.0360889E4,-3.1666666E-1,1.0421205E1,-2.6421875E-1,-2.80625E-1,-5.2183332E0],"split_indices":[3,2,2,0,3,0,0,7,3,0,0,0,0],"split_type":[0,0,0,0,0,0,0,0,0,0,0,0,0],"sum_hessian":[1.6E1,1.2E1,4E0,2E0,1E1,3E0,1E0,7E0,3E0,6E0,1E0,1E0,2E0],"tree_param":{"num_deleted":"0","num_feature":"20","num_nodes":"13","size_leaf_vector":"1"}},{"base_weights":[-1.587314E1,7.955921E1,-6.14987E2,3.415953E2,-1.3090104E1,-1.4417343E1,-5.9381092E1,3.5157917E1,1.0388124E1,6.1082466E1,-1.0658482E2,5.6885415E-1,6.0389733E0,-3.0029166E0,-1.013575E1],"categories":[],"categories_nodes":[],"categories_segments":[],"categories_sizes":[],"default_left":[0,0,0,0,0,0,0,0,0,0,0,0,0,0,0],"id":40,"left_children":[1,3,5,7,9,-1,-1,-1,-1,11,13,-1,-1,-1,-1],"loss_changes":[1.2495995E6,4.6574338E5,3.2240125E4,4.6559562E4,1.1053161E5,0E0,0E0,0E0,0E0,6.460258E3,4.9651875E3,0E0,0E0,0E0,0E0],"parents":[2147483647,0,0,1,1,2,2,3,3,4,4,9,9,10,10],"right_children":[2,4,6,8,10,-1,-1,-1,-1,12,14,-1,-1,-1,-1],"split_conditions":[3E-1,8.3333336E-2,3.3333334E-1,3.8333333E-1,1.3333334E-1,-1.4417343E1,-5.9381092E1,3.5157917E1,1.0388124E1,-1.876524E2,1.8333334E-1,5.6885415E-1,6.0389733E0,-3.0029166E0,-1.013575E1],"split_indices":[1,1,1,2,1,0,0,0,0,18,1,0,0,0,0],"split_type":[0,0,0,0,0,0,0,0,0,0,0,0,0,0,0],"sum_hessian":[2E1,1.8E1,2E0,4E0,1.4E1,1E0,1E0,2E0,2E0,8E0,6E0,2E0,6E0,2E0,4E0],"tree_param":{"num_deleted":"0","num_feature":"20","num_nodes":"15","size_leaf_vector":"1"}},{"base_weights":[-3.9888673E0,9.396571E1,-5.903867E2,3.3282917E1,2.770459E1,-1.3840625E1,-5.700578E1,8.01044E1,-7.2979164E1,9.230104E0,2.5185416E0,-1.5314062E0,-6.3934374E0],"categories":[],"categories_nodes":[],"categories_segments":[],"categories_sizes":[],"default_left":[0,0,0,0,0,0,0,0,0,0,0,0,0],"id":41,"left_children":[1,3,5,-1,7,-1,-1,9,11,-1,-1,-1,-1],"loss_changes":[1.2042831E6,3.726077E5,2.9712438E4,0E0,9.025891E4,0E0,0E0,1.5232891E4,7.1153516E2,0E0,0E0,0E0,0E0],"parents":[2147483647,0,0,1,1,2,2,4,4,7,7,8,8],"right_children":[2,4,6,-1,8,-1,-1,10,12,-1,-1,-1,-1],"split_conditions":[3E-1,3.8333333E-1,3.3333334E-1,3.3282917E1,1.3333334E-1,-1.3840625E1,-5.700578E1,1E-1,1.6666667E-1,9.230104E0,2.5185416E0,-1.5314062E0,-6.3934374E0],"split_indices":[1,2,1,0,1,0,0,1,1,0,0,0,0],"split_type":[0,0,0,0,0,0,0,0,0,0,0,0,0],"sum_hessian":[1.9E1,1.7E1,2E0,2E0,1.5E1,1E0,1E0,1E1,5E0,5E0,5E0,1E0,4E0],"tree_param":{"num_deleted":"0","num_feature":"20","num_nodes":"13","size_leaf_vector":"1"}},{"base_weights":[-1.725744E1,7.041632E1,-5.6677216E2,3.0637344E2,-1.2930469E1,-1.3287031E1,-5.4725624E1,3.1507917E1,9.341875E0,5.2453125E1,-9.514788E1,5.2799997E0,2.6874998E-1,-2.631354E0,-9.07775E0],"categories":[],"categories_nodes":[],"categories_segments":[],"categories_sizes":[],"default_left":[0,0,0,0,0,0,0,0,0,0,0,0,0,0,0],"id":42,"left_children":[1,3,5,7,9,-1,-1,-1,-1,11,13,-1,-1,-1,-1],"loss_changes":[1.0516485E6,3.7762066E5,2.738275E4,3.6935688E4,8.562586E4,0E0,0E0,0E0,0E0,5.763883E3,4.253133E3,0E0,0E0,0E0,0E0],"parents":[2147483647,0,0,1,1,2,2,3,3,4,4,9,9,10,10],"right_children":[2,4,6,8,10,-1,-1,-1,-1,12,14,-1,-1,-1,-1],"split_conditions":[3E-1,8.3333336E-2,3.3333334E-1,3.8333333E-1,1.3333334E-1,-1.3287031E1,-5.4725624E1,3.1507917E1,9.341875E0,1.0360889E4,1.8333334E-1,5.2799997E0,2.6874998E-1,-2.631354E0,-9.07775E0],"split_indices":[1,1,1,2,1,0,0,0,0,7,1,0,0,0,0],"split_type":[0,0,0,0,0,0,0,0,0,0,0,0,0,0,0],"sum_hessian":[2E1,1.8E1,2E0,4E0,1.4E1,1E0,1E0,2E0,2E0,8E0,6E0,6E0,2E0,2E0,4E0],"tree_param":{"num_deleted":"0","num_feature":"20","num_nodes":"15","size_leaf_vector":"1"}},{"base_weights":[-2.77169E1,6.5040215E1,-5.4410156E2,2.900328E2,-2.6498497E1,-1.2755625E1,-5.253656E1,2.98275E1,8.843542E0,3.999665E1,-8.9208145E1,-1.11328125E-1,5.7108593E0,-2.4909375E0,-8.49675E0],"categories":[],"categories_nodes":[],"categories_segments":[],"categories_sizes":[],"default_left":[0,0,0,0,0,0,0,0,0,0,0,0,0,0,0],"id":43,"left_children":[1,3,5,7,9,-1,-1,-1,-1,11,13,-1,-1,-1,-1],"loss_changes":[9.4545706E5,3.5780947E5,2.5234375E4,3.3102312E4,5.7776566E4,0E0,0E0,0E0,0E0,9.193318E3,3.6039844E3,0E0,0E0,0E0,0E0],"parents":[2147483647,0,0,1,1,2,2,3,3,4,4,9,9,10,10],"right_children":[2,4,6,8,10,-1,-1,-1,-1,12,14,-1,-1,-1,-1],"split_conditions":[3E-1,8.3333336E-2,3.3333334E-1,3.8333333E-1,1.3333334E-1,-1.2755625E1,-5.253656E1,2.98275E1,8.843542E0,-9.689633E1,1.8333334E-1,-1.11328125E-1,5.7108593E0,-2.4909375E0,-8.49675E0],"split_indices":[1,1,1,2,1,0,0,0,0,18,1,0,0,0,0],"split_type":[0,0,0,0,0,0,0,0,0,0,0,0,0,0,0],"sum_hessian":[1.8E1,1.6E1,2E0,4E0,1.2E1,1E0,1E0,2E0,2E0,6E0,6E0,3E0,3E0,2E0,4E0],"tree_param":{"num_deleted":"0","num_feature":"20","num_nodes":"15","size_leaf_vector":"1"}},{"base_weights":[-1.527207E1,7.0087456E1,-5.2233856E2,2.7456406E2,-7.9461493E0,-1.2245468E1,-5.0435154E1,2.8236668E1,8.371875E0,4.6382812E1,-8.8115234E1,2.61875E-1,4.6585712E0,-1.2651563E0,-7.9529996E0],"categories":[],"categories_nodes":[],"categories_segments":[],"categories_sizes":[],"default_left":[0,0,0,0,0,0,0,0,0,0,0,0,0,0,0],"id":44,"left_children":[1,3,5,7,9,-1,-1,-1,-1,11,13,-1,-1,-1,-1],"loss_changes":[9.022685E5,2.8939056E5,2.3254938E4,2.96655E4,6.506408E4,0E0,0E0,0E0,0E0,4.4067344E3,3.3286562E3,0E0,0E0,0E0,0E0],"parents":[2147483647,0,0,1,1,2,2,3,3,4,4,9,9,10,10],"right_children":[2,4,6,8,10,-1,-1,-1,-1,12,14,-1,-1,-1,-1],"split_conditions":[-2E-1,4.3333334E-1,5.1666665E-1,3.8333333E-1,-3E-1,-1.2245468E1,-5.0435154E1,2.8236668E1,8.371875E0,-1.876524E2,4.5E-1,2.61875E-1,4.6585712E0,-1.2651563E0,-7.9529996E0],"split_indices":[3,2,2,2,3,0,0,0,0,18,2,0,0,0,0],"split_type":[0,0,0,0,0,0,0,0,0,0,0,0,0,0,0],"sum_hessian":[1.9E1,1.7E1,2E0,4E0,1.3E1,1E0,1E0,2E0,2E0,8E0,5E0,2E0,6E0,1E0,4E0],"tree_param":{"num_deleted":"0","num_feature":"20","num_nodes":"15","size_leaf_vector":"1"}},{"base_weights":[-1.7153831E1,6.0216076E1,-5.014453E2,2.5992032E2,-1.0366406E1,-1.1755625E1,-4.8417812E1,2.6730625E1,7.9254165E0,4.321788E1,-7.777958E1,4.39E0,1.2895833E-1,-2.1121874E0,-7.4440002E0],"categories":[],"categories_nodes":[],"categories_segments":[],"categories_sizes":[],"default_left":[0,0,0,0,0,0,0,0,0,0,0,0,0,0,0],"id":45,"left_children":[1,3,5,7,9,-1,-1,-1,-1,11,13,-1,-1,-1,-1],"loss_changes":[8.1705644E5,2.7051125E5,2.1432625E4,2.6584594E4,5.7545766E4,0E0,0E0,0E0,0E0,4.276586E3,3.035125E3,0E0,0E0,0E0,0E0],"parents":[2147483647,0,0,1,1,2,2,3,3,4,4,9,9,10,10],"right_children":[2,4,6,8,10,-1,-1,-1,-1,12,14,-1,-1,-1,-1],"split_conditions":[3E-1,8.3333336E-2,3.3333334E-1,3.8333333E-1,1.3333334E-1,-1.1755625E1,-4.8417812E1,2.6730625E1,7.9254165E0,1.0360889E4,1.8333334E-1,4.39E0,1.2895833E-1,-2.1121874E0,-7.4440002E0],"split_indices":[1,1,1,2,1,0,0,0,0,7,1,0,0,0,0],"split_type":[0,0,0,0,0,0,0,0,0,0,0,0,0,0,0],"sum_hessian":[2E1,1.8E1,2E0,4E0,1.4E1,1E0,1E0,2E0,2E0,8E0,6E0,6E0,2E0,2E0,4E0],"tree_param":{"num_deleted":"0","num_feature":"20","num_nodes":"15","size_leaf_vector":"1"}},{"base_weights":[-1.4868216E1,-4.1661523E2,8.64978E1,-1.3451562E1,-4.6481094E1,2.5305E1,3.1073381E1,5.8519176E1,-4.1736717E0,6.9710417E0,1.6117707E0],"categories":[],"categories_nodes":[],"categories_segments":[],"categories_sizes":[],"default_left":[0,0,0,0,0,0,0,0,0,0,0],"id":46,"left_children":[1,3,5,-1,-1,-1,7,9,-1,-1,-1],"loss_changes":[8.0978275E5,6.56985E4,1.9396864E5,0E0,0E0,0E0,3.5038875E4,1.0324215E4,0E0,0E0,0E0],"parents":[2147483647,0,0,1,1,2,2,6,6,7,7],"right_children":[2,4,6,-1,-1,-1,8,10,-1,-1,-1],"split_conditions":[2.0675482E4,3.3333334E-1,3.8333333E-1,-1.3451562E1,-4.6481094E1,2.5305E1,1.3333334E-1,1E-1,-4.1736717E0,6.9710417E0,1.6117707E0],"split_indices":[9,1,2,0,0,0,1,1,0,0,0],"split_type":[0,0,0,0,0,0,0,0,0,0,0],"sum_hessian":[1.8E1,3E0,1.5E1,2E0,1E0,2E0,1.3E1,1E1,3E0,5E0,5E0],"tree_param":{"num_deleted":"0","num_feature":"20","num_nodes":"11","size_leaf_vector":"1"}},{"base_weights":[-1.8458471E1,6.0795265E1,-4.6141016E2,2.3314688E2,-1.0170373E1,-1.0747343E1,-4.4621876E1,2.3955418E1,7.130833E0,3.8820312E1,-7.379623E1,3.7945535E0,-8.584375E-1,-8.058645E0,-2.8115625E0],"categories":[],"categories_nodes":[],"categories_segments":[],"categories_sizes":[],"default_left":[0,0,0,0,0,0,0,0,0,0,0,0,0,0,0],"id":47,"left_children":[1,3,5,7,9,-1,-1,-1,-1,11,13,-1,-1,-1,-1],"loss_changes":[6.9505756E5,2.102989E5,1.9619875E4,2.1045875E4,4.3386754E4,0E0,0E0,0E0,0E0,3.922662E3,2.706711E3,0E0,0E0,0E0,0E0],"parents":[2147483647,0,0,1,1,2,2,3,3,4,4,9,9,10,10],"right_children":[2,4,6,8,10,-1,-1,-1,-1,12,14,-1,-1,-1,-1],"split_conditions":[3E-1,8.3333336E-2,3.3333334E-1,3.8333333E-1,1.3333334E-1,-1.0747343E1,-4.4621876E1,2.3955418E1,7.130833E0,1.0360889E4,2.9534773E4,3.7945535E0,-8.584375E-1,-8.058645E0,-2.8115625E0],"split_indices":[1,1,1,2,1,0,0,0,0,7,5,0,0,0,0],"split_type":[0,0,0,0,0,0,0,0,0,0,0,0,0,0,0],"sum_hessian":[1.8E1,1.6E1,2E0,4E0,1.2E1,1E0,1E0,2E0,2E0,7E0,5E0,6E0,1E0,2E0,3E0],"tree_param":{"num_deleted":"0","num_feature":"20","num_nodes":"15","size_leaf_vector":"1"}},{"base_weights":[-1.7956415E1,-3.824121E2,7.4279785E1,-1.2232603E1,-4.283703E1,2.2677708E1,2.4147322E1,6.573682E1,-2.6833147E1,6.164375E0,1.6951041E0,5.255208E-1,-3.3206248E0],"categories":[],"categories_nodes":[],"categories_segments":[],"categories_sizes":[],"default_left":[0,0,0,0,0,0,0,0,0,0,0,0,0],"id":48,"left_children":[1,3,5,-1,-1,-1,7,9,11,-1,-1,-1,-1],"loss_changes":[6.671096E5,5.8627062E4,1.6095153E5,0E0,0E0,0E0,3.1447453E4,2.4008125E3,3.7038237E3,0E0,0E0,0E0,0E0],"parents":[2147483647,0,0,1,1,2,2,6,6,7,7,8,8],"right_children":[2,4,6,-1,-1,-1,8,10,12,-1,-1,-1,-1],"split_conditions":[2.0675482E4,3.3333334E-1,3.8333333E-1,-1.2232603E1,-4.283703E1,2.2677708E1,1.1666667E-1,1E-1,4.5E-1,6.164375E0,1.6951041E0,5.255208E-1,-3.3206248E0],"split_indices":[9,1,2,0,0,0,1,1,2,0,0,0,0],"split_type":[0,0,0,0,0,0,0,0,0,0,0,0,0],"sum_hessian":[1.8E1,3E0,1.5E1,2E0,1E0,2E0,1.3E1,7E0,6E0,5E0,2E0,2E0,4E0],"tree_param":{"num_deleted":"0","num_feature":"20","num_nodes":"13","size_leaf_vector":"1"}},{"base_weights":[-1.4906456E1,5.826884E1,-4.2459766E2,1.6283301E2,-3.1209375E1,-9.828125E0,-4.1123592E1,2.1468332E1,6.6346874E0,-7.214062E0,-5.195801E0,-1.925875E0,1.5760156E0],"categories":[],"categories_nodes":[],"categories_segments":[],"categories_sizes":[],"default_left":[0,0,0,0,0,0,0,0,0,0,0,0,0],"id":49,"left_children":[1,3,5,7,9,-1,-1,-1,-1,-1,11,-1,-1],"loss_changes":[5.94347E5,1.6413756E5,1.7819875E4,4.5193062E4,1.4870735E4,0E0,0E0,0E0,0E0,0E0,4.234072E3,0E0,0E0],"parents":[2147483647,0,0,1,1,2,2,3,3,4,4,10,10],"right_children":[2,4,6,8,10,-1,-1,-1,-1,-1,12,-1,-1],"split_conditions":[3E-1,4.9894883E4,3.3333334E-1,3.8333333E-1,2.9534773E4,-9.828125E0,-4.1123592E1,2.1468332E1,6.6346874E0,-7.214062E0,3.1569385E4,-1.925875E0,1.5760156E0],"split_indices":[1,11,1,2,5,0,0,0,0,0,5,0,0],"split_type":[0,0,0,0,0,0,0,0,0,0,0,0,0],"sum_hessian":[1.8E1,1.6E1,2E0,7E0,9E0,1E0,1E0,2E0,5E0,2E0,7E0,4E0,3E0],"tree_param":{"num_deleted":"0","num_feature":"20","num_nodes":"13","size_leaf_vector":"1"}},{"base_weights":[-4.7273666E1,-3.5104395E2,4.289453E1,-1.1125625E1,-3.9478592E1,1.3420208E1,8.105469E0,2.913585E1,-3.2991405E0,2.9115233E0,-1.1571875E0],"categories":[],"categories_nodes":[],"categories_segments":[],"categories_sizes":[],"default_left":[0,0,0,0,0,0,0,0,0,0,0],"id":50,"left_children":[1,3,5,-1,-1,-1,7,9,-1,-1,-1],"loss_changes":[4.8069497E5,5.2144094E4,5.9452016E4,0E0,0E0,0E0,1.3654401E4,3.3745947E3,0E0,0E0,0E0],"parents":[2147483647,0,0,1,1,2,2,6,6,7,7],"right_children":[2,4,6,-1,-1,-1,8,10,-1,-1,-1],"split_conditions":[2.0675482E4,3.3333334E-1,8.3333336E-2,-1.1125625E1,-3.9478592E1,1.3420208E1,1.3333334E-1,1.0385655E4,-3.2991405E0,2.9115233E0,-1.1571875E0],"split_indices":[9,1,1,0,0,0,1,7,0,0,0],"split_type":[0,0,0,0,0,0,0,0,0,0,0],"sum_hessian":[1.6E1,3E0,1.3E1,2E0,1E0,2E0,1.1E1,8E0,3E0,7E0,1E0],"tree_param":{"num_deleted":"0","num_feature":"20","num_nodes":"11","size_leaf_vector":"1"}},{"base_weights":[-3.506923E1,4.741328E1,-3.3561133E2,6.3561788E0,1.2825626E2,-1.0532291E1,-3.7899376E1,4.1779297E1,-1.2149902E1,1.4705625E1,5.472812E0,4.139271E0,4.7578123E-1,-1.5218302E0,1.4384375E0],"categories":[],"categories_nodes":[],"categories_segments":[],"categories_sizes":[],"default_left":[0,0,0,0,0,0,0,0,0,0,0,0,0,0,0],"id":51,"left_children":[1,3,5,7,9,-1,-1,11,13,-1,-1,-1,-1,-1,-1],"loss_changes":[4.621228E5,4.8972453E4,5.032153E4,7.7185884E3,4.0512812E3,0E0,0E0,1.1200586E3,1.998723E3,0E0,0E0,0E0,0E0,0E0,0E0],"parents":[2147483647,0,0,1,1,2,2,3,3,4,4,7,7,8,8],"right_children":[2,4,6,8,10,-1,-1,12,14,-1,-1,-1,-1,-1,-1],"split_conditions":[-2.5E-1,3.367525E4,5.1666665E-1,-3.8333333E-1,3.8333333E-1,-1.0532291E1,-3.7899376E1,2.1694666E4,5.6405113E4,1.4705625E1,5.472812E0,4.139271E0,4.7578123E-1,-1.5218302E0,1.4384375E0],"split_indices":[3,5,2,3,2,0,0,9,11,0,0,0,0,0,0],"split_type":[0,0,0,0,0,0,0,0,0,0,0,0,0,0,0],"sum_hessian":[1.7E1,1.4E1,3E0,1E1,4E0,2E0,1E0,3E0,7E0,1E0,3E0,2E0,1E0,6E0,1E0],"tree_param":{"num_deleted":"0","num_feature":"20","num_nodes":"15","size_leaf_vector":"1"}},{"base_weights":[-1.32113285E1,4.775434E1,-3.7460156E2,1.8823124E1,9.606934E0,-8.568749E0,-3.638344E1,3.8334164E1,-4.466081E1,4.6416664E0,9.8067707E-1,-5.882917E0,-9.4710934E-1],"categories":[],"categories_nodes":[],"categories_segments":[],"categories_sizes":[],"default_left":[0,0,0,0,0,0,0,0,0,0,0,0,0],"id":52,"left_children":[1,3,5,-1,7,-1,-1,9,11,-1,-1,-1,-1],"loss_changes":[4.585368E5,1.2651093E5,1.5639125E4,0E0,2.6655422E4,0E0,0E0,4.935533E3,4.8159404E3,0E0,0E0,0E0,0E0],"parents":[2147483647,0,0,1,1,2,2,4,4,7,7,8,8],"right_children":[2,4,6,-1,8,-1,-1,10,12,-1,-1,-1,-1],"split_conditions":[3E-1,3.8333333E-1,3.3333334E-1,1.8823124E1,1.3333334E-1,-8.568749E0,-3.638344E1,1E-1,2.9534773E4,4.6416664E0,9.8067707E-1,-5.882917E0,-9.4710934E-1],"split_indices":[1,2,1,0,1,0,0,1,5,0,0,0,0],"split_type":[0,0,0,0,0,0,0,0,0,0,0,0,0],"sum_hessian":[1.9E1,1.7E1,2E0,2E0,1.5E1,1E0,1E0,1E1,5E0,5E0,5E0,2E0,3E0],"tree_param":{"num_deleted":"0","num_feature":"20","num_nodes":"13","size_leaf_vector":"1"}},{"base_weights":[-1.508817E1,4.0105263E1,-3.596172E2,1.7819166E1,5.5165443E0,-8.225937E0,-3.4928123E1,3.5779118E1,-4.2827007E1,4.0844646E0,5.78875E-1,-5.5691667E0,-1.455125E0],"categories":[],"categories_nodes":[],"categories_segments":[],"categories_sizes":[],"default_left":[0,0,0,0,0,0,0,0,0,0,0,0,0],"id":53,"left_children":[1,3,5,-1,7,-1,-1,9,11,-1,-1,-1,-1],"loss_changes":[4.137531E5,1.187959E5,1.4413906E4,0E0,2.640332E4,0E0,0E0,4.4270605E3,3.353711E3,0E0,0E0,0E0,0E0],"parents":[2147483647,0,0,1,1,2,2,4,4,7,7,8,8],"right_children":[2,4,6,-1,8,-1,-1,10,12,-1,-1,-1,-1],"split_conditions":[3E-1,3.8333333E-1,3.3333334E-1,1.7819166E1,1.3333334E-1,-8.225937E0,-3.4928123E1,4.9894883E4,2.9534773E4,4.0844646E0,5.78875E-1,-5.5691667E0,-1.455125E0],"split_indices":[1,2,1,0,1,0,0,11,5,0,0,0,0],"split_type":[0,0,0,0,0,0,0,0,0,0,0,0,0],"sum_hessian":[2E1,1.8E1,2E0,2E0,1.6E1,1E0,1E0,1E1,6E0,6E0,4E0,2E0,4E0],"tree_param":{"num_deleted":"0","num_feature":"20","num_nodes":"13","size_leaf_vector":"1"}},{"base_weights":[-1.6269726E1,3.9461155E1,-3.4523178E2,1.686875E1,4.857666E0,-7.896875E0,-3.3530937E1,3.60543E1,-4.04029E1,4.8288126E0,7.832291E-1,-5.272083E0,-1.3618749E0],"categories":[],"categories_nodes":[],"categories_segments":[],"categories_sizes":[],"default_left":[0,0,0,0,0,0,0,0,0,0,0,0,0],"id":54,"left_children":[1,3,5,-1,7,-1,-1,9,11,-1,-1,-1,-1],"loss_changes":[3.802901E5,1.0573329E5,1.3283969E4,0E0,2.4048332E4,0E0,0E0,5.7927266E3,3.0510693E3,0E0,0E0,0E0,0E0],"parents":[2147483647,0,0,1,1,2,2,4,4,7,7,8,8],"right_children":[2,4,6,-1,8,-1,-1,10,12,-1,-1,-1,-1],"split_conditions":[3E-1,7.579826E3,3.3333334E-1,1.686875E1,1.3333334E-1,-7.896875E0,-3.3530937E1,1E-1,2.9534773E4,4.8288126E0,7.832291E-1,-5.272083E0,-1.3618749E0],"split_indices":[1,7,1,0,1,0,0,1,5,0,0,0,0],"split_type":[0,0,0,0,0,0,0,0,0,0,0,0,0],"sum_hessian":[1.9E1,1.7E1,2E0,2E0,1.5E1,1E0,1E0,9E0,6E0,4E0,5E0,2E0,4E0],"tree_param":{"num_deleted":"0","num_feature":"20","num_nodes":"13","size_leaf_vector":"1"}},{"base_weights":[-4.483134E1,-2.843047E2,2.6791853E1,-8.866042E0,-3.2189686E1,1.0377812E1,-1.1735026E0,3.0300781E1,-1.5031684E1,3.1955209E0,5.484375E-2,5.573958E-1,-1.785E0],"categories":[],"categories_nodes":[],"categories_segments":[],"categories_sizes":[],"default_left":[0,0,0,0,0,0,0,0,0,0,0,0,0],"id":55,"left_children":[1,3,5,-1,-1,-1,7,9,11,-1,-1,-1,-1],"loss_changes":[2.9919844E5,3.733525E4,4.045118E4,0E0,0E0,0E0,5.689588E3,1.1149624E3,1.5970057E3,0E0,0E0,0E0,0E0],"parents":[2147483647,0,0,1,1,2,2,6,6,7,7,8,8],"right_children":[2,4,6,-1,-1,-1,8,10,12,-1,-1,-1,-1],"split_conditions":[2.0675482E4,3.3333334E-1,8.3333336E-2,-8.866042E0,-3.2189686E1,1.0377812E1,1E-1,2.1694666E4,4.5E-1,3.1955209E0,5.484375E-2,5.573958E-1,-1.785E0],"split_indices":[9,1,1,0,0,0,1,9,2,0,0,0,0],"split_type":[0,0,0,0,0,0,0,0,0,0,0,0,0],"sum_hessian":[1.6E1,3E0,1.3E1,2E0,1E0,2E0,1.1E1,3E0,8E0,2E0,1E0,2E0,6E0],"tree_param":{"num_deleted":"0","num_feature":"20","num_nodes":"13","size_leaf_vector":"1"}},{"base_weights":[-1.57425785E1,-2.7182324E2,4.543773E1,-8.393125E0,-3.090203E1,1.5415625E1,1.2957031E1,4.1202007E1,-1.0450954E1,4.2497396E0,-1.2126563E0,4.7425E-1,-1.9791874E0],"categories":[],"categories_nodes":[],"categories_segments":[],"categories_sizes":[],"default_left":[0,0,0,0,0,0,0,0,0,0,0,0,0],"id":56,"left_children":[1,3,5,-1,-1,-1,7,9,11,-1,-1,-1,-1],"loss_changes":[3.2569294E5,3.588672E4,7.8814734E4,0E0,0E0,0E0,1.0347972E4,5.5078213E3,2.2530105E3,0E0,0E0,0E0,0E0],"parents":[2147483647,0,0,1,1,2,2,6,6,7,7,8,8],"right_children":[2,4,6,-1,-1,-1,8,10,12,-1,-1,-1,-1],"split_conditions":[2.0675482E4,3.3333334E-1,3.8333333E-1,-8.393125E0,-3.090203E1,1.5415625E1,4.9894883E4,1.0360889E4,1.3333334E-1,4.2497396E0,-1.2126563E0,4.7425E-1,-1.9791874E0],"split_indices":[9,1,2,0,0,0,11,7,1,0,0,0,0],"split_type":[0,0,0,0,0,0,0,0,0,0,0,0,0],"sum_hessian":[1.9E1,3E0,1.6E1,2E0,1E0,2E0,1.4E1,6E0,8E0,5E0,1E0,4E0,4E0],"tree_param":{"num_deleted":"0","num_feature":"20","num_nodes":"13","size_leaf_vector":"1"}},{"base_weights":[-2.9714638E1,2.0548943E1,-3.0463672E2,8.5328125E1,-1.355306E1,-6.8904686E0,-2.9665937E1,3.8134375E0,1.0945156E1,-4.865918E1,3.5555556E0,-1.1642188E0,-4.4141665E0,1.4391667E0,-1.51875E0],"categories":[],"categories_nodes":[],"categories_segments":[],"categories_sizes":[],"default_left":[0,0,0,0,0,0,0,0,0,0,0,0,0,0,0],"id":57,"left_children":[1,3,5,7,9,-1,-1,-1,-1,11,13,-1,-1,-1,-1],"loss_changes":[2.6881275E5,3.8711156E4,1.1447656E4,5.1122344E3,7.380415E3,0E0,0E0,0E0,0E0,8.623242E1,3.2695986E3,0E0,0E0,0E0,0E0],"parents":[2147483647,0,0,1,1,2,2,3,3,4,4,9,9,10,10],"right_children":[2,4,6,8,10,-1,-1,-1,-1,12,14,-1,-1,-1,-1],"split_conditions":[3E-1,1E-1,3.3333334E-1,-3.6666667E-1,5.1716215E4,-6.8904686E0,-2.9665937E1,3.8134375E0,1.0945156E1,1.1666667E-1,6.181488E2,-1.1642188E0,-4.4141665E0,1.4391667E0,-1.51875E0],"split_indices":[1,1,1,3,12,0,0,0,0,1,18,0,0,0,0],"split_type":[0,0,0,0,0,0,0,0,0,0,0,0,0,0,0],"sum_hessian":[1.8E1,1.6E1,2E0,5E0,1.1E1,1E0,1E0,4E0,1E0,3E0,8E0,1E0,2E0,5E0,3E0],"tree_param":{"num_deleted":"0","num_feature":"20","num_nodes":"15","size_leaf_vector":"1"}},{"base_weights":[-1.3673363E1,3.106394E1,-2.924518E2,1.4009791E1,3.814568E0,-6.6148434E0,-2.8479374E1,2.4770597E1,-2.9661272E1,8.9E-1,3.669531E0,-4.271875E0,-7.5893754E-1],"categories":[],"categories_nodes":[],"categories_segments":[],"categories_sizes":[],"default_left":[0,0,0,0,0,0,0,0,0,0,0,0,0],"id":58,"left_children":[1,3,5,-1,7,-1,-1,9,11,-1,-1,-1,-1],"loss_changes":[2.709924E5,7.391653E4,1.0550484E4,0E0,1.2660578E4,0E0,0E0,2.6566304E3,2.8456313E3,0E0,0E0,0E0,0E0],"parents":[2147483647,0,0,1,1,2,2,4,4,7,7,8,8],"right_children":[2,4,6,-1,8,-1,-1,10,12,-1,-1,-1,-1],"split_conditions":[3E-1,3.8333333E-1,3.3333334E-1,1.4009791E1,1.3333334E-1,-6.6148434E0,-2.8479374E1,3.367525E4,2.9534773E4,8.9E-1,3.669531E0,-4.271875E0,-7.5893754E-1],"split_indices":[1,2,1,0,1,0,0,5,5,0,0,0,0],"split_type":[0,0,0,0,0,0,0,0,0,0,0,0,0],"sum_hessian":[2E1,1.8E1,2E0,2E0,1.6E1,1E0,1E0,1E1,6E0,7E0,3E0,2E0,4E0],"tree_param":{"num_deleted":"0","num_feature":"20","num_nodes":"13","size_leaf_vector":"1"}},{"base_weights":[-1.2553125E1,3.2844402E1,-2.807539E2,1.32625E1,5.865967E0,-6.350312E0,-2.7340157E1,-4.043958E0,1.7535994E1,2.7334375E0,6.3281246E-2],"categories":[],"categories_nodes":[],"categories_segments":[],"categories_sizes":[],"default_left":[0,0,0,0,0,0,0,0,0,0,0],"id":59,"left_children":[1,3,5,-1,7,-1,-1,-1,9,-1,-1],"loss_changes":[2.5273422E5,6.3583242E4,9.722547E3,0E0,1.1420352E4,0E0,0E0,0E0,3.872002E3,0E0,0E0],"parents":[2147483647,0,0,1,1,2,2,4,4,8,8],"right_children":[2,4,6,-1,8,-1,-1,-1,10,-1,-1],"split_conditions":[3E-1,3.8333333E-1,3.3333334E-1,1.32625E1,2.9534773E4,-6.350312E0,-2.7340157E1,-4.043958E0,4.9894883E4,2.7334375E0,6.3281246E-2],"split_indices":[1,2,1,0,5,0,0,0,11,0,0],"split_type":[0,0,0,0,0,0,0,0,0,0,0],"sum_hessian":[1.9E1,1.7E1,2E0,2E0,1.5E1,1E0,1E0,2E0,1.3E1,6E0,7E0],"tree_param":{"num_deleted":"0","num_feature":"20","num_nodes":"11","size_leaf_vector":"1"}},{"base_weights":[-1.6214844E1,-2.3038281E2,3.8340576E1,-7.076458E0,-2.6246561E1,1.2555208E1,1.0187779E1,3.3185547E1,-6.2760415E0,3.2485626E0,-1.56875E-1,-1.3166667E0,8.453125E-1],"categories":[],"categories_nodes":[],"categories_segments":[],"categories_sizes":[],"default_left":[0,0,0,0,0,0,0,0,0,0,0,0,0],"id":60,"left_children":[1,3,5,-1,-1,-1,7,9,11,-1,-1,-1,-1],"loss_changes":[2.3082947E5,2.6443922E4,5.182366E4,0E0,0E0,0E0,5.50911E3,1.6446616E3,1.7173579E3,0E0,0E0,0E0,0E0],"parents":[2147483647,0,0,1,1,2,2,6,6,7,7,8,8],"right_children":[2,4,6,-1,-1,-1,8,10,12,-1,-1,-1,-1],"split_conditions":[2.9731643E4,3.3333334E-1,3.8333333E-1,-7.076458E0,-2.6246561E1,1.2555208E1,1E-1,4.9894883E4,5.2029254E4,3.2485626E0,-1.56875E-1,-1.3166667E0,8.453125E-1],"split_indices":[5,1,2,0,0,0,1,11,12,0,0,0,0],"split_type":[0,0,0,0,0,0,0,0,0,0,0,0,0],"sum_hessian":[1.8E1,3E0,1.5E1,2E0,1E0,2E0,1.3E1,5E0,8E0,4E0,1E0,5E0,3E0],"tree_param":{"num_deleted":"0","num_feature":"20","num_nodes":"13","size_leaf_vector":"1"}},{"base_weights":[-1.6255274E1,2.5007812E1,-2.5841537E2,1.1885625E1,2.7685547E-1,-5.8131247E0,-2.5196718E1,3.1044922E1,-1.6530895E1,3.0405624E0,-1.5062499E-1,-3.3909373E0,-1.22929685E-1],"categories":[],"categories_nodes":[],"categories_segments":[],"categories_sizes":[],"default_left":[0,0,0,0,0,0,0,0,0,0,0,0,0],"id":61,"left_children":[1,3,5,-1,7,-1,-1,9,11,-1,-1,-1,-1],"loss_changes":[2.0630786E5,5.496361E4,8.622953E3,0E0,8.787473E3,0E0,0E0,1.4470386E3,4.1994497E3,0E0,0E0,0E0,0E0],"parents":[2147483647,0,0,1,1,2,2,4,4,7,7,8,8],"right_children":[2,4,6,-1,8,-1,-1,10,12,-1,-1,-1,-1],"split_conditions":[3E-1,3.8333333E-1,3.3333334E-1,1.1885625E1,1E-1,-5.8131247E0,-2.5196718E1,4.9894883E4,5.1716215E4,3.0405624E0,-1.5062499E-1,-3.3909373E0,-1.22929685E-1],"split_indices":[1,2,1,0,1,0,0,11,12,0,0,0,0],"split_type":[0,0,0,0,0,0,0,0,0,0,0,0,0],"sum_hessian":[1.9E1,1.7E1,2E0,2E0,1.5E1,1E0,1E0,5E0,1E1,4E0,1E0,3E0,7E0],"tree_param":{"num_deleted":"0","num_feature":"20","num_nodes":"13","size_leaf_vector":"1"}},{"base_weights":[-1.5394727E1,2.424132E1,-2.4807942E2,1.1251666E1,9.003906E-1,-5.580625E0,-2.4188906E1,-3.5337498E0,1.049442E1,2.1597395E0,-1.3385417E-1],"categories":[],"categories_nodes":[],"categories_segments":[],"categories_sizes":[],"default_left":[0,0,0,0,0,0,0,0,0,0,0],"id":62,"left_children":[1,3,5,-1,7,-1,-1,-1,9,-1,-1],"loss_changes":[1.904678E5,4.877917E4,7.9468594E3,0E0,7.382352E3,0E0,0E0,0E0,2.8562812E3,0E0,0E0],"parents":[2147483647,0,0,1,1,2,2,4,4,8,8],"right_children":[2,4,6,-1,8,-1,-1,-1,10,-1,-1],"split_conditions":[3E-1,3.8333333E-1,3.3333334E-1,1.1251666E1,5.167412E4,-5.580625E0,-2.4188906E1,-3.5337498E0,4.9894883E4,2.1597395E0,-1.3385417E-1],"split_indices":[1,2,1,0,12,0,0,0,11,0,0],"split_type":[0,0,0,0,0,0,0,0,0,0,0],"sum_hessian":[1.9E1,1.7E1,2E0,2E0,1.5E1,1E0,1E0,2E0,1.3E1,5E0,8E0],"tree_param":{"num_deleted":"0","num_feature":"20","num_nodes":"11","size_leaf_vector":"1"}},{"base_weights":[-2.3169727E1,1.3948567E1,-2.3815625E2,-6.8066406E0,6.927344E1,-5.3573437E0,-2.3221405E1,-4.1815105E1,2.5126953E0,7.98875E0,2.9329686E0,-1.0595312E0,-3.9582813E0,7.423263E-1,-1.0671874E0],"categories":[],"categories_nodes":[],"categories_segments":[],"categories_sizes":[],"default_left":[0,0,0,0,0,0,0,0,0,0,0,0,0,0,0],"id":63,"left_children":[1,3,5,7,9,-1,-1,11,13,-1,-1,-1,-1,-1,-1],"loss_changes":[1.6292061E5,2.1140545E4,7.3244375E3,4.6726475E3,1.3261855E3,0E0,0E0,1.5527344E0,1.4109539E3,0E0,0E0,0E0,0E0,0E0,0E0],"parents":[2147483647,0,0,1,1,2,2,3,3,4,4,7,7,8,8],"right_children":[2,4,6,8,10,-1,-1,12,14,-1,-1,-1,-1,-1,-1],"split_conditions":[3E-1,3.367525E4,3.3333334E-1,5.167412E4,1.8E1,-5.3573437E0,-2.3221405E1,2E-1,6.181488E2,7.98875E0,2.9329686E0,-1.0595312E0,-3.9582813E0,7.423263E-1,-1.0671874E0],"split_indices":[1,5,1,12,4,0,0,1,18,0,0,0,0,0,0],"split_type":[0,0,0,0,0,0,0,0,0,0,0,0,0,0,0],"sum_hessian":[1.9E1,1.7E1,2E0,1.3E1,4E0,1E0,1E0,2E0,1.1E1,1E0,3E0,1E0,1E0,8E0,3E0],"tree_param":{"num_deleted":"0","num_feature":"20","num_nodes":"15","size_leaf_vector":"1"}},{"base_weights":[-1.2025856E1,2.2807772E1,-2.286302E2,1.0360416E1,2.6371784E0,-5.143125E0,-2.22925E1,1.7782316E1,-2.1539062E1,1.8029374E0,-1.1904687E0,7.9265624E-1,-2.2745311E0],"categories":[],"categories_nodes":[],"categories_segments":[],"categories_sizes":[],"default_left":[0,0,0,0,0,0,0,0,0,0,0,0,0],"id":64,"left_children":[1,3,5,-1,7,-1,-1,9,11,-1,-1,-1,-1],"loss_changes":[1.6366195E5,4.0549332E4,6.7494688E3,0E0,6.6076064E3,0E0,0E0,2.0435989E3,1.7989758E3,0E0,0E0,0E0,0E0],"parents":[2147483647,0,0,1,1,2,2,4,4,7,7,8,8],"right_children":[2,4,6,-1,8,-1,-1,10,12,-1,-1,-1,-1],"split_conditions":[3E-1,3.8333333E-1,3.3333334E-1,1.0360416E1,1.3333334E-1,-5.143125E0,-2.22925E1,1.0385655E4,-2.0795758E4,1.8029374E0,-1.1904687E0,7.9265624E-1,-2.2745311E0],"split_indices":[1,2,1,0,1,0,0,7,19,0,0,0,0],"split_type":[0,0,0,0,0,0,0,0,0,0,0,0,0],"sum_hessian":[2E1,1.8E1,2E0,2E0,1.6E1,1E0,1E0,1E1,6E0,9E0,1E0,1E0,5E0],"tree_param":{"num_deleted":"0","num_feature":"20","num_nodes":"13","size_leaf_vector":"1"}},{"base_weights":[-1.1919085E1,2.1481703E1,-2.1948438E2,9.807917E0,2.373851E0,-4.9373436E0,-2.1400782E1,-2.3730469E1,1.522819E1,7.609375E-1,-2.5825E0,4.4715276E-1,2.6486719E0],"categories":[],"categories_nodes":[],"categories_segments":[],"categories_sizes":[],"default_left":[0,0,0,0,0,0,0,0,0,0,0,0,0],"id":65,"left_children":[1,3,5,-1,7,-1,-1,9,11,-1,-1,-1,-1],"loss_changes":[1.5030462E5,3.6419508E4,6.220703E3,0E0,6.065786E3,0E0,0E0,2.0125305E3,1.883064E3,0E0,0E0,0E0,0E0],"parents":[2147483647,0,0,1,1,2,2,4,4,7,7,8,8],"right_children":[2,4,6,-1,8,-1,-1,10,12,-1,-1,-1,-1],"split_conditions":[-2E-1,3.8333333E-1,5.1666665E-1,9.807917E0,2.132446E4,-4.9373436E0,-2.1400782E1,-2.0795758E4,3.367525E4,7.609375E-1,-2.5825E0,4.4715276E-1,2.6486719E0],"split_indices":[3,2,2,0,9,0,0,19,5,0,0,0,0],"split_type":[0,0,0,0,0,0,0,0,0,0,0,0,0],"sum_hessian":[2E1,1.8E1,2E0,2E0,1.6E1,1E0,1E0,5E0,1.1E1,1E0,4E0,8E0,3E0],"tree_param":{"num_deleted":"0","num_feature":"20","num_nodes":"13","size_leaf_vector":"1"}},{"base_weights":[-1.47161455E1,-1.8056445E2,3.0491146E1,-5.56375E0,-2.0544687E1,9.284792E0,8.399038E0,2.3756876E0,-4.3658853E0,-1.0319271E0,7.6203126E-1],"categories":[],"categories_nodes":[],"categories_segments":[],"categories_sizes":[],"default_left":[0,0,0,0,0,0,0,0,0,0,0],"id":66,"left_children":[1,3,5,-1,-1,-1,7,-1,9,-1,-1],"loss_changes":[1.4046156E5,1.5997523E4,2.738112E4,0E0,0E0,0E0,3.6637688E3,0E0,1.1897026E3,0E0,0E0],"parents":[2147483647,0,0,1,1,2,2,6,6,8,8],"right_children":[2,4,6,-1,-1,-1,8,-1,10,-1,-1],"split_conditions":[2.9731643E4,3.3333334E-1,3.8333333E-1,-5.56375E0,-2.0544687E1,9.284792E0,1E-1,2.3756876E0,5.2029254E4,-1.0319271E0,7.6203126E-1],"split_indices":[5,1,2,0,0,0,1,0,12,0,0],"split_type":[0,0,0,0,0,0,0,0,0,0,0],"sum_hessian":[1.7E1,3E0,1.4E1,2E0,1E0,2E0,1.2E1,4E0,8E0,5E0,3E0],"tree_param":{"num_deleted":"0","num_feature":"20","num_nodes":"11","size_leaf_vector":"1"}},{"base_weights":[-2.1821547E1,1.1258732E1,-2.0200261E2,-7.438702E0,5.762031E1,-4.5173435E0,-1.972297E1,-2.7578125E1,4.576389E0,6.693281E0,2.4153905E0,-3.3832812E0,-1.0661719E0,1.2919999E0,-6.3299996E-1],"categories":[],"categories_nodes":[],"categories_segments":[],"categories_sizes":[],"default_left":[0,0,0,0,0,0,0,0,0,0,0,0,0,0,0],"id":67,"left_children":[1,3,5,7,9,-1,-1,11,13,-1,-1,-1,-1,-1,-1],"loss_changes":[1.1552264E5,1.5164943E4,5.5229375E3,3.2719092E3,1.0458223E3,0E0,0E0,4.8474683E2,1.4286609E3,0E0,0E0,0E0,0E0,0E0,0E0],"parents":[2147483647,0,0,1,1,2,2,3,3,4,4,7,7,8,8],"right_children":[2,4,6,8,10,-1,-1,12,14,-1,-1,-1,-1,-1,-1],"split_conditions":[3E-1,3.367525E4,3.3333334E-1,2.132446E4,3.8333333E-1,-4.5173435E0,-1.972297E1,2.04425E4,2.1694666E4,6.693281E0,2.4153905E0,-3.3832812E0,-1.0661719E0,1.2919999E0,-6.3299996E-1],"split_indices":[1,5,1,9,2,0,0,9,9,0,0,0,0,0,0],"split_type":[0,0,0,0,0,0,0,0,0,0,0,0,0,0,0],"sum_hessian":[1.8E1,1.6E1,2E0,1.2E1,4E0,1E0,1E0,4E0,8E0,1E0,3E0,1E0,3E0,4E0,4E0],"tree_param":{"num_deleted":"0","num_feature":"20","num_nodes":"15","size_leaf_vector":"1"}},{"base_weights":[-1.077195E1,1.871361E1,-1.9392317E2,8.432708E0,2.313649E0,-4.3367186E0,-1.8934063E1,-3.322526E1,9.267187E0,-7.390625E-1,-3.2479687E0,1.6986978E-1,2.270547E0],"categories":[],"categories_nodes":[],"categories_segments":[],"categories_sizes":[],"default_left":[0,0,0,0,0,0,0,0,0,0,0,0,0],"id":68,"left_children":[1,3,5,-1,7,-1,-1,9,11,-1,-1,-1,-1],"loss_changes":[1.1703564E5,2.6770297E4,5.0894844E3,0E0,4.508965E3,0E0,0E0,1.5559424E2,1.9880076E3,0E0,0E0,0E0,0E0],"parents":[2147483647,0,0,1,1,2,2,4,4,7,7,8,8],"right_children":[2,4,6,-1,8,-1,-1,10,12,-1,-1,-1,-1],"split_conditions":[3E-1,3.8333333E-1,3.3333334E-1,8.432708E0,5.167412E4,-4.3367186E0,-1.8934063E1,2E-1,2.3522107E4,-7.390625E-1,-3.2479687E0,1.6986978E-1,2.270547E0],"split_indices":[1,2,1,0,12,0,0,1,9,0,0,0,0],"split_type":[0,0,0,0,0,0,0,0,0,0,0,0,0],"sum_hessian":[2E1,1.8E1,2E0,2E0,1.6E1,1E0,1E0,2E0,1.4E1,1E0,1E0,1.1E1,3E0],"tree_param":{"num_deleted":"0","num_feature":"20","num_nodes":"13","size_leaf_vector":"1"}},{"base_weights":[-1.8834375E1,1.0100695E1,-1.8616667E2,-5.1470423E0,5.077422E1,-4.163281E0,-1.8176718E1,-3.1897135E1,1.969401E0,2.1343749E0,5.8860936E0,-7.0953125E-1,-3.118125E0,1.0225781E0,-2.4440971E-1],"categories":[],"categories_nodes":[],"categories_segments":[],"categories_sizes":[],"default_left":[0,0,0,0,0,0,0,0,0,0,0,0,0,0,0],"id":69,"left_children":[1,3,5,7,9,-1,-1,11,13,-1,-1,-1,-1,-1,-1],"loss_changes":[9.871584E4,1.14245625E4,4.690289E3,2.7279358E3,7.8402246E2,0E0,0E0,1.4338599E2,6.910027E2,0E0,0E0,0E0,0E0,0E0,0E0],"parents":[2147483647,0,0,1,1,2,2,3,3,4,4,7,7,8,8],"right_children":[2,4,6,8,10,-1,-1,12,14,-1,-1,-1,-1,-1,-1],"split_conditions":[3E-1,3.367525E4,3.3333334E-1,5.167412E4,-3.5E-1,-4.163281E0,-1.8176718E1,2E-1,1E-1,2.1343749E0,5.8860936E0,-7.0953125E-1,-3.118125E0,1.0225781E0,-2.4440971E-1],"split_indices":[1,5,1,12,3,0,0,1,1,0,0,0,0,0,0],"split_type":[0,0,0,0,0,0,0,0,0,0,0,0,0,0,0],"sum_hessian":[1.9E1,1.7E1,2E0,1.3E1,4E0,1E0,1E0,2E0,1.1E1,3E0,1E0,1E0,1E0,3E0,8E0],"tree_param":{"num_deleted":"0","num_feature":"20","num_nodes":"15","size_leaf_vector":"1"}},{"base_weights":[-1.8195312E1,9.569661E0,-1.7872005E2,-4.952288E0,4.831719E1,-3.9967186E0,-1.7449688E1,-3.0621094E1,1.8776041E0,5.6506248E0,2.0064063E0,-6.8109375E-1,-2.9934375E0,5.129514E-1,-7.035156E-1],"categories":[],"categories_nodes":[],"categories_segments":[],"categories_sizes":[],"default_left":[0,0,0,0,0,0,0,0,0,0,0,0,0,0,0],"id":70,"left_children":[1,3,5,7,9,-1,-1,11,13,-1,-1,-1,-1,-1,-1],"loss_changes":[9.084959E4,1.0367693E4,4.3228516E3,2.5119065E3,8.2127637E2,0E0,0E0,1.3221973E2,6.3704047E2,0E0,0E0,0E0,0E0,0E0,0E0],"parents":[2147483647,0,0,1,1,2,2,3,3,4,4,7,7,8,8],"right_children":[2,4,6,8,10,-1,-1,12,14,-1,-1,-1,-1,-1,-1],"split_conditions":[-2E-1,3.367525E4,5.1666665E-1,5.167412E4,3E-1,-3.9967186E0,-1.7449688E1,-2.5E-1,6.181488E2,5.6506248E0,2.0064063E0,-6.8109375E-1,-2.9934375E0,5.129514E-1,-7.035156E-1],"split_indices":[3,5,2,12,2,0,0,3,18,0,0,0,0,0,0],"split_type":[0,0,0,0,0,0,0,0,0,0,0,0,0,0,0],"sum_hessian":[1.9E1,1.7E1,2E0,1.3E1,4E0,1E0,1E0,2E0,1.1E1,1E0,3E0,1E0,1E0,8E0,3E0],"tree_param":{"num_deleted":"0","num_feature":"20","num_nodes":"15","size_leaf_vector":"1"}},{"base_weights":[-1.0937911E1,1.805262E1,-1.7157161E2,7.4646873E0,1.7979167E0,-3.836875E0,-1.6751719E1,-2.9397135E1,8.858474E0,-6.539062E-1,-2.87375E0,1.1858125E0,-6.6132814E-1],"categories":[],"categories_nodes":[],"categories_segments":[],"categories_sizes":[],"default_left":[0,0,0,0,0,0,0,0,0,0,0,0,0],"id":71,"left_children":[1,3,5,-1,7,-1,-1,9,11,-1,-1,-1,-1],"loss_changes":[9.157759E4,2.062772E4,3.9838125E3,0E0,3.5642302E3,0E0,0E0,1.2181055E2,1.4503148E3,0E0,0E0,0E0,0E0],"parents":[2147483647,0,0,1,1,2,2,4,4,7,7,8,8],"right_children":[2,4,6,-1,8,-1,-1,10,12,-1,-1,-1,-1],"split_conditions":[3E-1,3.8333333E-1,3.3333334E-1,7.4646873E0,5.167412E4,-3.836875E0,-1.6751719E1,2E-1,8.272589E1,-6.539062E-1,-2.87375E0,1.1858125E0,-6.6132814E-1],"split_indices":[1,2,1,0,12,0,0,1,19,0,0,0,0],"split_type":[0,0,0,0,0,0,0,0,0,0,0,0,0],"sum_hessian":[1.8E1,1.6E1,2E0,2E0,1.4E1,1E0,1E0,2E0,1.2E1,1E0,1E0,9E0,3E0],"tree_param":{"num_deleted":"0","num_feature":"20","num_nodes":"13","size_leaf_vector":"1"}},{"base_weights":[-1.0138454E1,1.9477295E1,-1.6470964E2,7.066562E0,3.331473E0,-3.6834373E0,-1.6081718E1,1.8180664E1,-1.4114955E1,1.7891517E0,-4.4421875E-1,-2.0104687E0,3.4375E-2],"categories":[],"categories_nodes":[],"categories_segments":[],"categories_sizes":[],"default_left":[0,0,0,0,0,0,0,0,0,0,0,0,0],"id":72,"left_children":[1,3,5,-1,7,-1,-1,9,11,-1,-1,-1,-1],"loss_changes":[8.5607445E4,1.7493186E4,3.6713984E3,0E0,3.8835342E3,0E0,0E0,9.185371E2,1.1323552E3,0E0,0E0,0E0,0E0],"parents":[2147483647,0,0,1,1,2,2,4,4,7,7,8,8],"right_children":[2,4,6,-1,8,-1,-1,10,12,-1,-1,-1,-1],"split_conditions":[3E-1,3.8333333E-1,3.3333334E-1,7.066562E0,1.3333334E-1,-3.6834373E0,-1.6081718E1,5E-1,5.548669E4,1.7891517E0,-4.4421875E-1,-2.0104687E0,3.4375E-2],"split_indices":[1,2,1,0,1,0,0,2,11,0,0,0,0],"split_type":[0,0,0,0,0,0,0,0,0,0,0,0,0],"sum_hessian":[1.7E1,1.5E1,2E0,2E0,1.3E1,1E0,1E0,7E0,6E0,6E0,1E0,3E0,3E0],"tree_param":{"num_deleted":"0","num_feature":"20","num_nodes":"13","size_leaf_vector":"1"}},{"base_weights":[-1.1815234E1,1.3225477E1,-1.581211E2,6.6896873E0,-8.0029297E-1,-3.5360937E0,-1.5438437E1,-7.69381E0,1.7442968E0,-2.6782813E0,-2.2041665E-1],"categories":[],"categories_nodes":[],"categories_segments":[],"categories_sizes":[],"default_left":[0,0,0,0,0,0,0,0,0,0,0],"id":73,"left_children":[1,3,5,-1,7,-1,-1,9,-1,-1,-1],"loss_changes":[7.536328E4,1.7839273E4,3.3835703E3,0E0,2.660891E3,0E0,0E0,1.5631848E3,0E0,0E0,0E0],"parents":[2147483647,0,0,1,1,2,2,4,4,7,7],"right_children":[2,4,6,-1,8,-1,-1,10,-1,-1,-1],"split_conditions":[3E-1,2.3E1,3.3333334E-1,6.6896873E0,3.367525E4,-3.5360937E0,-1.5438437E1,2.04425E4,1.7442968E0,-2.6782813E0,-2.2041665E-1],"split_indices":[1,4,1,0,5,0,0,9,0,0,0],"split_type":[0,0,0,0,0,0,0,0,0,0,0],"sum_hessian":[1.9E1,1.7E1,2E0,2E0,1.5E1,1E0,1E0,1.2E1,3E0,1E0,1.1E1],"tree_param":{"num_deleted":"0","num_feature":"20","num_nodes":"11","size_leaf_vector":"1"}},{"base_weights":[-8.275905E0,1.7538143E1,-1.5179688E2,6.3328123E0,4.0445313E0,-3.3946874E0,-1.4820937E1,1.4941964E1,-4.8806424E0,1.8018229E0,-1.2217187E0,-8.3887494E-1,1.3606249E-1],"categories":[],"categories_nodes":[],"categories_segments":[],"categories_sizes":[],"default_left":[0,0,0,0,0,0,0,0,0,0,0,0,0],"id":74,"left_children":[1,3,5,-1,7,-1,-1,9,11,-1,-1,-1,-1],"loss_changes":[7.305452E4,1.3815393E4,3.1181562E3,0E0,1.5318485E3,0E0,0E0,1.947256E3,3.4985162E2,0E0,0E0,0E0,0E0],"parents":[2147483647,0,0,1,1,2,2,4,4,7,7,8,8],"right_children":[2,4,6,-1,8,-1,-1,10,12,-1,-1,-1,-1],"split_conditions":[3E-1,3.8333333E-1,3.3333334E-1,6.3328123E0,4.9894883E4,-3.3946874E0,-1.4820937E1,1.0360889E4,3.1569385E4,1.8018229E0,-1.2217187E0,-8.3887494E-1,1.3606249E-1],"split_indices":[1,2,1,0,11,0,0,7,5,0,0,0,0],"split_type":[0,0,0,0,0,0,0,0,0,0,0,0,0],"sum_hessian":[1.8E1,1.6E1,2E0,2E0,1.4E1,1E0,1E0,6E0,8E0,5E0,1E0,4E0,4E0],"tree_param":{"num_deleted":"0","num_feature":"20","num_nodes":"13","size_leaf_vector":"1"}},{"base_weights":[-6.0750413E0,1.892647E1,-1.4572527E2,5.9951043E0,6.4622397E0,-3.2589061E0,-1.4228125E1,1.6966146E0,1.5314844E0,1.1030469E0,-3.0927083E-1],"categories":[],"categories_nodes":[],"categories_segments":[],"categories_sizes":[],"default_left":[0,0,0,0,0,0,0,0,0,0,0],"id":75,"left_children":[1,3,5,-1,7,-1,-1,9,-1,-1,-1],"loss_changes":[6.909592E4,1.1384289E4,2.8736992E3,0E0,8.7403656E2,0E0,0E0,8.604089E2,0E0,0E0,0E0],"parents":[2147483647,0,0,1,1,2,2,4,4,7,7],"right_children":[2,4,6,-1,8,-1,-1,10,-1,-1,-1],"split_conditions":[3E-1,3.8333333E-1,3.3333334E-1,5.9951043E0,3.367525E4,-3.2589061E0,-1.4228125E1,-1.7470164E2,1.5314844E0,1.1030469E0,-3.0927083E-1],"split_indices":[1,2,1,0,5,0,0,18,0,0,0],"split_type":[0,0,0,0,0,0,0,0,0,0,0],"sum_hessian":[1.8E1,1.6E1,2E0,2E0,1.4E1,1E0,1E0,1.1E1,3E0,3E0,8E0],"tree_param":{"num_deleted":"0","num_feature":"20","num_nodes":"11","size_leaf_vector":"1"}},{"base_weights":[-1.08830185E1,1.2524357E1,-1.3989714E2,5.6753125E0,5.989583E-3,-3.1285937E0,-1.3659062E1,-2.5815625E0,4.6163507E0,5.7625E-1,-1.1604687E0],"categories":[],"categories_nodes":[],"categories_segments":[],"categories_sizes":[],"default_left":[0,0,0,0,0,0,0,0,0,0,0],"id":76,"left_children":[1,3,5,-1,7,-1,-1,-1,9,-1,-1],"loss_changes":[5.9129875E4,1.2431439E4,2.6482773E3,0E0,2.3809944E3,0E0,0E0,0E0,7.969953E2,0E0,0E0],"parents":[2147483647,0,0,1,1,2,2,4,4,8,8],"right_children":[2,4,6,-1,8,-1,-1,-1,10,-1,-1],"split_conditions":[3E-1,3.8333333E-1,3.3333334E-1,5.6753125E0,2.04425E4,-3.1285937E0,-1.3659062E1,-2.5815625E0,1.0385655E4,5.7625E-1,-1.1604687E0],"split_indices":[1,2,1,0,9,0,0,0,7,0,0],"split_type":[0,0,0,0,0,0,0,0,0,0,0],"sum_hessian":[1.8E1,1.6E1,2E0,2E0,1.4E1,1E0,1E0,1E0,1.3E1,1.2E1,1E0],"tree_param":{"num_deleted":"0","num_feature":"20","num_nodes":"11","size_leaf_vector":"1"}},{"base_weights":[-1.9541666E1,3.1970215E0,-1.3430078E2,-5.142857E0,3.2840624E0,-3.0034375E0,-1.3112656E1,-2.4950521E1,2.376302E-1,-5.157812E-1,-2.4782813E0,4.35E-1,-6.5037495E-1],"categories":[],"categories_nodes":[],"categories_segments":[],"categories_sizes":[],"default_left":[0,0,0,0,0,0,0,0,0,0,0,0,0],"id":77,"left_children":[1,3,5,7,-1,-1,-1,9,11,-1,-1,-1,-1],"loss_changes":[4.739985E4,5.2622505E3,2.4406484E3,1.4979773E3,0E0,0E0,0E0,1.3488599E2,5.6631274E2,0E0,0E0,0E0,0E0],"parents":[2147483647,0,0,1,1,2,2,3,3,7,7,8,8],"right_children":[2,4,6,8,-1,-1,-1,10,12,-1,-1,-1,-1],"split_conditions":[3E-1,3.367525E4,3.3333334E-1,5.167412E4,3.2840624E0,-3.0034375E0,-1.3112656E1,2E-1,0E0,-5.157812E-1,-2.4782813E0,4.35E-1,-6.5037495E-1],"split_indices":[1,5,1,12,0,0,0,1,14,0,0,0,0],"split_type":[0,0,0,0,0,0,0,0,0,0,0,0,0],"sum_hessian":[1.7E1,1.5E1,2E0,1.3E1,2E0,1E0,1E0,2E0,1.1E1,1E0,1E0,7E0,4E0],"tree_param":{"num_deleted":"0","num_feature":"20","num_nodes":"13","size_leaf_vector":"1"}},{"base_weights":[-2.3051867E1,-5.89591E0,-1.2588124E1,-3.5129883E1,2.8777902E0,-3.5083334E0,-3.5828125E-1,1.3089844E0,-2.287287E0,-8.929687E-1,5.575E-1],"categories":[],"categories_nodes":[],"categories_segments":[],"categories_sizes":[],"default_left":[0,0,0,0,0,0,0,0,0,0,0],"id":78,"left_children":[1,3,-1,5,7,-1,-1,-1,9,-1,-1],"loss_changes":[4.0544984E4,4.461428E3,0E0,8.7324365E2,1.012505E3,0E0,0E0,0E0,9.813885E2,0E0,0E0],"parents":[2147483647,0,0,1,1,3,3,4,4,8,8],"right_children":[2,4,-1,6,8,-1,-1,-1,10,-1,-1],"split_conditions":[3.3333334E-1,2.9534773E4,-1.2588124E1,2.0657355E4,6.60188E4,-3.5083334E0,-3.5828125E-1,1.3089844E0,3.1893965E4,-8.929687E-1,5.575E-1],"split_indices":[1,5,0,9,6,0,0,0,5,0,0],"split_type":[0,0,0,0,0,0,0,0,0,0,0],"sum_hessian":[1.7E1,1.6E1,1E0,3E0,1.3E1,2E0,1E0,3E0,1E1,5E0,5E0],"tree_param":{"num_deleted":"0","num_feature":"20","num_nodes":"11","size_leaf_vector":"1"}},{"base_weights":[-9.992805E0,1.0636719E1,-1.235625E2,5.1476045E0,-8.140625E-1,-2.7429688E0,-1.2084531E1,-2.2485678E1,4.2496996E0,-4.59375E-1,-2.2389061E0,5.5338544E-1,-1.1104687E0],"categories":[],"categories_nodes":[],"categories_segments":[],"categories_sizes":[],"default_left":[0,0,0,0,0,0,0,0,0,0,0,0,0],"id":79,"left_children":[1,3,5,-1,7,-1,-1,9,11,-1,-1,-1,-1],"loss_changes":[4.5829184E4,1.0507421E4,2.1843555E3,0E0,1.7416559E3,0E0,0E0,1.15597534E2,7.247686E2,0E0,0E0,0E0,0E0],"parents":[2147483647,0,0,1,1,2,2,4,4,7,7,8,8],"right_children":[2,4,6,-1,8,-1,-1,10,12,-1,-1,-1,-1],"split_conditions":[-2E-1,3.8333333E-1,5.1666665E-1,5.1476045E0,5.167412E4,-2.7429688E0,-1.2084531E1,-2.5E-1,1.0385655E4,-4.59375E-1,-2.2389061E0,5.5338544E-1,-1.1104687E0],"split_indices":[3,2,2,0,12,0,0,3,7,0,0,0,0],"split_type":[0,0,0,0,0,0,0,0,0,0,0,0,0],"sum_hessian":[1.8E1,1.6E1,2E0,2E0,1.4E1,1E0,1E0,2E0,1.2E1,1E0,1E0,1.1E1,1E0],"tree_param":{"num_deleted":"0","num_feature":"20","num_nodes":"13","size_leaf_vector":"1"}},{"base_weights":[-2.1517233E1,-4.7353516E0,-1.1601093E1,-3.2179688E1,4.0733175E0,-3.1884375E0,-3.6609375E-1,1.3786719E0,-1.5980469E0,9.6958333E-1,-5.233984E-1],"categories":[],"categories_nodes":[],"categories_segments":[],"categories_sizes":[],"default_left":[0,0,0,0,0,0,0,0,0,0,0],"id":80,"left_children":[1,3,-1,5,7,-1,-1,-1,9,-1,-1],"loss_changes":[3.4545855E4,3.9990469E3,0E0,6.651294E2,9.978028E2,0E0,0E0,0E0,7.575629E2,0E0,0E0],"parents":[2147483647,0,0,1,1,3,3,4,4,8,8],"right_children":[2,4,-1,6,8,-1,-1,-1,10,-1,-1],"split_conditions":[3.3333334E-1,2.9534773E4,-1.1601093E1,2.0657355E4,1E-1,-3.1884375E0,-3.6609375E-1,1.3786719E0,1.4976E4,9.6958333E-1,-5.233984E-1],"split_indices":[1,5,0,9,1,0,0,0,8,0,0],"split_type":[0,0,0,0,0,0,0,0,0,0,0],"sum_hessian":[1.6E1,1.5E1,1E0,3E0,1.2E1,2E0,1E0,3E0,9E0,2E0,7E0],"tree_param":{"num_deleted":"0","num_feature":"20","num_nodes":"11","size_leaf_vector":"1"}},{"base_weights":[-1.3368164E1,4.0948353E0,-1.136901E2,-4.580915E0,2.7567968E1,-2.5057812E0,-1.1137031E1,-2.021875E0,-1.0450721E0,3.410625E0,1.0514843E0,6.170312E-1,-3.5549998E-1],"categories":[],"categories_nodes":[],"categories_segments":[],"categories_sizes":[],"default_left":[0,0,0,0,0,0,0,0,0,0,0,0,0],"id":81,"left_children":[1,3,5,7,9,-1,-1,-1,11,-1,-1,-1,-1],"loss_changes":[3.550398E4,3.791933E3,1.9463047E3,9.9790454E2,5.2616113E2,0E0,0E0,0E0,4.2122562E2,0E0,0E0,0E0,0E0],"parents":[2147483647,0,0,1,1,2,2,3,3,4,4,8,8],"right_children":[2,4,6,8,10,-1,-1,-1,12,-1,-1,-1,-1],"split_conditions":[3E-1,3.367525E4,3.3333334E-1,2.04425E4,3E-1,-2.5057812E0,-1.1137031E1,-2.021875E0,1E-1,3.410625E0,1.0514843E0,6.170312E-1,-3.5549998E-1],"split_indices":[1,5,1,9,2,0,0,0,1,0,0,0,0],"split_type":[0,0,0,0,0,0,0,0,0,0,0,0,0],"sum_hessian":[1.9E1,1.7E1,2E0,1.3E1,4E0,1E0,1E0,1E0,1.2E1,1E0,3E0,3E0,9E0],"tree_param":{"num_deleted":"0","num_feature":"20","num_nodes":"13","size_leaf_vector":"1"}},{"base_weights":[-8.592928E0,9.65671E0,-1.0914323E2,4.680521E0,-7.5703126E-1,-2.4056249E0,-1.0691563E1,-1.9409374E0,2.654855E0,7.371875E-1,-2.7335936E-1],"categories":[],"categories_nodes":[],"categories_segments":[],"categories_sizes":[],"default_left":[0,0,0,0,0,0,0,0,0,0,0],"id":82,"left_children":[1,3,5,-1,7,-1,-1,-1,9,-1,-1],"loss_changes":[3.591909E4,8.692348E3,1.7934375E3,0E0,1.2673411E3,0E0,0E0,0E0,5.891246E2,0E0,0E0],"parents":[2147483647,0,0,1,1,2,2,4,4,8,8],"right_children":[2,4,6,-1,8,-1,-1,-1,10,-1,-1],"split_conditions":[3E-1,3.8333333E-1,3.3333334E-1,4.680521E0,2.04425E4,-2.4056249E0,-1.0691563E1,-1.9409374E0,4.9894883E4,7.371875E-1,-2.7335936E-1],"split_indices":[1,2,1,0,9,0,0,0,11,0,0],"split_type":[0,0,0,0,0,0,0,0,0,0,0],"sum_hessian":[1.8E1,1.6E1,2E0,2E0,1.4E1,1E0,1E0,1E0,1.3E1,6E0,7E0],"tree_param":{"num_deleted":"0","num_feature":"20","num_nodes":"11","size_leaf_vector":"1"}},{"base_weights":[-1.1873264E1,-9.0228516E1,9.813021E0,-2.781771E0,-1.02639065E1,4.4309373E0,-1.4588342E0,6.8953123E0,-5.937934E0,9.2117184E-1,-4.6328124E-1,-4.7142856E-2,-1.3151042E0],"categories":[],"categories_nodes":[],"categories_segments":[],"categories_sizes":[],"default_left":[0,0,0,0,0,0,0,0,0,0,0,0,0],"id":83,"left_children":[1,3,5,-1,-1,-1,7,9,11,-1,-1,-1,-1],"loss_changes":[3.1471633E4,3.9837441E3,7.786302E3,0E0,0E0,0E0,5.2739166E2,3.5969357E2,4.9580188E2,0E0,0E0,0E0,0E0],"parents":[2147483647,0,0,1,1,2,2,6,6,7,7,8,8],"right_children":[2,4,6,-1,-1,-1,8,10,12,-1,-1,-1,-1],"split_conditions":[2.0675482E4,3.3333334E-1,3.8333333E-1,-2.781771E0,-1.02639065E1,4.4309373E0,1E-1,4.9894883E4,0E0,9.2117184E-1,-4.6328124E-1,-4.7142856E-2,-1.3151042E0],"split_indices":[9,1,2,0,0,0,1,11,14,0,0,0,0],"split_type":[0,0,0,0,0,0,0,0,0,0,0,0,0],"sum_hessian":[1.7E1,3E0,1.4E1,2E0,1E0,2E0,1.2E1,4E0,8E0,3E0,1E0,6E0,2E0],"tree_param":{"num_deleted":"0","num_feature":"20","num_nodes":"13","size_leaf_vector":"1"}},{"base_weights":[-8.199425E0,8.558594E0,-1.0042838E2,4.1946874E0,-7.8697914E-1,-2.198125E0,-9.853281E0,-1.0125558E1,6.5638022E0,-1.5022656E0,8.46875E-2,8.426953E-1,-1.0078125E0],"categories":[],"categories_nodes":[],"categories_segments":[],"categories_sizes":[],"default_left":[0,0,0,0,0,0,0,0,0,0,0,0,0],"id":84,"left_children":[1,3,5,-1,7,-1,-1,9,11,-1,-1,-1,-1],"loss_changes":[3.0225441E4,7.0118926E3,1.5920781E3,0E0,1.0961499E3,0E0,0E0,6.9729517E2,8.173197E2,0E0,0E0,0E0,0E0],"parents":[2147483647,0,0,1,1,2,2,4,4,7,7,8,8],"right_children":[2,4,6,-1,8,-1,-1,10,12,-1,-1,-1,-1],"split_conditions":[3E-1,3.8333333E-1,3.3333334E-1,4.1946874E0,3.1569385E4,-2.198125E0,-9.853281E0,5.2029254E4,1.0385655E4,-1.5022656E0,8.46875E-2,8.426953E-1,-1.0078125E0],"split_indices":[1,2,1,0,5,0,0,12,7,0,0,0,0],"split_type":[0,0,0,0,0,0,0,0,0,0,0,0,0],"sum_hessian":[1.8E1,1.6E1,2E0,2E0,1.4E1,1E0,1E0,6E0,8E0,3E0,3E0,7E0,1E0],"tree_param":{"num_deleted":"0","num_feature":"20","num_nodes":"13","size_leaf_vector":"1"}},{"base_weights":[-6.9097843E0,7.585732E0,-9.641146E1,3.9709375E0,-2.8125E-1,-2.1101563E0,-9.459219E0,-1.6872396E1,3.0557292E0,-3.328125E-1,-1.691875E0,4.0013394E-1,-9.675E-1],"categories":[],"categories_nodes":[],"categories_segments":[],"categories_sizes":[],"default_left":[0,0,0,0,0,0,0,0,0,0,0,0,0],"id":85,"left_children":[1,3,5,-1,7,-1,-1,9,11,-1,-1,-1,-1],"loss_changes":[2.7976184E4,6.299433E3,1.4674844E3,0E0,9.927507E2,0E0,0E0,7.509338E1,5.0268976E2,0E0,0E0,0E0,0E0],"parents":[2147483647,0,0,1,1,2,2,4,4,7,7,8,8],"right_children":[2,4,6,-1,8,-1,-1,10,12,-1,-1,-1,-1],"split_conditions":[3E-1,3.8333333E-1,3.3333334E-1,3.9709375E0,5.167412E4,-2.1101563E0,-9.459219E0,2E-1,1.0385655E4,-3.328125E-1,-1.691875E0,4.0013394E-1,-9.675E-1],"split_indices":[1,2,1,0,12,0,0,1,7,0,0,0,0],"split_type":[0,0,0,0,0,0,0,0,0,0,0,0,0],"sum_hessian":[2E1,1.8E1,2E0,2E0,1.6E1,1E0,1E0,2E0,1.4E1,1E0,1E0,1.3E1,1E0],"tree_param":{"num_deleted":"0","num_feature":"20","num_nodes":"13","size_leaf_vector":"1"}},{"base_weights":[-6.474805E0,8.231554E0,-9.255469E1,3.7590625E0,4.501953E-1,-2.0257812E0,-9.080781E0,-1.0270183E1,6.2567472E0,6.379687E-1,-1.241125E0,7.3634374E-1,-9.2875E-1],"categories":[],"categories_nodes":[],"categories_segments":[],"categories_sizes":[],"default_left":[0,0,0,0,0,0,0,0,0,0,0,0,0],"id":86,"left_children":[1,3,5,-1,7,-1,-1,9,11,-1,-1,-1,-1],"loss_changes":[2.60803E4,5.407286E3,1.3522578E3,0E0,1.0602328E3,0E0,0E0,6.9775964E2,6.8613025E2,0E0,0E0,0E0,0E0],"parents":[2147483647,0,0,1,1,2,2,4,4,7,7,8,8],"right_children":[2,4,6,-1,8,-1,-1,10,12,-1,-1,-1,-1],"split_conditions":[3E-1,3.8333333E-1,3.3333334E-1,3.7590625E0,2.132446E4,-2.0257812E0,-9.080781E0,-2.0795758E4,1.0385655E4,6.379687E-1,-1.241125E0,7.3634374E-1,-9.2875E-1],"split_indices":[1,2,1,0,9,0,0,19,7,0,0,0,0],"split_type":[0,0,0,0,0,0,0,0,0,0,0,0,0],"sum_hessian":[1.9E1,1.7E1,2E0,2E0,1.5E1,1E0,1E0,5E0,1E1,1E0,4E0,9E0,1E0],"tree_param":{"num_deleted":"0","num_feature":"20","num_nodes":"13","size_leaf_vector":"1"}},{"base_weights":[-8.585504E0,-7.647949E1,1.0091928E1,-2.3461456E0,-8.7175E0,3.558646E0,1.3792068E0,8.432292E0,-4.083008E0,1.166125E0,-8.9156246E-1,3.55625E-1,-6.133333E-1],"categories":[],"categories_nodes":[],"categories_segments":[],"categories_sizes":[],"default_left":[0,0,0,0,0,0,0,0,0,0,0,0,0],"id":87,"left_children":[1,3,5,-1,-1,-1,7,9,11,-1,-1,-1,-1],"loss_changes":[2.3597361E4,2.9321133E3,4.4332544E3,0E0,0E0,0E0,5.3526013E2,8.8416077E2,2.7858145E2,0E0,0E0,0E0,0E0],"parents":[2147483647,0,0,1,1,2,2,6,6,7,7,8,8],"right_children":[2,4,6,-1,-1,-1,8,10,12,-1,-1,-1,-1],"split_conditions":[2.0675482E4,3.3333334E-1,3.8333333E-1,-2.3461456E0,-8.7175E0,3.558646E0,4.9894883E4,1.0360889E4,4.5E-1,1.166125E0,-8.9156246E-1,3.55625E-1,-6.133333E-1],"split_indices":[9,1,2,0,0,0,11,7,2,0,0,0,0],"split_type":[0,0,0,0,0,0,0,0,0,0,0,0,0],"sum_hessian":[1.7E1,3E0,1.4E1,2E0,1E0,2E0,1.2E1,5E0,7E0,4E0,1E0,2E0,5E0],"tree_param":{"num_deleted":"0","num_feature":"20","num_nodes":"13","size_leaf_vector":"1"}},{"base_weights":[-6.4396486E0,-7.312598E1,9.630055E0,-2.2209375E0,-8.36875E0,3.368854E0,2.4919271E0,1.0366406E0,-1.2044271E0,-4.4361606E-1,3.2484373E-1],"categories":[],"categories_nodes":[],"categories_segments":[],"categories_sizes":[],"default_left":[0,0,0,0,0,0,0,0,0,0,0],"id":88,"left_children":[1,3,5,-1,-1,-1,7,-1,9,-1,-1],"loss_changes":[2.2136799E4,2.808746E3,3.8365273E3,0E0,0E0,0E0,5.959021E2,0E0,2.9676526E2,0E0,0E0],"parents":[2147483647,0,0,1,1,2,2,6,6,8,8],"right_children":[2,4,6,-1,-1,-1,8,-1,10,-1,-1],"split_conditions":[2.9731643E4,3.3333334E-1,3.8333333E-1,-2.2209375E0,-8.36875E0,3.368854E0,6.60188E4,1.0366406E0,3.1893965E4,-4.4361606E-1,3.2484373E-1],"split_indices":[5,1,2,0,0,0,6,0,5,0,0],"split_type":[0,0,0,0,0,0,0,0,0,0,0],"sum_hessian":[1.9E1,3E0,1.6E1,2E0,1E0,2E0,1.4E1,3E0,1.1E1,6E0,5E0],"tree_param":{"num_deleted":"0","num_feature":"20","num_nodes":"11","size_leaf_vector":"1"}},{"base_weights":[-8.580386E0,4.8159466E0,-8.163281E1,3.189271E0,-2.515104E0,-1.7618749E0,-8.034062E0,1.1764323E0,-1.036875E0,8.208333E-1,-5.422321E-1],"categories":[],"categories_nodes":[],"categories_segments":[],"categories_sizes":[],"default_left":[0,0,0,0,0,0,0,0,0,0,0],"id":89,"left_children":[1,3,5,-1,7,-1,-1,9,-1,-1,-1],"loss_changes":[1.8987197E4,4.4684663E3,1.1489922E3,0E0,5.936653E2,0E0,0E0,9.3662866E2,0E0,0E0,0E0],"parents":[2147483647,0,0,1,1,2,2,4,4,7,7],"right_children":[2,4,6,-1,8,-1,-1,10,-1,-1,-1],"split_conditions":[3E-1,3.8333333E-1,3.3333334E-1,3.189271E0,1.6666668E-2,-1.7618749E0,-8.034062E0,1.3333334E-1,-1.036875E0,8.208333E-1,-5.422321E-1],"split_indices":[1,2,1,0,15,0,0,1,0,0,0],"split_type":[0,0,0,0,0,0,0,0,0,0,0],"sum_hessian":[1.8E1,1.6E1,2E0,2E0,1.4E1,1E0,1E0,1.1E1,3E0,5E0,6E0],"tree_param":{"num_deleted":"0","num_feature":"20","num_nodes":"11","size_leaf_vector":"1"}},{"base_weights":[-5.526367E0,6.9207897E0,-7.836719E1,3.019271E0,7.0947266E-1,-1.6914062E0,-7.712656E0,-1.37E0,3.0401042E0,3.787946E-1,-8.275E-1],"categories":[],"categories_nodes":[],"categories_segments":[],"categories_sizes":[],"default_left":[0,0,0,0,0,0,0,0,0,0,0],"id":90,"left_children":[1,3,5,-1,7,-1,-1,-1,9,-1,-1],"loss_changes":[1.8675586E4,3.4190251E3,1.0588535E3,0E0,7.171111E2,0E0,0E0,0E0,3.892271E2,0E0,0E0],"parents":[2147483647,0,0,1,1,2,2,4,4,8,8],"right_children":[2,4,6,-1,8,-1,-1,-1,10,-1,-1],"split_conditions":[3E-1,3.8333333E-1,3.3333334E-1,3.019271E0,2.04425E4,-1.6914062E0,-7.712656E0,-1.37E0,1.0385655E4,3.787946E-1,-8.275E-1],"split_indices":[1,2,1,0,9,0,0,0,7,0,0],"split_type":[0,0,0,0,0,0,0,0,0,0,0],"sum_hessian":[1.9E1,1.7E1,2E0,2E0,1.5E1,1E0,1E0,1E0,1.4E1,1.3E1,1E0],"tree_param":{"num_deleted":"0","num_feature":"20","num_nodes":"11","size_leaf_vector":"1"}},{"base_weights":[-5.7749257E0,5.4960938E0,-7.523307E1,2.858229E0,-1.6222426E-1,-1.62375E0,-7.4042187E0,-1.2800781E1,2.376302E0,-2.2093749E-1,-1.3151562E0,3.9161456E-1,-4.619531E-1],"categories":[],"categories_nodes":[],"categories_segments":[],"categories_sizes":[],"default_left":[0,0,0,0,0,0,0,0,0,0,0,0,0],"id":91,"left_children":[1,3,5,-1,7,-1,-1,9,11,-1,-1,-1,-1],"loss_changes":[1.6853633E4,3.2559546E3,9.7589844E2,0E0,5.758348E2,0E0,0E0,6.4185394E1,3.3622696E2,0E0,0E0,0E0,0E0],"parents":[2147483647,0,0,1,1,2,2,4,4,7,7,8,8],"right_children":[2,4,6,-1,8,-1,-1,10,12,-1,-1,-1,-1],"split_conditions":[3E-1,3.8333333E-1,3.3333334E-1,2.858229E0,5.167412E4,-1.62375E0,-7.4042187E0,2E-1,8.660947E1,-2.2093749E-1,-1.3151562E0,3.9161456E-1,-4.619531E-1],"split_indices":[1,2,1,0,12,0,0,1,19,0,0,0,0],"split_type":[0,0,0,0,0,0,0,0,0,0,0,0,0],"sum_hessian":[2E1,1.8E1,2E0,2E0,1.6E1,1E0,1E0,2E0,1.4E1,1E0,1E0,1.1E1,3E0],"tree_param":{"num_deleted":"0","num_feature":"20","num_nodes":"13","size_leaf_vector":"1"}},{"base_weights":[-5.737109E0,5.6627603E0,-7.222396E1,2.705729E0,2.9052734E-2,-1.5587499E0,-7.1081247E0,-1.2624999E0,2.1351562E0,2.987277E-1,-8.1E-1],"categories":[],"categories_nodes":[],"categories_segments":[],"categories_sizes":[],"default_left":[0,0,0,0,0,0,0,0,0,0,0],"id":92,"left_children":[1,3,5,-1,7,-1,-1,-1,9,-1,-1],"loss_changes":[1.5567816E4,2.854515E3,8.9958105E2,0E0,5.664656E2,0E0,0E0,0E0,3.3185648E2,0E0,0E0],"parents":[2147483647,0,0,1,1,2,2,4,4,8,8],"right_children":[2,4,6,-1,8,-1,-1,-1,10,-1,-1],"split_conditions":[3E-1,3.8333333E-1,3.3333334E-1,2.705729E0,2.04425E4,-1.5587499E0,-7.1081247E0,-1.2624999E0,1.0385655E4,2.987277E-1,-8.1E-1],"split_indices":[1,2,1,0,9,0,0,0,7,0,0],"split_type":[0,0,0,0,0,0,0,0,0,0,0],"sum_hessian":[1.9E1,1.7E1,2E0,2E0,1.5E1,1E0,1E0,1E0,1.4E1,1.3E1,1E0],"tree_param":{"num_deleted":"0","num_feature":"20","num_nodes":"11","size_leaf_vector":"1"}},{"base_weights":[-5.627232E0,4.7280016E0,-6.933463E1,2.561354E0,-3.658088E-1,-1.4964062E0,-6.82375E0,8.419531E0,-3.7166467E0,9.257031E-1,-1.6749999E-1,-1.0802344E0,4.55625E-2],"categories":[],"categories_nodes":[],"categories_segments":[],"categories_sizes":[],"default_left":[0,0,0,0,0,0,0,0,0,0,0,0,0],"id":93,"left_children":[1,3,5,-1,7,-1,-1,9,11,-1,-1,-1,-1],"loss_changes":[1.418162E4,2.6527998E3,8.2899805E2,0E0,5.317427E2,0E0,0E0,1.8990396E2,5.529851E2,0E0,0E0,0E0,0E0],"parents":[2147483647,0,0,1,1,2,2,4,4,7,7,8,8],"right_children":[2,4,6,-1,8,-1,-1,10,12,-1,-1,-1,-1],"split_conditions":[3E-1,3.8333333E-1,3.3333334E-1,2.561354E0,6.60188E4,-1.4964062E0,-6.82375E0,2.6666668E-1,2.132446E4,9.257031E-1,-1.6749999E-1,-1.0802344E0,4.55625E-2],"split_indices":[1,2,1,0,6,0,0,1,9,0,0,0,0],"split_type":[0,0,0,0,0,0,0,0,0,0,0,0,0],"sum_hessian":[2E1,1.8E1,2E0,2E0,1.6E1,1E0,1E0,4E0,1.2E1,3E0,1E0,3E0,9E0],"tree_param":{"num_deleted":"0","num_feature":"20","num_nodes":"13","size_leaf_vector":"1"}},{"base_weights":[-5.4648438E0,4.4695725E0,-6.6561195E1,2.4246874E0,-3.5317096E-1,-1.4365624E0,-6.5507812E0,7.8976564E0,-3.499399E0,8.701562E-1,-1.6078125E-1,-1.0153124E0,4.21875E-2],"categories":[],"categories_nodes":[],"categories_segments":[],"categories_sizes":[],"default_left":[0,0,0,0,0,0,0,0,0,0,0,0,0],"id":94,"left_children":[1,3,5,-1,7,-1,-1,9,11,-1,-1,-1,-1],"loss_changes":[1.3043589E4,2.3783887E3,7.6395996E2,0E0,4.689398E2,0E0,0E0,1.6944586E2,4.878728E2,0E0,0E0,0E0,0E0],"parents":[2147483647,0,0,1,1,2,2,4,4,7,7,8,8],"right_children":[2,4,6,-1,8,-1,-1,10,12,-1,-1,-1,-1],"split_conditions":[-2E-1,3.8333333E-1,5.1666665E-1,2.4246874E0,6.60188E4,-1.4365624E0,-6.5507812E0,-2.1666667E-1,2.132446E4,8.701562E-1,-1.6078125E-1,-1.0153124E0,4.21875E-2],"split_indices":[3,2,2,0,6,0,0,3,9,0,0,0,0],"split_type":[0,0,0,0,0,0,0,0,0,0,0,0,0],"sum_hessian":[2E1,1.8E1,2E0,2E0,1.6E1,1E0,1E0,4E0,1.2E1,3E0,1E0,3E0,9E0],"tree_param":{"num_deleted":"0","num_feature":"20","num_nodes":"13","size_leaf_vector":"1"}},{"base_weights":[-5.3056173E0,4.2251234E0,-6.3898438E1,2.2953124E0,-3.4099266E-1,-1.3790624E0,-6.2887497E0,-1.128125E0,1.4003906E0,5.925625E-1,-9.752604E-2],"categories":[],"categories_nodes":[],"categories_segments":[],"categories_sizes":[],"default_left":[0,0,0,0,0,0,0,0,0,0,0],"id":95,"left_children":[1,3,5,-1,7,-1,-1,-1,9,-1,-1],"loss_changes":[1.1997072E4,2.1323855E3,7.0415234E2,0E0,4.2710895E2,0E0,0E0,0E0,2.607768E2,0E0,0E0],"parents":[2147483647,0,0,1,1,2,2,4,4,8,8],"right_children":[2,4,6,-1,8,-1,-1,-1,10,-1,-1],"split_conditions":[3E-1,3.8333333E-1,3.3333334E-1,2.2953124E0,2.04425E4,-1.3790624E0,-6.2887497E0,-1.128125E0,6.60188E4,5.925625E-1,-9.752604E-2],"split_indices":[1,2,1,0,9,0,0,0,6,0,0],"split_type":[0,0,0,0,0,0,0,0,0,0,0],"sum_hessian":[2E1,1.8E1,2E0,2E0,1.6E1,1E0,1E0,1E0,1.5E1,4E0,1.1E1],"tree_param":{"num_deleted":"0","num_feature":"20","num_nodes":"11","size_leaf_vector":"1"}}]},"name":"gbtree"},"learner_model_param":{"base_score":"[4.426601E4]","boost_from_average":"1","num_class":"0","num_feature":"20","num_target":"1"},"objective":{"name":"reg:squarederror","reg_loss_param":{"scale_pos_weight":"1"}}},"version":[3,2,0]}