{"learner":{"attributes":{"aggregation_window_seconds":"60.0","feature_names":"[\"active_requests\", \"arrival_qps_60s\", \"finished_qps_60s\", \"finished_count_60s\", \"window_mean_seqlen_60s\", \"window_p90_seqlen_60s\", \"window_mean_cachelen_60s\", \"window_p90_cachelen_60s\", \"window_mean_extend_tokens_60s\", \"window_p90_extend_tokens_60s\", \"window_mean_ttft_ms_60s\", \"window_p90_ttft_ms_60s\"]","last_retrain_time":"951042.044961321","model_type":"xgboost","model_version":"69","sample_count":"27","scikit_learn":"{\"_estimator_type\": \"regressor\"}","training_window_seconds":"900.0"},"feature_names":[],"feature_types":[],"gradient_booster":{"model":{"cats":{"enc":[],"feature_segments":[],"sorted_idx":[]},"gbtree_model_param":{"num_parallel_tree":"1","num_trees":"96"},"iteration_indptr":[0,1,2,3,4,5,6,7,8,9,10,11,12,13,14,15,16,17,18,19,20,21,22,23,24,25,26,27,28,29,30,31,32,33,34,35,36,37,38,39,40,41,42,43,44,45,46,47,48,49,50,51,52,53,54,55,56,57,58,59,60,61,62,63,64,65,66,67,68,69,70,71,72,73,74,75,76,77,78,79,80,81,82,83,84,85,86,87,88,89,90,91,92,93,94,95,96],"tree_info":[0,0,0,0,0,0,0,0,0,0,0,0,0,0,0,0,0,0,0,0,0,0,0,0,0,0,0,0,0,0,0,0,0,0,0,0,0,0,0,0,0,0,0,0,0,0,0,0,0,0,0,0,0,0,0,0,0,0,0,0,0,0,0,0,0,0,0,0,0,0,0,0,0,0,0,0,0,0,0,0,0,0,0,0,0,0,0,0,0,0,0,0,0,0,0,0],"trees":[{"base_weights":[-1.21855354E2,1.7309672E3,-1.8336295E3,2.0415088E2,-9.288008E1,-1.620578E1,-1.943513E3,2.212948E1,-3.451349E1,-2.0741123E3,-6.5344894E1,-1.0989772E2,-2.1118694E2],"categories":[],"categories_nodes":[],"categories_segments":[],"categories_sizes":[],"default_left":[0,0,0,0,0,0,0,0,0,0,0,0,0],"id":0,"left_children":[1,3,5,-1,7,-1,9,-1,-1,11,-1,-1,-1],"loss_changes":[8.56359E7,1.9701016E7,2.115468E6,0E0,7.447859E5,0E0,2.18744E5,0E0,0E0,7.32108E5,0E0,0E0,0E0],"parents":[2147483647,0,0,1,1,2,2,4,4,6,6,9,9],"right_children":[2,4,6,-1,8,-1,10,-1,-1,12,-1,-1,-1],"split_conditions":[1.5513594E4,3.77E2,2.1554732E4,2.0415088E2,9.076E3,-1.620578E1,1.29088E4,2.212948E1,-3.451349E1,1.216E4,-6.5344894E1,-1.0989772E2,-2.1118694E2],"split_indices":[10,0,4,0,6,0,7,0,0,7,0,0,0],"split_type":[0,0,0,0,0,0,0,0,0,0,0,0,0],"sum_hessian":[2.5E1,1.2E1,1.3E1,8E0,4E0,1E0,1.2E1,2E0,2E0,1E1,2E0,6E0,4E0],"tree_param":{"num_deleted":"0","num_feature":"12","num_nodes":"13","size_leaf_vector":"1"}},{"base_weights":[-1.1754644E2,1.4952681E3,-1.5074825E3,1.7669437E2,-8.792656E1,-6.0783295E2,-1.896524E3,2.0949219E1,-3.267276E1,-1.01090906E3,5.6301914E1,-1.8094728E2,-8.630711E1,-9.331213E1,-1.5557539E1],"categories":[],"categories_nodes":[],"categories_segments":[],"categories_sizes":[],"default_left":[0,0,0,0,0,0,0,0,0,0,0,0,0,0,0],"id":1,"left_children":[1,3,5,-1,7,9,11,-1,-1,13,-1,-1,-1,-1,-1],"loss_changes":[6.278024E7,1.4877306E7,4.097244E6,0E0,6.674598E5,3.8835162E6,5.46976E5,0E0,0E0,4.079225E5,0E0,0E0,0E0,0E0,0E0],"parents":[2147483647,0,0,1,1,2,2,4,4,5,5,6,6,9,9],"right_children":[2,4,6,-1,8,10,12,-1,-1,14,-1,-1,-1,-1,-1],"split_conditions":[1.5513594E4,3.77E2,5.0040617E4,1.7669437E2,9.076E3,1.8926754E4,1.9996295E4,2.0949219E1,-3.267276E1,3.67E2,5.6301914E1,-1.8094728E2,-8.630711E1,-9.331213E1,-1.5557539E1],"split_indices":[10,0,11,0,6,10,10,0,0,0,0,0,0,0,0],"split_type":[0,0,0,0,0,0,0,0,0,0,0,0,0,0,0],"sum_hessian":[2.6E1,1.2E1,1.4E1,8E0,4E0,5E0,9E0,2E0,2E0,4E0,1E0,5E0,4E0,3E0,1E0],"tree_param":{"num_deleted":"0","num_feature":"12","num_nodes":"15","size_leaf_vector":"1"}},{"base_weights":[6.4858776E-1,1.3503147E3,-1.2526592E3,1.597358E2,-8.323711E1,-7.682254E2,-1.5767958E2,1.9831926E1,-3.0930206E1,-1.10354E1,-8.729271E1,5.4049843E1,-3.721034E1],"categories":[],"categories_nodes":[],"categories_segments":[],"categories_sizes":[],"default_left":[0,0,0,0,0,0,0,0,0,0,0,0,0],"id":2,"left_children":[1,3,5,-1,7,9,-1,-1,-1,11,-1,-1,-1],"loss_changes":[4.5671708E7,1.2212302E7,3.357636E6,0E0,5.9816256E5,2.433179E6,0E0,0E0,0E0,1.5614815E6,0E0,0E0,0E0],"parents":[2147483647,0,0,1,1,2,2,4,4,5,5,9,9],"right_children":[2,4,6,-1,8,10,-1,-1,-1,12,-1,-1,-1],"split_conditions":[1.5513594E4,3.77E2,3.0912375E4,1.597358E2,9.076E3,1.0477177E4,-1.5767958E2,1.9831926E1,-3.0930206E1,3.65E2,-8.729271E1,5.4049843E1,-3.721034E1],"split_indices":[10,0,4,0,6,6,0,0,0,0,0,0,0],"split_type":[0,0,0,0,0,0,0,0,0,0,0,0,0],"sum_hessian":[2.5E1,1.2E1,1.3E1,8E0,4E0,9E0,4E0,2E0,2E0,3E0,6E0,1E0,2E0],"tree_param":{"num_deleted":"0","num_feature":"12","num_nodes":"13","size_leaf_vector":"1"}},{"base_weights":[-3.530848E1,1.3847079E3,-1.351373E3,2.04391E3,-7.879765E1,-5.237436E2,-1.7529735E3,7.0933334E1,1.7983073E2,1.8774218E1,-2.9280573E1,-8.879315E2,5.188785E1,-1.8177827E2,-8.917129E1,-8.206973E1,-1.34468355E1],"categories":[],"categories_nodes":[],"categories_segments":[],"categories_sizes":[],"default_left":[0,0,0,0,0,0,0,0,0,0,0,0,0,0,0,0,0],"id":3,"left_children":[1,3,5,7,9,11,13,-1,-1,-1,-1,15,-1,-1,-1,-1,-1],"loss_changes":[5.046092E7,1.2702756E7,3.73516E6,1.31304E5,5.3605925E5,3.137627E6,4.50396E5,0E0,0E0,0E0,0E0,3.240445E5,0E0,0E0,0E0,0E0,0E0],"parents":[2147483647,0,0,1,1,2,2,3,3,4,4,5,5,6,6,11,11],"right_children":[2,4,6,8,10,12,14,-1,-1,-1,-1,16,-1,-1,-1,-1,-1],"split_conditions":[1.5513594E4,3.77E2,5.0040617E4,2.3333333E-1,9.076E3,1.8926754E4,1.8982324E4,7.0933334E1,1.7983073E2,1.8774218E1,-2.9280573E1,3.67E2,5.188785E1,-1.8177827E2,-8.917129E1,-8.206973E1,-1.34468355E1],"split_indices":[10,0,11,1,6,10,10,0,0,0,0,0,0,0,0,0,0],"split_type":[0,0,0,0,0,0,0,0,0,0,0,0,0,0,0,0,0],"sum_hessian":[2.5E1,1.2E1,1.3E1,8E0,4E0,5E0,8E0,2E0,6E0,2E0,2E0,4E0,1E0,3E0,5E0,3E0,1E0],"tree_param":{"num_deleted":"0","num_feature":"12","num_nodes":"17","size_leaf_vector":"1"}},{"base_weights":[1.1701548E1,1.3826405E3,-1.262149E3,-1.7655469E2,1.4944437E2,-6.593568E2,-1.7707474E3,1.3329687E1,-2.7718956E1,-8.263253E1,3.0752832E2,-1.6961494E2,-4.784797E1,-1.2908945E1,4.9812344E1],"categories":[],"categories_nodes":[],"categories_segments":[],"categories_sizes":[],"default_left":[0,0,0,0,0,0,0,0,0,0,0,0,0,0,0],"id":4,"left_children":[1,3,5,7,-1,9,11,-1,-1,-1,13,-1,-1,-1,-1],"loss_changes":[4.715076E7,1.0168934E7,3.124556E6,2.9099862E5,0E0,3.2070858E6,1.6003E6,0E0,0E0,0E0,5.43751E5,0E0,0E0,0E0,0E0],"parents":[2147483647,0,0,1,1,2,2,3,3,5,5,6,6,10,10],"right_children":[2,4,6,8,-1,10,12,-1,-1,-1,14,-1,-1,-1,-1],"split_conditions":[1.5513594E4,1.1642951E4,1.216E4,9.076E3,1.4944437E2,2.5E-1,1.29088E4,1.3329687E1,-2.7718956E1,-8.263253E1,2.1554732E4,-1.6961494E2,-4.784797E1,-1.2908945E1,4.9812344E1],"split_indices":[10,10,7,6,0,1,7,0,0,0,4,0,0,0,0],"split_type":[0,0,0,0,0,0,0,0,0,0,0,0,0,0,0],"sum_hessian":[2.5E1,1.2E1,1.3E1,3E0,9E0,7E0,6E0,1E0,2E0,5E0,2E0,4E0,2E0,1E0,1E0],"tree_param":{"num_deleted":"0","num_feature":"12","num_nodes":"15","size_leaf_vector":"1"}},{"base_weights":[-6.2223236E1,1.2039452E3,-1.3239471E3,1.7335547E3,-9.60627E1,-3.9585175E1,-1.5050911E3,7.152017E1,1.5725186E2,1.3432265E1,-2.6240623E1,-1.5875955E2,-7.581176E1],"categories":[],"categories_nodes":[],"categories_segments":[],"categories_sizes":[],"default_left":[0,0,0,0,0,0,0,0,0,0,0,0,0],"id":5,"left_children":[1,3,5,7,9,-1,11,-1,-1,-1,-1,-1,-1],"loss_changes":[4.472795E7,9.80548E6,1.35795E6,1.91256E5,3.6120172E5,0E0,1.059044E6,0E0,0E0,0E0,0E0,0E0,0E0],"parents":[2147483647,0,0,1,1,2,2,3,3,4,4,6,6],"right_children":[2,4,6,8,10,-1,12,-1,-1,-1,-1,-1,-1],"split_conditions":[1.5513594E4,3.77E2,4.7705875E4,2.3333333E-1,9.076E3,-3.9585175E1,1.8982324E4,7.152017E1,1.5725186E2,1.3432265E1,-2.6240623E1,-1.5875955E2,-7.581176E1],"split_indices":[10,0,11,1,6,0,10,0,0,0,0,0,0],"split_type":[0,0,0,0,0,0,0,0,0,0,0,0,0],"sum_hessian":[2.6E1,1.3E1,1.3E1,9E0,4E0,3E0,1E1,3E0,6E0,2E0,2E0,4E0,6E0],"tree_param":{"num_deleted":"0","num_feature":"12","num_nodes":"13","size_leaf_vector":"1"}},{"base_weights":[1.7675926E1,1.1230554E3,-1.0889661E3,-9.093965E1,1.6177473E3,-5.7607214E2,-1.6768126E3,1.2715859E1,-2.4841145E1,6.722894E1,1.4646887E2,-7.069402E1,3.3369272E2,-1.4859894E2,-3.0937695E1,-1.0809179E1,5.0852303E1],"categories":[],"categories_nodes":[],"categories_segments":[],"categories_sizes":[],"default_left":[0,0,0,0,0,0,0,0,0,0,0,0,0,0,0,0,0],"id":6,"left_children":[1,3,5,7,9,11,13,-1,-1,-1,-1,-1,15,-1,-1,-1,-1],"loss_changes":[3.4250972E7,8.554868E6,3.255075E6,3.2370097E5,1.18128E5,2.8134952E6,6.80186E5,0E0,0E0,0E0,0E0,0E0,5.1057103E5,0E0,0E0,0E0,0E0],"parents":[2147483647,0,0,1,1,2,2,3,3,4,4,5,5,6,6,12,12],"right_children":[2,4,6,8,10,12,14,-1,-1,-1,-1,-1,16,-1,-1,-1,-1],"split_conditions":[1.5513594E4,2.4385357E4,1.216E4,9.076E3,2.3333333E-1,2.5E-1,1.1175385E4,1.2715859E1,-2.4841145E1,6.722894E1,1.4646887E2,-7.069402E1,5.03152E4,-1.4859894E2,-3.0937695E1,-1.0809179E1,5.0852303E1],"split_indices":[10,11,7,6,1,1,6,0,0,0,0,0,5,0,0,0,0],"split_type":[0,0,0,0,0,0,0,0,0,0,0,0,0,0,0,0,0],"sum_hessian":[2.6E1,1.3E1,1.3E1,4E0,9E0,8E0,5E0,2E0,2E0,3E0,6E0,6E0,2E0,4E0,1E0,1E0,1E0],"tree_param":{"num_deleted":"0","num_feature":"12","num_nodes":"17","size_leaf_vector":"1"}},{"base_weights":[-1.6997298E2,8.8332574E2,-1.0481509E3,1.1596607E2,-8.6089645E1,-3.317211E2,-1.4544543E3,1.2037682E1,-2.35163E1,-6.421564E2,4.8818203E1,-1.4315881E2,-5.3764168E1,-5.9027233E1,-1.0376797E1],"categories":[],"categories_nodes":[],"categories_segments":[],"categories_sizes":[],"default_left":[0,0,0,0,0,0,0,0,0,0,0,0,0,0,0],"id":7,"left_children":[1,3,5,-1,7,9,11,-1,-1,13,-1,-1,-1,-1,-1],"loss_changes":[2.2200484E7,6.16304E6,3.30167E6,0E0,2.9009394E5,2.1463455E6,8.94404E5,0E0,0E0,1.4945975E5,0E0,0E0,0E0,0E0,0E0],"parents":[2147483647,0,0,1,1,2,2,4,4,5,5,6,6,9,9],"right_children":[2,4,6,-1,8,10,12,-1,-1,14,-1,-1,-1,-1,-1],"split_conditions":[1.3497881E4,3.77E2,5.0040617E4,1.1596607E2,9.076E3,1.8926754E4,1.9996295E4,1.2037682E1,-2.35163E1,3.67E2,4.8818203E1,-1.4315881E2,-5.3764168E1,-5.9027233E1,-1.0376797E1],"split_indices":[10,0,11,0,6,10,10,0,0,0,0,0,0,0,0],"split_type":[0,0,0,0,0,0,0,0,0,0,0,0,0,0,0],"sum_hessian":[2.2E1,1E1,1.2E1,6E0,4E0,5E0,7E0,2E0,2E0,4E0,1E0,4E0,3E0,3E0,1E0],"tree_param":{"num_deleted":"0","num_feature":"12","num_nodes":"15","size_leaf_vector":"1"}},{"base_weights":[1.679416E1,1.0605203E3,-8.790278E2,1.4129244E3,2.480713E0,-1.1478949E3,8.011377E1,1.3205942E2,5.6237286E1,1.139565E1,-1.6696562E1,-7.507031E2,-1.4743845E3,4.6865467E1,-2.2698175E1,-6.492416E1,-1.5424414E1,-2.7549608E1,-1.3366364E2],"categories":[],"categories_nodes":[],"categories_segments":[],"categories_sizes":[],"default_left":[0,0,0,0,0,0,0,0,0,0,0,0,0,0,0,0,0,0,0],"id":8,"left_children":[1,3,5,7,9,11,13,-1,-1,-1,-1,15,17,-1,-1,-1,-1,-1,-1],"loss_changes":[2.4307044E7,4.470785E6,3.702306E6,3.59154E5,1.4796492E5,3.19643E5,9.021968E5,0E0,0E0,0E0,0E0,8.11605E4,5.34365E5,0E0,0E0,0E0,0E0,0E0,0E0],"parents":[2147483647,0,0,1,1,2,2,3,3,4,4,5,5,6,6,11,11,12,12],"right_children":[2,4,6,8,10,12,14,-1,-1,-1,-1,16,18,-1,-1,-1,-1,-1,-1],"split_conditions":[1.5513594E4,3.77E2,2.6666668E-1,6.38622E4,2.6666668E-1,1.216E4,3.65E2,1.3205942E2,5.6237286E1,1.139565E1,-1.6696562E1,4.53492E4,3.6E2,4.6865467E1,-2.2698175E1,-6.492416E1,-1.5424414E1,-2.7549608E1,-1.3366364E2],"split_indices":[10,0,2,5,2,7,0,0,0,0,0,9,0,0,0,0,0,0,0],"split_type":[0,0,0,0,0,0,0,0,0,0,0,0,0,0,0,0,0,0,0],"sum_hessian":[2.4E1,1.1E1,1.3E1,8E0,3E0,1E1,3E0,5E0,3E0,2E0,1E0,6E0,4E0,1E0,2E0,5E0,1E0,1E0,3E0],"tree_param":{"num_deleted":"0","num_feature":"12","num_nodes":"19","size_leaf_vector":"1"}},{"base_weights":[9.2124535E1,7.405509E2,-8.547274E2,-2.1658905E1,9.4903375E2,-2.9086952E1,-8.317599E1,9.541302E1,-9.8197914E1,-1.7152382E1,5.368633E0],"categories":[],"categories_nodes":[],"categories_segments":[],"categories_sizes":[],"default_left":[0,0,0,0,0,0,0,0,0,0,0],"id":9,"left_children":[1,3,5,-1,7,-1,-1,-1,9,-1,-1],"loss_changes":[1.3526208E7,2.9978065E6,4.396055E5,0E0,2.923612E6,0E0,0E0,0E0,7.201727E4,0E0,0E0],"parents":[2147483647,0,0,1,1,2,2,4,4,8,8],"right_children":[2,4,6,-1,8,-1,-1,-1,10,-1,-1],"split_conditions":[1.0477177E4,2.57325E4,1.08672E4,-2.1658905E1,3.76E2,-2.9086952E1,-8.317599E1,9.541302E1,2.5E-1,-1.7152382E1,5.368633E0],"split_indices":[6,4,6,0,0,0,0,0,2,0,0],"split_type":[0,0,0,0,0,0,0,0,0,0,0],"sum_hessian":[2E1,1.2E1,8E0,2E0,1E1,3E0,5E0,8E0,2E0,1E0,1E0],"tree_param":{"num_deleted":"0","num_feature":"12","num_nodes":"11","size_leaf_vector":"1"}},{"base_weights":[7.8763145E1,8.5899646E2,-9.214213E2,-8.478672E1,1.2449884E3,-2.0134375E1,-1.0422885E3,1.0501588E1,-2.1806484E1,4.713826E1,1.1534823E2,-1.0665402E2,-4.343551E1],"categories":[],"categories_nodes":[],"categories_segments":[],"categories_sizes":[],"default_left":[0,0,0,0,0,0,0,0,0,0,0,0,0],"id":10,"left_children":[1,3,5,7,9,-1,11,-1,-1,-1,-1,-1,-1],"loss_changes":[1.9520552E7,5.205656E6,6.28123E5,2.3865269E5,4.41379E5,0E0,5.83436E5,0E0,0E0,0E0,0E0,0E0,0E0],"parents":[2147483647,0,0,1,1,2,2,3,3,4,4,6,6],"right_children":[2,4,6,8,10,-1,12,-1,-1,-1,-1,-1,-1],"split_conditions":[1.5513594E4,2.4385357E4,1.0736E4,9.076E3,2.3333333E-1,-2.0134375E1,1.9996295E4,1.0501588E1,-2.1806484E1,4.713826E1,1.1534823E2,-1.0665402E2,-4.343551E1],"split_indices":[10,11,6,6,1,0,10,0,0,0,0,0,0],"split_type":[0,0,0,0,0,0,0,0,0,0,0,0,0],"sum_hessian":[2.3E1,1.3E1,1E1,4E0,9E0,2E0,8E0,2E0,2E0,3E0,6E0,4E0,4E0],"tree_param":{"num_deleted":"0","num_feature":"12","num_nodes":"13","size_leaf_vector":"1"}},{"base_weights":[1.4744995E1,7.932147E2,-8.298259E2,1.1903462E3,-8.026485E1,-3.902976E2,-1.3671061E3,3.499297E1,1.07438614E2,9.941484E0,-2.0643463E1,-5.316431E1,2.8831412E2,-2.1383163E1,-1.2601902E2,4.1979725E1,-7.382031E0],"categories":[],"categories_nodes":[],"categories_segments":[],"categories_sizes":[],"default_left":[0,0,0,0,0,0,0,0,0,0,0,0,0,0,0,0,0],"id":11,"left_children":[1,3,5,7,9,11,13,-1,-1,-1,-1,-1,15,-1,-1,-1,-1],"loss_changes":[1.6437578E7,4.605064E6,2.3002205E6,4.4689E5,2.1387481E5,1.6805085E6,7.23488E5,0E0,0E0,0E0,0E0,0E0,3.183723E5,0E0,0E0,0E0,0E0],"parents":[2147483647,0,0,1,1,2,2,3,3,4,4,5,5,6,6,12,12],"right_children":[2,4,6,8,10,12,14,-1,-1,-1,-1,-1,16,-1,-1,-1,-1],"split_conditions":[1.5513594E4,3.77E2,1.216E4,2.3333333E-1,9.076E3,2.5E-1,3.6E2,3.499297E1,1.07438614E2,9.941484E0,-2.0643463E1,-5.316431E1,3.65E2,-2.1383163E1,-1.2601902E2,4.1979725E1,-7.382031E0],"split_indices":[10,0,7,1,6,1,0,0,0,0,0,0,0,0,0,0,0],"split_type":[0,0,0,0,0,0,0,0,0,0,0,0,0,0,0,0,0],"sum_hessian":[2.3E1,1.2E1,1.1E1,8E0,4E0,7E0,4E0,2E0,6E0,2E0,2E0,5E0,2E0,1E0,3E0,1E0,1E0],"tree_param":{"num_deleted":"0","num_feature":"12","num_nodes":"17","size_leaf_vector":"1"}},{"base_weights":[9.945613E1,7.490604E2,-6.077682E2,-7.5983986E1,1.0866765E3,-3.41382E2,-9.6570966E2,-1.9542475E1,9.411276E0,4.221035E1,1.000714E2,-5.575404E2,2.767816E2,-8.848696E1,-1.6168007E1,-4.9620033E1,-7.2512107E0,-7.0867577E0,4.0300545E1],"categories":[],"categories_nodes":[],"categories_segments":[],"categories_sizes":[],"default_left":[0,0,0,0,0,0,0,0,0,0,0,0,0,0,0,0,0,0,0],"id":12,"left_children":[1,3,5,7,9,11,13,-1,-1,-1,-1,15,17,-1,-1,-1,-1,-1,-1],"loss_changes":[1.2400069E7,3.982246E6,9.09883E5,1.9166986E5,2.58038E5,1.356908E6,3.12427E5,0E0,0E0,0E0,0E0,1.487355E5,2.934122E5,0E0,0E0,0E0,0E0,0E0,0E0],"parents":[2147483647,0,0,1,1,2,2,3,3,4,4,5,5,6,6,11,11,12,12],"right_children":[2,4,6,8,10,12,14,-1,-1,-1,-1,16,18,-1,-1,-1,-1,-1,-1],"split_conditions":[1.5513594E4,2.4385357E4,1.216E4,1.0589852E4,2.3333333E-1,2.5E-1,2.6666668E-1,-1.9542475E1,9.411276E0,4.221035E1,1.000714E2,4.53492E4,2.1554732E4,-8.848696E1,-1.6168007E1,-4.9620033E1,-7.2512107E0,-7.0867577E0,4.0300545E1],"split_indices":[10,11,7,10,1,1,1,0,0,0,0,9,4,0,0,0,0,0,0],"split_type":[0,0,0,0,0,0,0,0,0,0,0,0,0,0,0,0,0,0,0],"sum_hessian":[2.5E1,1.3E1,1.2E1,4E0,9E0,8E0,4E0,2E0,2E0,3E0,6E0,6E0,2E0,3E0,1E0,5E0,1E0,1E0,1E0],"tree_param":{"num_deleted":"0","num_feature":"12","num_nodes":"19","size_leaf_vector":"1"}},{"base_weights":[9.506124E0,6.004229E2,-7.43434E2,-1.630315E1,7.5144073E2,-8.4619025E2,-1.4988307E1,7.30102E1,-3.6328777E1,-1.3176601E1,-9.107872E2,9.404297E0,-1.376375E1,-7.841815E1,-1.698836E1],"categories":[],"categories_nodes":[],"categories_segments":[],"categories_sizes":[],"default_left":[0,0,0,0,0,0,0,0,0,0,0,0,0,0,0],"id":13,"left_children":[1,3,5,-1,7,9,-1,-1,11,-1,13,-1,-1,-1,-1],"loss_changes":[1.1124574E7,1.8534415E6,4.70011E5,0E0,1.5568915E6,2.46181E5,0E0,0E0,8.287866E4,0E0,1.798365E5,0E0,0E0,0E0,0E0],"parents":[2147483647,0,0,1,1,2,2,4,4,5,5,8,8,10,10],"right_children":[2,4,6,-1,8,10,-1,-1,12,-1,14,-1,-1,-1,-1],"split_conditions":[1.0477177E4,2.57325E4,3.63E2,-1.630315E1,3.77E2,1.05344E4,-1.4988307E1,7.30102E1,3.78E2,-1.3176601E1,1.29088E4,9.404297E0,-1.376375E1,-7.841815E1,-1.698836E1],"split_indices":[6,4,0,0,0,7,0,0,0,0,7,0,0,0,0],"split_type":[0,0,0,0,0,0,0,0,0,0,0,0,0,0,0],"sum_hessian":[2.3E1,1.3E1,1E1,2E0,1.1E1,8E0,2E0,9E0,2E0,1E0,7E0,1E0,1E0,6E0,1E0],"tree_param":{"num_deleted":"0","num_feature":"12","num_nodes":"15","size_leaf_vector":"1"}},{"base_weights":[-9.246225E0,6.9554553E2,-6.630353E2,9.48262E2,-1.1013208E2,-2.8888092E2,-9.959209E2,3.529717E1,8.820299E1,9.028125E0,-1.7766172E1,-5.0857852E2,2.4680794E2,-1.0973668E2,-2.9692245E1,-4.627888E1,-6.3616405E0,3.5768124E1,-6.1511717E0],"categories":[],"categories_nodes":[],"categories_segments":[],"categories_sizes":[],"default_left":[0,0,0,0,0,0,0,0,0,0,0,0,0,0,0,0,0,0,0],"id":14,"left_children":[1,3,5,7,9,11,13,-1,-1,-1,-1,15,17,-1,-1,-1,-1,-1,-1],"loss_changes":[1.2441584E7,2.7513385E6,1.456006E6,2.95793E5,1.2490944E5,1.0670376E6,1.1343465E6,0E0,0E0,0E0,0E0,1.3396488E5,2.2888117E5,0E0,0E0,0E0,0E0,0E0,0E0],"parents":[2147483647,0,0,1,1,2,2,3,3,4,4,5,5,6,6,11,11,12,12],"right_children":[2,4,6,8,10,12,14,-1,-1,-1,-1,16,18,-1,-1,-1,-1,-1,-1],"split_conditions":[1.5513594E4,3.77E2,1.216E4,2.3333333E-1,3.78E2,2.5E-1,1.26464E4,3.529717E1,8.820299E1,9.028125E0,-1.7766172E1,4.53492E4,3.65E2,-1.0973668E2,-2.9692245E1,-4.627888E1,-6.3616405E0,3.5768124E1,-6.1511717E0],"split_indices":[10,0,7,1,0,1,7,0,0,0,0,9,0,0,0,0,0,0,0],"split_type":[0,0,0,0,0,0,0,0,0,0,0,0,0,0,0,0,0,0,0],"sum_hessian":[2.5E1,1.2E1,1.3E1,9E0,3E0,7E0,6E0,3E0,6E0,1E0,2E0,5E0,2E0,3E0,3E0,4E0,1E0,1E0,1E0],"tree_param":{"num_deleted":"0","num_feature":"12","num_nodes":"19","size_leaf_vector":"1"}},{"base_weights":[-5.123499E0,6.11715E2,-6.2159607E2,8.847511E2,-5.67E1,-2.6864832E2,-9.361655E2,3.3179356E1,8.215477E1,9.25862E0,-1.6818619E1,-4.7666553E2,2.3693555E2,-1.03152466E2,-2.7910702E1,-4.3317017E1,-6.1071873E0,3.4337383E1,-5.905117E0],"categories":[],"categories_nodes":[],"categories_segments":[],"categories_sizes":[],"default_left":[0,0,0,0,0,0,0,0,0,0,0,0,0,0,0,0,0,0,0],"id":15,"left_children":[1,3,5,7,9,11,13,-1,-1,-1,-1,15,17,-1,-1,-1,-1,-1,-1],"loss_changes":[1.0647369E7,2.605185E6,1.3028725E6,2.42363E5,1.5670117E5,9.543002E5,1.0023085E6,0E0,0E0,0E0,0E0,1.14304625E5,2.1093661E5,0E0,0E0,0E0,0E0,0E0,0E0],"parents":[2147483647,0,0,1,1,2,2,3,3,4,4,5,5,6,6,11,11,12,12],"right_children":[2,4,6,8,10,12,14,-1,-1,-1,-1,16,18,-1,-1,-1,-1,-1,-1],"split_conditions":[1.5513594E4,3.77E2,1.216E4,2.3333333E-1,9.076E3,2.5E-1,1.26464E4,3.3179356E1,8.215477E1,9.25862E0,-1.6818619E1,4.53492E4,3.65E2,-1.03152466E2,-2.7910702E1,-4.3317017E1,-6.1071873E0,3.4337383E1,-5.905117E0],"split_indices":[10,0,7,1,6,1,7,0,0,0,0,9,0,0,0,0,0,0,0],"split_type":[0,0,0,0,0,0,0,0,0,0,0,0,0,0,0,0,0,0,0],"sum_hessian":[2.6E1,1.3E1,1.3E1,9E0,4E0,7E0,6E0,3E0,6E0,2E0,2E0,5E0,2E0,3E0,3E0,4E0,1E0,1E0,1E0],"tree_param":{"num_deleted":"0","num_feature":"12","num_nodes":"19","size_leaf_vector":"1"}},{"base_weights":[-4.1560078E1,5.704761E2,-6.97479E2,8.255046E2,-5.367617E1,-4.153226E2,-8.7999554E2,8.4501144E1,3.964966E1,8.764817E0,-1.592164E1,-4.3973152E1,-1.4172011E1,-9.6963326E1,-2.6236044E1],"categories":[],"categories_nodes":[],"categories_segments":[],"categories_sizes":[],"default_left":[0,0,0,0,0,0,0,0,0,0,0,0,0,0,0],"id":16,"left_children":[1,3,5,7,9,11,13,-1,-1,-1,-1,-1,-1,-1,-1],"loss_changes":[1.0835494E7,2.2727825E6,3.039945E5,2.37732E5,1.4043216E5,1.266025E5,8.85641E5,0E0,0E0,0E0,0E0,0E0,0E0,0E0,0E0],"parents":[2147483647,0,0,1,1,2,2,3,3,4,4,5,5,6,6],"right_children":[2,4,6,8,10,12,14,-1,-1,-1,-1,-1,-1,-1,-1],"split_conditions":[2.7660963E4,3.77E2,1.216E4,3.72E2,9.076E3,1.3E1,1.26464E4,8.4501144E1,3.964966E1,8.764817E0,-1.592164E1,-4.3973152E1,-1.4172011E1,-9.6963326E1,-2.6236044E1],"split_indices":[11,0,7,0,6,3,7,0,0,0,0,0,0,0,0],"split_type":[0,0,0,0,0,0,0,0,0,0,0,0,0,0,0],"sum_hessian":[2.5E1,1.3E1,1.2E1,9E0,4E0,6E0,6E0,4E0,5E0,2E0,2E0,3E0,3E0,3E0,3E0],"tree_param":{"num_deleted":"0","num_feature":"12","num_nodes":"15","size_leaf_vector":"1"}},{"base_weights":[-2.5845762E1,3.7085464E2,-7.72297E2,-8.803935E1,5.188251E2,-1.0939336E3,-2.369608E1,-3.1961658E2,3.353078E1,7.7764355E2,-5.0813282E1,-2.480035E1,-9.699318E1,-3.069108E1,-5.102031E0,7.909307E1,3.2887592E1,8.29737E0,-1.50724745E1],"categories":[],"categories_nodes":[],"categories_segments":[],"categories_sizes":[],"default_left":[0,0,0,0,0,0,0,0,0,0,0,0,0,0,0,0,0,0,0],"id":17,"left_children":[1,3,5,7,9,11,-1,13,-1,15,17,-1,-1,-1,-1,-1,-1,-1,-1],"loss_changes":[7.689347E6,1.2000235E6,1.054145E6,7.212123E5,1.956143E6,8.85505E4,0E0,4.1051062E4,0E0,2.897065E5,1.2585215E5,0E0,0E0,0E0,0E0,0E0,0E0,0E0,0E0],"parents":[2147483647,0,0,1,1,2,2,3,3,4,4,5,5,7,7,9,9,10,10],"right_children":[2,4,6,8,10,12,-1,14,-1,16,18,-1,-1,-1,-1,-1,-1,-1,-1],"split_conditions":[5.0040617E4,3.68E2,1.9996295E4,1.8493402E4,3.76E2,2.8921732E4,-2.369608E1,3.67E2,3.353078E1,3.72E2,9.076E3,-2.480035E1,-9.699318E1,-3.069108E1,-5.102031E0,7.909307E1,3.2887592E1,8.29737E0,-1.50724745E1],"split_indices":[11,0,10,10,0,4,0,0,0,0,6,0,0,0,0,0,0,0,0],"split_type":[0,0,0,0,0,0,0,0,0,0,0,0,0,0,0,0,0,0,0],"sum_hessian":[2.4E1,1.6E1,8E0,4E0,1.2E1,4E0,4E0,3E0,1E0,8E0,4E0,1E0,3E0,2E0,1E0,4E0,4E0,2E0,2E0],"tree_param":{"num_deleted":"0","num_feature":"12","num_nodes":"19","size_leaf_vector":"1"}},{"base_weights":[-4.9609863E1,4.5892526E2,-4.87033E2,6.896162E2,-4.8103516E1,-2.78154E2,-6.793281E1,8.070851E1,3.634259E1,7.8548174E0,-1.426862E1,-4.254472E2,2.564437E2,-1.4791702E1,-4.6472694E1,-1.416289E0,3.218953E1],"categories":[],"categories_nodes":[],"categories_segments":[],"categories_sizes":[],"default_left":[0,0,0,0,0,0,0,0,0,0,0,0,0,0,0,0,0],"id":18,"left_children":[1,3,5,7,9,11,-1,-1,-1,-1,-1,13,15,-1,-1,-1,-1],"loss_changes":[6.2295275E6,1.553743E6,8.9841425E5,2.178465E5,1.12785734E5,9.752721E5,0E0,0E0,0E0,0E0,0E0,2.2915975E5,1.2713861E5,0E0,0E0,0E0,0E0],"parents":[2147483647,0,0,1,1,2,2,3,3,4,4,5,5,11,11,12,12],"right_children":[2,4,6,8,10,12,-1,-1,-1,-1,-1,14,16,-1,-1,-1,-1],"split_conditions":[1.5513594E4,3.77E2,3.0912375E4,2.8666072E4,9.076E3,4.8141E4,-6.793281E1,8.070851E1,3.634259E1,7.8548174E0,-1.426862E1,1.0743467E4,3.64E2,-1.4791702E1,-4.6472694E1,-1.416289E0,3.218953E1],"split_indices":[10,0,4,4,6,9,0,0,0,0,0,6,0,0,0,0,0],"split_type":[0,0,0,0,0,0,0,0,0,0,0,0,0,0,0,0,0],"sum_hessian":[2.6E1,1.2E1,1.4E1,8E0,4E0,1E1,4E0,2E0,6E0,2E0,2E0,8E0,2E0,4E0,4E0,1E0,1E0],"tree_param":{"num_deleted":"0","num_feature":"12","num_nodes":"17","size_leaf_vector":"1"}},{"base_weights":[-4.1707207E1,5.251635E2,-4.5463193E2,6.1088354E2,7.435911E0,-1.7320296E2,-7.515218E2,2.2834648E1,5.8082928E1,-3.2819775E2,2.4618587E2,-8.3005226E1,-2.220782E1,-1.354657E1,-3.8685963E1,-1.3596485E0,3.0901953E1],"categories":[],"categories_nodes":[],"categories_segments":[],"categories_sizes":[],"default_left":[0,0,0,0,0,0,0,0,0,0,0,0,0,0,0,0,0],"id":19,"left_children":[1,3,5,7,-1,9,11,-1,-1,13,15,-1,-1,-1,-1,-1,-1],"loss_changes":[6.0906295E6,3.5076325E5,1.1231352E6,1.300545E5,0E0,6.6582544E5,6.6091425E5,0E0,0E0,9.09035E4,1.1717108E5,0E0,0E0,0E0,0E0,0E0,0E0],"parents":[2147483647,0,0,1,1,2,2,3,3,5,5,6,6,9,9,10,10],"right_children":[2,4,6,8,-1,10,12,-1,-1,14,16,-1,-1,-1,-1,-1,-1],"split_conditions":[1.3497881E4,3.77E2,1.216E4,2.3333333E-1,7.435911E0,4.53492E4,1.26464E4,2.2834648E1,5.8082928E1,3.0912375E4,3.64E2,-8.3005226E1,-2.220782E1,-1.354657E1,-3.8685963E1,-1.3596485E0,3.0901953E1],"split_indices":[10,0,7,1,0,9,7,0,0,4,0,0,0,0,0,0,0],"split_type":[0,0,0,0,0,0,0,0,0,0,0,0,0,0,0,0,0],"sum_hessian":[2.4E1,1E1,1.4E1,8E0,2E0,8E0,6E0,3E0,5E0,6E0,2E0,3E0,3E0,4E0,2E0,1E0,1E0],"tree_param":{"num_deleted":"0","num_feature":"12","num_nodes":"17","size_leaf_vector":"1"}},{"base_weights":[-3.212907E1,4.482846E2,-5.102478E2,6.533416E2,-5.148633E1,-3.4127817E2,-7.461375E2,2.146455E1,7.800269E2,7.0393486E0,-1.3904193E1,-1.3918279E2,-5.15537E2,-1.8195194E1,-6.551615E1,7.6284996E1,3.291877E1,-1.2839437E1,-1.3052734E0,-1.3526615E1,-5.5211655E1],"categories":[],"categories_nodes":[],"categories_segments":[],"categories_sizes":[],"default_left":[0,0,0,0,0,0,0,0,0,0,0,0,0,0,0,0,0,0,0,0,0],"id":20,"left_children":[1,3,5,7,9,11,13,-1,15,-1,-1,17,19,-1,-1,-1,-1,-1,-1,-1,-1],"loss_changes":[6.4304955E6,1.4683792E6,3.03374E5,2.78496E5,1.0059533E5,2.8041538E5,2.581E3,0E0,5.531E4,0E0,0E0,1.30913125E4,1.8577788E5,0E0,0E0,0E0,0E0,0E0,0E0,0E0,0E0],"parents":[2147483647,0,0,1,1,2,2,3,3,4,4,5,5,6,6,8,8,11,11,12,12],"right_children":[2,4,6,8,10,12,14,-1,16,-1,-1,18,20,-1,-1,-1,-1,-1,-1,-1,-1],"split_conditions":[1.5513594E4,3.77E2,3.0912375E4,2.3333333E-1,9.076E3,1.08672E4,3.56E2,2.146455E1,3.72E2,7.0393486E0,-1.3904193E1,3.04164E4,3.6E2,-1.8195194E1,-6.551615E1,7.6284996E1,3.291877E1,-1.2839437E1,-1.3052734E0,-1.3526615E1,-5.5211655E1],"split_indices":[10,0,4,1,6,6,0,0,0,0,0,4,0,0,0,0,0,0,0,0,0],"split_type":[0,0,0,0,0,0,0,0,0,0,0,0,0,0,0,0,0,0,0,0,0],"sum_hessian":[2.6E1,1.3E1,1.3E1,9E0,4E0,9E0,4E0,3E0,6E0,2E0,2E0,5E0,4E0,1E0,3E0,3E0,3E0,4E0,1E0,2E0,2E0],"tree_param":{"num_deleted":"0","num_feature":"12","num_nodes":"21","size_leaf_vector":"1"}},{"base_weights":[-1.7311806E1,4.6116592E2,-3.9893988E2,7.093115E2,9.480176E1,-1.4521191E2,-6.681701E2,8.051459E2,2.505203E1,1.6367911E2,-9.983398E0,-2.900096E2,2.4105339E2,-8.353188E1,-2.4715921E1,1.7613398E1,7.1707886E1,1.4730449E1,3.274922E0,-1.1846836E1,-3.4390404E1,-1.2530469E0,3.0179453E1],"categories":[],"categories_nodes":[],"categories_segments":[],"categories_sizes":[],"default_left":[0,0,0,0,0,0,0,0,0,0,0,0,0,0,0,0,0,0,0,0,0,0,0],"id":21,"left_children":[1,3,5,7,9,11,13,15,-1,17,-1,19,21,-1,-1,-1,-1,-1,-1,-1,-1,-1,-1],"loss_changes":[4.931592E6,1.023696E6,9.2764225E5,1.3629E4,1.1117633E5,5.7328075E5,6.2282725E5,6.94115E4,0E0,5.0136875E3,0E0,7.5298E4,1.10795266E5,0E0,0E0,0E0,0E0,0E0,0E0,0E0,0E0,0E0,0E0],"parents":[2147483647,0,0,1,1,2,2,3,3,4,4,5,5,6,6,7,7,9,9,11,11,12,12],"right_children":[2,4,6,8,10,12,14,16,-1,18,-1,20,22,-1,-1,-1,-1,-1,-1,-1,-1,-1,-1],"split_conditions":[1.5513594E4,2.5516572E4,1.216E4,8.746667E3,8.93371E4,4.53492E4,1.8169295E4,2.3333333E-1,2.505203E1,6.60188E4,-9.983398E0,1.1072E4,2.5E-1,-8.353188E1,-2.4715921E1,1.7613398E1,7.1707886E1,1.4730449E1,3.274922E0,-1.1846836E1,-3.4390404E1,-1.2530469E0,3.0179453E1],"split_indices":[10,8,7,6,5,9,10,1,0,5,0,6,1,0,0,0,0,0,0,0,0,0,0],"split_type":[0,0,0,0,0,0,0,0,0,0,0,0,0,0,0,0,0,0,0,0,0,0,0],"sum_hessian":[2.5E1,1.1E1,1.4E1,6E0,5E0,8E0,6E0,4E0,2E0,4E0,1E0,6E0,2E0,2E0,4E0,1E0,3E0,3E0,1E0,4E0,2E0,1E0,1E0],"tree_param":{"num_deleted":"0","num_feature":"12","num_nodes":"23","size_leaf_vector":"1"}},{"base_weights":[5.3428654E1,3.934523E2,-2.907049E2,5.990728E2,-5.535508E1,-4.8916504E1,-6.67783E2,6.740541E1,2.6951796E1,6.183776E0,-1.3564453E1,-1.6206885E2,2.3141113E2,-1.6091757E1,-5.873242E1,-1.4200775E1,-2.776953E0,-1.2029296E0,2.8972265E1],"categories":[],"categories_nodes":[],"categories_segments":[],"categories_sizes":[],"default_left":[0,0,0,0,0,0,0,0,0,0,0,0,0,0,0,0,0,0,0],"id":22,"left_children":[1,3,5,7,9,11,13,-1,-1,-1,-1,15,17,-1,-1,-1,-1,-1,-1],"loss_changes":[3.039717E6,1.2328538E6,1.152585E6,2.90686E5,8.8851016E4,3.229821E5,7.18525E3,0E0,0E0,0E0,0E0,7.6037812E3,1.0210892E5,0E0,0E0,0E0,0E0,0E0,0E0],"parents":[2147483647,0,0,1,1,2,2,3,3,4,4,5,5,6,6,11,11,12,12],"right_children":[2,4,6,8,10,12,14,-1,-1,-1,-1,16,18,-1,-1,-1,-1,-1,-1],"split_conditions":[2.7660963E4,3.77E2,2.01005E4,3.72E2,9.076E3,4.8141E4,3.56E2,6.740541E1,2.6951796E1,6.183776E0,-1.3564453E1,3.67E2,3.64E2,-1.6091757E1,-5.873242E1,-1.4200775E1,-2.776953E0,-1.2029296E0,2.8972265E1],"split_indices":[11,0,8,0,6,9,0,0,0,0,0,0,0,0,0,0,0,0,0],"split_type":[0,0,0,0,0,0,0,0,0,0,0,0,0,0,0,0,0,0,0],"sum_hessian":[2.4E1,1.2E1,1.2E1,8E0,4E0,8E0,4E0,3E0,5E0,2E0,2E0,6E0,2E0,1E0,3E0,5E0,1E0,1E0,1E0],"tree_param":{"num_deleted":"0","num_feature":"12","num_nodes":"19","size_leaf_vector":"1"}},{"base_weights":[-6.939815E0,2.5369926E2,-5.564068E2,3.7001324E2,-5.9983234E1,-8.1693634E2,-1.4767672E1,4.7151804E2,-1.6281738E0,-2.1104668E2,2.7813358E1,-7.304563E1,-1.7295996E1,-8.931875E0,4.327996E1,-9.041484E0,5.8539844E0,-2.6658592E0,-1.9771738E1],"categories":[],"categories_nodes":[],"categories_segments":[],"categories_sizes":[],"default_left":[0,0,0,0,0,0,0,0,0,0,0,0,0,0,0,0,0,0,0],"id":23,"left_children":[1,3,5,7,9,11,-1,13,15,17,-1,-1,-1,-1,-1,-1,-1,-1,-1],"loss_changes":[4.0078995E6,7.154221E5,7.2100625E5,5.28895E5,4.4286025E5,9.13505E4,0E0,5.0611375E5,4.1599438E4,2.384339E4,0E0,0E0,0E0,0E0,0E0,0E0,0E0,0E0,0E0],"parents":[2147483647,0,0,1,1,2,2,3,3,4,4,5,5,7,7,8,8,9,9],"right_children":[2,4,6,8,10,12,-1,14,16,18,-1,-1,-1,-1,-1,-1,-1,-1,-1],"split_conditions":[5.0040617E4,2.5E-1,1.9996295E4,3.77E2,1.8926754E4,1.26464E4,-1.4767672E1,3.67E2,2.5E-1,5.03152E4,2.7813358E1,-7.304563E1,-1.7295996E1,-8.931875E0,4.327996E1,-9.041484E0,5.8539844E0,-2.6658592E0,-1.9771738E1],"split_indices":[11,1,10,0,10,7,0,0,2,5,0,0,0,0,0,0,0,0,0],"split_type":[0,0,0,0,0,0,0,0,0,0,0,0,0,0,0,0,0,0,0],"sum_hessian":[2.6E1,1.8E1,8E0,1.3E1,5E0,4E0,4E0,1E1,3E0,4E0,1E0,3E0,1E0,1E0,9E0,1E0,2E0,1E0,3E0],"tree_param":{"num_deleted":"0","num_feature":"12","num_nodes":"19","size_leaf_vector":"1"}},{"base_weights":[-1.9011719E0,3.758098E2,-3.2551764E2,-7.786719E1,5.356874E2,-1.05894806E2,-6.00699E2,5.6502733E0,-1.2072681E1,1.363526E1,6.156949E2,-2.2237047E2,2.0118001E2,-7.323622E1,-1.7156708E1,6.0764275E1,2.5433008E1,-2.559248E1,-5.539385E0,-2.5592186E0,2.6700819E1],"categories":[],"categories_nodes":[],"categories_segments":[],"categories_sizes":[],"default_left":[0,0,0,0,0,0,0,0,0,0,0,0,0,0,0,0,0,0,0,0,0],"id":24,"left_children":[1,3,5,7,9,11,13,-1,-1,-1,15,17,19,-1,-1,-1,-1,-1,-1,-1,-1],"loss_changes":[3.1781702E6,9.121061E5,7.8249475E5,5.4043703E4,1.5806275E5,3.6663716E5,5.330965E5,0E0,0E0,0E0,5.839825E4,8.239706E4,1.0341837E5,0E0,0E0,0E0,0E0,0E0,0E0,0E0,0E0],"parents":[2147483647,0,0,1,1,2,2,3,3,4,4,5,5,6,6,10,10,11,11,12,12],"right_children":[2,4,6,8,10,12,14,-1,-1,-1,16,18,20,-1,-1,-1,-1,-1,-1,-1,-1],"split_conditions":[1.5513594E4,1.1642951E4,1.216E4,9.076E3,2.3333333E-1,2.5E-1,1.8169295E4,5.6502733E0,-1.2072681E1,1.363526E1,3.1967166E4,2.1666667E-1,2.1554732E4,-7.323622E1,-1.7156708E1,6.0764275E1,2.5433008E1,-2.559248E1,-5.539385E0,-2.5592186E0,2.6700819E1],"split_indices":[10,10,7,6,1,1,10,0,0,0,4,2,4,0,0,0,0,0,0,0,0],"split_type":[0,0,0,0,0,0,0,0,0,0,0,0,0,0,0,0,0,0,0,0,0],"sum_hessian":[2.4E1,1.1E1,1.3E1,3E0,8E0,8E0,5E0,1E0,2E0,2E0,6E0,6E0,2E0,2E0,3E0,3E0,3E0,3E0,3E0,1E0,1E0],"tree_param":{"num_deleted":"0","num_feature":"12","num_nodes":"21","size_leaf_vector":"1"}},{"base_weights":[4.4317384E0,3.8763803E2,-3.2434735E2,6.308641E2,1.8716699E2,-9.8200035E1,-6.0951044E2,1.1936015E1,5.7118397E1,2.4317996E2,-8.196953E0,-2.2490492E2,2.3017805E2,-6.9330284E1,-2.1143536E1,2.088871E1,5.4242578E0,-9.076757E0,-2.6854322E1,1.9885937E0,2.5632772E1],"categories":[],"categories_nodes":[],"categories_segments":[],"categories_sizes":[],"default_left":[0,0,0,0,0,0,0,0,0,0,0,0,0,0,0,0,0,0,0,0,0],"id":25,"left_children":[1,3,5,7,9,11,13,-1,-1,15,-1,17,19,-1,-1,-1,-1,-1,-1,-1,-1],"loss_changes":[3.2754845E6,4.6704038E5,8.4299025E5,9.3643625E4,1.5470047E5,4.2623216E5,3.0352325E5,0E0,0E0,4.3062188E3,0E0,4.8330938E4,4.7614656E4,0E0,0E0,0E0,0E0,0E0,0E0,0E0,0E0],"parents":[2147483647,0,0,1,1,2,2,3,3,4,4,5,5,6,6,9,9,11,11,12,12],"right_children":[2,4,6,8,10,12,14,-1,-1,16,-1,18,20,-1,-1,-1,-1,-1,-1,-1,-1],"split_conditions":[1.5513594E4,3.72E2,1.216E4,3.69E2,3.78E2,4.53492E4,1.8169295E4,1.1936015E1,5.7118397E1,3.77E2,-8.196953E0,3.0912375E4,3.64E2,-6.9330284E1,-2.1143536E1,2.088871E1,5.4242578E0,-9.076757E0,-2.6854322E1,1.9885937E0,2.5632772E1],"split_indices":[10,0,7,0,0,9,10,0,0,0,0,4,0,0,0,0,0,0,0,0,0],"split_type":[0,0,0,0,0,0,0,0,0,0,0,0,0,0,0,0,0,0,0,0,0],"sum_hessian":[2.4E1,1.1E1,1.3E1,4E0,7E0,8E0,5E0,1E0,3E0,6E0,1E0,6E0,2E0,2E0,3E0,5E0,1E0,4E0,2E0,1E0,1E0],"tree_param":{"num_deleted":"0","num_feature":"12","num_nodes":"21","size_leaf_vector":"1"}},{"base_weights":[-4.511787E1,2.976748E2,-2.934913E2,4.9932925E2,-4.417637E1,-9.12672E1,-5.115664E2,5.5364086E1,2.270642E1,5.1014585E0,-1.099164E1,-2.1204533E2,2.2097087E2,-6.563268E1,-2.2394785E2,-8.495828E0,-2.5422083E1,1.909043E0,2.460746E1,-5.0397263E0,-1.9874922E1],"categories":[],"categories_nodes":[],"categories_segments":[],"categories_sizes":[],"default_left":[0,0,0,0,0,0,0,0,0,0,0,0,0,0,0,0,0,0,0,0,0],"id":26,"left_children":[1,3,5,7,9,11,13,-1,-1,-1,-1,15,17,-1,19,-1,-1,-1,-1,-1,-1],"loss_changes":[2.21588E6,7.8035244E5,6.1481125E5,9.4294375E4,5.9073984E4,3.8625962E5,4.380725E5,0E0,0E0,0E0,0E0,4.4592188E4,4.388175E4,0E0,4.0567656E3,0E0,0E0,0E0,0E0,0E0,0E0],"parents":[2147483647,0,0,1,1,2,2,3,3,4,4,5,5,6,6,11,11,12,12,14,14],"right_children":[2,4,6,8,10,12,14,-1,-1,-1,-1,16,18,-1,20,-1,-1,-1,-1,-1,-1],"split_conditions":[1.5513594E4,3.77E2,1.216E4,2.8666072E4,9.076E3,4.53492E4,1.8169295E4,5.5364086E1,2.270642E1,5.1014585E0,-1.099164E1,3.0912375E4,3.64E2,-6.563268E1,3.6E2,-8.495828E0,-2.5422083E1,1.909043E0,2.460746E1,-5.0397263E0,-1.9874922E1],"split_indices":[10,0,7,4,6,9,10,0,0,0,0,4,0,0,0,0,0,0,0,0,0],"split_type":[0,0,0,0,0,0,0,0,0,0,0,0,0,0,0,0,0,0,0,0,0],"sum_hessian":[2.4E1,1E1,1.4E1,6E0,4E0,8E0,6E0,2E0,4E0,2E0,2E0,6E0,2E0,2E0,4E0,4E0,2E0,1E0,1E0,1E0,3E0],"tree_param":{"num_deleted":"0","num_feature":"12","num_nodes":"21","size_leaf_vector":"1"}},{"base_weights":[-8.479531E0,2.3553491E2,-2.1702908E2,3.5117807E2,-8.35459E1,-4.9452343E1,-5.0877676E2,1.0957402E1,3.4836433E1,2.2408202E0,-1.0405443E1,-1.3609738E2,1.1453955E2,-1.1742637E1,-4.5006355E1,-3.4003906E0,-1.3202672E1,-3.531224E0,2.3623163E1],"categories":[],"categories_nodes":[],"categories_segments":[],"categories_sizes":[],"default_left":[0,0,0,0,0,0,0,0,0,0,0,0,0,0,0,0,0,0,0],"id":27,"left_children":[1,3,5,7,9,11,13,-1,-1,-1,-1,15,17,-1,-1,-1,-1,-1,-1],"loss_changes":[1.3233455E6,4.7213356E5,6.5930156E5,1.028345E5,2.4402559E4,1.5767938E5,1.480425E4,0E0,0E0,0E0,0E0,1.1942633E4,1.277597E5,0E0,0E0,0E0,0E0,0E0,0E0],"parents":[2147483647,0,0,1,1,2,2,3,3,4,4,5,5,6,6,11,11,12,12],"right_children":[2,4,6,8,10,12,14,-1,-1,-1,-1,16,18,-1,-1,-1,-1,-1,-1],"split_conditions":[1.5513594E4,3.77E2,3.0912375E4,2.3333333E-1,8.977066E3,1.9391875E4,3.56E2,1.0957402E1,3.4836433E1,2.2408202E0,-1.0405443E1,1.21088E4,3.64E2,-1.1742637E1,-4.5006355E1,-3.4003906E0,-1.3202672E1,-3.531224E0,2.3623163E1],"split_indices":[10,0,4,1,6,8,0,0,0,0,0,7,0,0,0,0,0,0,0],"split_type":[0,0,0,0,0,0,0,0,0,0,0,0,0,0,0,0,0,0,0],"sum_hessian":[2.4E1,1.1E1,1.3E1,8E0,3E0,9E0,4E0,3E0,5E0,1E0,2E0,6E0,3E0,1E0,3E0,2E0,4E0,2E0,1E0],"tree_param":{"num_deleted":"0","num_feature":"12","num_nodes":"19","size_leaf_vector":"1"}},{"base_weights":[6.8015623E0,1.8335822E2,-3.913011E2,2.3871442E2,-1.3839544E1,-6.0580025E1,-1.4310962E2,-3.6025585E1,3.3329654E2,-1.8160117E2,1.9739257E0,5.0470834E0,-9.850494E0,-5.8265886E0,3.3744446E1,-1.6005117E1,-4.31E0],"categories":[],"categories_nodes":[],"categories_segments":[],"categories_sizes":[],"default_left":[0,0,0,0,0,0,0,0,0,0,0,0,0,0,0,0,0],"id":28,"left_children":[1,3,5,7,-1,-1,9,11,13,15,-1,-1,-1,-1,-1,-1,-1],"loss_changes":[1.82894E6,3.9637006E5,6.182339E5,4.277752E5,0E0,0E0,4.3230367E4,5.093514E4,4.6207388E5,1.01246875E3,0E0,0E0,0E0,0E0,0E0,0E0,0E0],"parents":[2147483647,0,0,1,1,2,2,3,3,6,6,7,7,8,8,9,9],"right_children":[2,4,6,8,-1,-1,10,12,14,16,-1,-1,-1,-1,-1,-1,-1],"split_conditions":[5.0040617E4,1.0477177E4,1.8169295E4,2.4385357E4,-1.3839544E1,-6.0580025E1,2.3333333E-1,9.076E3,2.57325E4,1.29088E4,1.9739257E0,5.0470834E0,-9.850494E0,-5.8265886E0,3.3744446E1,-1.6005117E1,-4.31E0],"split_indices":[11,6,10,11,0,0,1,6,4,7,0,0,0,0,0,0,0],"split_type":[0,0,0,0,0,0,0,0,0,0,0,0,0,0,0,0,0],"sum_hessian":[2.4E1,1.7E1,7E0,1.5E1,2E0,2E0,5E0,4E0,1.1E1,4E0,1E0,2E0,2E0,2E0,9E0,3E0,1E0],"tree_param":{"num_deleted":"0","num_feature":"12","num_nodes":"17","size_leaf_vector":"1"}},{"base_weights":[-1.5807226E1,2.2752252E2,-3.461835E2,3.2575986E2,-3.4104103E1,-5.807036E2,-1.8565051E2,-1.3848437E0,3.6179794E2,4.7779164E0,-9.3251295E0,-6.888945E0,-5.7349087E1,-2.1893973E2,1.8949609E0,4.875367E1,1.7897167E1,-2.0802376E1,-6.198125E0],"categories":[],"categories_nodes":[],"categories_segments":[],"categories_sizes":[],"default_left":[0,0,0,0,0,0,0,0,0,0,0,0,0,0,0,0,0,0,0],"id":29,"left_children":[1,3,5,7,9,11,13,-1,15,-1,-1,-1,-1,17,-1,-1,-1,-1,-1],"loss_changes":[2.0885238E6,3.966323E5,3.063225E5,1.4226262E5,4.5646996E4,2.0764412E5,6.09355E4,0E0,2.0558962E5,0E0,0E0,0E0,0E0,2.0542781E4,0E0,0E0,0E0,0E0,0E0],"parents":[2147483647,0,0,1,1,2,2,3,3,4,4,5,5,6,6,8,8,13,13],"right_children":[2,4,6,8,10,12,14,-1,16,-1,-1,-1,-1,18,-1,-1,-1,-1,-1],"split_conditions":[1.5894436E4,3.77E2,1.8169295E4,3.68E2,9.076E3,2.57325E4,4.8141E4,-1.3848437E0,2.8666072E4,4.7779164E0,-9.3251295E0,-6.888945E0,-5.7349087E1,1.29088E4,1.8949609E0,4.875367E1,1.7897167E1,-2.0802376E1,-6.198125E0],"split_indices":[10,0,10,0,6,4,9,0,4,0,0,0,0,7,0,0,0,0,0],"split_type":[0,0,0,0,0,0,0,0,0,0,0,0,0,0,0,0,0,0,0],"sum_hessian":[2.4E1,1.4E1,1E1,1E1,4E0,3E0,7E0,1E0,9E0,2E0,2E0,1E0,2E0,6E0,1E0,2E0,7E0,4E0,2E0],"tree_param":{"num_deleted":"0","num_feature":"12","num_nodes":"19","size_leaf_vector":"1"}},{"base_weights":[-1.9626892E1,1.8062546E2,-2.3493135E2,-8.827786E0,2.4356117E2,-4.7872598E2,7.5970984E0,8.0805664E1,3.2502066E2,-1.2593437E1,-6.000255E2,-7.968961E1,2.1252695E1,7.201484E0,1.758164E0,9.189245E0,3.0888763E1,-5.4290466E1,-1.4568378E1,5.3867187E-2,-9.603154E0],"categories":[],"categories_nodes":[],"categories_segments":[],"categories_sizes":[],"default_left":[0,0,0,0,0,0,0,0,0,0,0,0,0,0,0,0,0,0,0,0,0],"id":30,"left_children":[1,3,5,-1,7,9,11,13,15,-1,17,19,-1,-1,-1,-1,-1,-1,-1,-1,-1],"loss_changes":[1.0772E6,2.6493988E5,7.1316244E5,0E0,1.1957425E5,1.3939238E5,1.7884767E5,7.315664E2,4.5516375E4,0E0,7.82125E3,1.953661E4,0E0,0E0,0E0,0E0,0E0,0E0,0E0,0E0,0E0],"parents":[2147483647,0,0,1,1,2,2,4,4,5,5,6,6,7,7,8,8,10,10,11,11],"right_children":[2,4,6,-1,8,10,12,14,16,-1,18,20,-1,-1,-1,-1,-1,-1,-1,-1,-1],"split_conditions":[1.5513594E4,1.0589852E4,1.8982324E4,-8.827786E0,2.3333333E-1,2.8921732E4,2.5E-1,2.5E-1,1.1697966E4,-1.2593437E1,2.5E-1,1.08672E4,2.1252695E1,7.201484E0,1.758164E0,9.189245E0,3.0888763E1,-5.4290466E1,-1.4568378E1,5.3867187E-2,-9.603154E0],"split_indices":[10,10,10,0,1,4,1,2,10,0,1,6,0,0,0,0,0,0,0,0,0],"split_type":[0,0,0,0,0,0,0,0,0,0,0,0,0,0,0,0,0,0,0,0,0],"sum_hessian":[2.3E1,1.2E1,1.1E1,2E0,1E1,5E0,6E0,4E0,6E0,2E0,3E0,5E0,1E0,3E0,1E0,2E0,4E0,2E0,1E0,2E0,3E0],"tree_param":{"num_deleted":"0","num_feature":"12","num_nodes":"21","size_leaf_vector":"1"}},{"base_weights":[-1.4365547E1,2.682381E2,-2.2065053E2,4.6625507E2,8.847768E1,-6.029091E1,-3.9530566E2,7.7583594E0,4.2746326E1,1.3090056E2,-6.6423826E0,-1.5687256E2,1.8516325E2,-5.1394974E1,-1.6796562E2,3.8536458E0,1.2817832E1,-5.5230856E0,-2.0077734E1,1.8170117E0,2.0402578E1,-1.7172447E1,-5.2229686E0],"categories":[],"categories_nodes":[],"categories_segments":[],"categories_sizes":[],"default_left":[0,0,0,0,0,0,0,0,0,0,0,0,0,0,0,0,0,0,0,0,0,0,0],"id":31,"left_children":[1,3,5,7,9,11,13,-1,-1,15,-1,17,19,-1,21,-1,-1,-1,-1,-1,-1,-1,-1],"loss_changes":[1.516609E6,3.502987E5,3.962812E5,7.3871375E4,6.179952E4,2.4240434E5,2.8537288E5,0E0,0E0,6.836992E3,0E0,4.0528984E4,2.8258328E4,0E0,9.956047E3,0E0,0E0,0E0,0E0,0E0,0E0,0E0,0E0],"parents":[2147483647,0,0,1,1,2,2,3,3,4,4,5,5,6,6,9,9,11,11,12,12,14,14],"right_children":[2,4,6,8,10,12,14,-1,-1,16,-1,18,20,-1,22,-1,-1,-1,-1,-1,-1,-1,-1],"split_conditions":[1.5513594E4,3.72E2,1.216E4,3.69E2,3.78E2,4.53492E4,1.8169295E4,7.7583594E0,4.2746326E1,3.74E2,-6.6423826E0,3.0912375E4,3.64E2,-5.1394974E1,1.29088E4,3.8536458E0,1.2817832E1,-5.5230856E0,-2.0077734E1,1.8170117E0,2.0402578E1,-1.7172447E1,-5.2229686E0],"split_indices":[10,0,7,0,0,9,10,0,0,0,0,4,0,0,7,0,0,0,0,0,0,0,0],"split_type":[0,0,0,0,0,0,0,0,0,0,0,0,0,0,0,0,0,0,0,0,0,0,0],"sum_hessian":[2.4E1,1E1,1.4E1,4E0,6E0,8E0,6E0,1E0,3E0,5E0,1E0,6E0,2E0,2E0,4E0,2E0,3E0,4E0,2E0,1E0,1E0,2E0,2E0],"tree_param":{"num_deleted":"0","num_feature":"12","num_nodes":"23","size_leaf_vector":"1"}},{"base_weights":[2.5728214E1,2.0572781E2,-1.700966E2,4.3905566E2,6.849111E1,-2.3823242E1,-3.9936932E2,4.018156E1,7.4480076E0,-8.002683E0,1.23126465E2,-1.06811386E2,1.7775684E2,-3.5630222E1,-8.613418E0,1.278989E1,3.712871E0,-6.047656E-1,-9.767473E0,1.7443359E0,1.9586483E1],"categories":[],"categories_nodes":[],"categories_segments":[],"categories_sizes":[],"default_left":[0,0,0,0,0,0,0,0,0,0,0,0,0,0,0,0,0,0,0,0,0],"id":32,"left_children":[1,3,5,7,9,11,13,-1,-1,-1,15,17,19,-1,-1,-1,-1,-1,-1,-1,-1],"loss_changes":[9.514518E5,4.1822456E5,4.264602E5,6.2584625E4,1.043908E5,1.6954527E5,1.9150875E4,0E0,0E0,0E0,1.5132773E4,9.694414E3,2.604286E4,0E0,0E0,0E0,0E0,0E0,0E0,0E0,0E0],"parents":[2147483647,0,0,1,1,2,2,3,3,4,4,5,5,6,6,10,10,11,11,12,12],"right_children":[2,4,6,8,10,12,14,-1,-1,-1,16,18,20,-1,-1,-1,-1,-1,-1,-1,-1],"split_conditions":[1.5513594E4,3.1967166E4,3.0912375E4,6.38622E4,1.0589852E4,4.8141E4,7.3889E4,4.018156E1,7.4480076E0,-8.002683E0,6.38622E4,2.1554732E4,2.6666668E-1,-3.5630222E1,-8.613418E0,1.278989E1,3.712871E0,-6.047656E-1,-9.767473E0,1.7443359E0,1.9586483E1],"split_indices":[10,4,4,5,10,9,5,0,0,0,5,4,2,0,0,0,0,0,0,0,0],"split_type":[0,0,0,0,0,0,0,0,0,0,0,0,0,0,0,0,0,0,0,0,0],"sum_hessian":[2.5E1,1.3E1,1.2E1,4E0,9E0,8E0,4E0,3E0,1E0,2E0,7E0,6E0,2E0,3E0,1E0,4E0,3E0,1E0,5E0,1E0,1E0],"tree_param":{"num_deleted":"0","num_feature":"12","num_nodes":"21","size_leaf_vector":"1"}},{"base_weights":[-1.5924375E1,1.7942592E2,-2.8086346E2,3.4212842E2,6.3861816E1,-4.7914343E2,-1.4661554E2,5.474577E1,3.7770664E1,-7.575859E0,1.1533911E2,-5.498008E0,-4.7443295E1,-1.7354123E2,1.6745703E0,-5.805859E-1,7.150078E0,1.1971328E1,3.4900975E0,-1.6782522E1,-4.4234896E0],"categories":[],"categories_nodes":[],"categories_segments":[],"categories_sizes":[],"default_left":[0,0,0,0,0,0,0,0,0,0,0,0,0,0,0,0,0,0,0,0,0],"id":33,"left_children":[1,3,5,7,9,11,13,15,-1,-1,17,-1,-1,19,-1,-1,-1,-1,-1,-1,-1],"loss_changes":[1.3442924E6,2.6018962E5,2.2255556E5,1.9831956E5,9.254484E4,1.4622606E5,3.9723266E4,7.090171E3,0E0,0E0,1.3151156E4,0E0,0E0,1.8397734E4,0E0,0E0,0E0,0E0,0E0,0E0,0E0],"parents":[2147483647,0,0,1,1,2,2,3,3,4,4,5,5,6,6,7,7,10,10,13,13],"right_children":[2,4,6,8,10,12,14,16,-1,-1,18,-1,-1,20,-1,-1,-1,-1,-1,-1,-1],"split_conditions":[1.5894436E4,3.72E2,1.8169295E4,3.69E2,1.0589852E4,5.29294E4,4.8141E4,3.68E2,3.7770664E1,-7.575859E0,6.38622E4,-5.498008E0,-4.7443295E1,1.29088E4,1.6745703E0,-5.805859E-1,7.150078E0,1.1971328E1,3.4900975E0,-1.6782522E1,-4.4234896E0],"split_indices":[10,0,10,0,10,5,9,0,0,0,5,0,0,7,0,0,0,0,0,0,0],"split_type":[0,0,0,0,0,0,0,0,0,0,0,0,0,0,0,0,0,0,0,0,0],"sum_hessian":[2.4E1,1.4E1,1E1,5E0,9E0,3E0,7E0,2E0,3E0,2E0,7E0,1E0,2E0,6E0,1E0,1E0,1E0,4E0,3E0,4E0,2E0],"tree_param":{"num_deleted":"0","num_feature":"12","num_nodes":"21","size_leaf_vector":"1"}},{"base_weights":[-2.1964415E1,1.645405E2,-2.0677975E2,3.5341187E2,7.253789E1,-4.2294043E2,-6.371495E1,-5.573437E-1,3.806883E1,9.9432125E0,-7.171797E0,-1.1479075E1,-4.4912983E1,-1.5457492E2,1.6952995E2,-3.929414E0,-1.7711073E1,1.607578E0,1.8736015E1],"categories":[],"categories_nodes":[],"categories_segments":[],"categories_sizes":[],"default_left":[0,0,0,0,0,0,0,0,0,0,0,0,0,0,0,0,0,0,0],"id":34,"left_children":[1,3,5,7,9,11,13,-1,-1,-1,-1,-1,-1,15,17,-1,-1,-1,-1],"loss_changes":[8.957479E5,2.0026078E5,3.7507712E5,1.7982647E5,9.507691E4,1.1292506E5,2.169387E5,0E0,0E0,0E0,0E0,0E0,0E0,3.8447688E4,2.4285844E4,0E0,0E0,0E0,0E0],"parents":[2147483647,0,0,1,1,2,2,3,3,4,4,5,5,6,6,13,13,14,14],"right_children":[2,4,6,8,10,12,14,-1,-1,-1,-1,-1,-1,16,18,-1,-1,-1,-1],"split_conditions":[1.5894436E4,2.8666072E4,1.8493402E4,3.68E2,3.78E2,1.22368E4,4.8141E4,-5.573437E-1,3.806883E1,9.9432125E0,-7.171797E0,-1.1479075E1,-4.4912983E1,1.1072E4,3.64E2,-3.929414E0,-1.7711073E1,1.607578E0,1.8736015E1],"split_indices":[10,4,10,0,0,7,9,0,0,0,0,0,0,6,0,0,0,0,0],"split_type":[0,0,0,0,0,0,0,0,0,0,0,0,0,0,0,0,0,0,0],"sum_hessian":[2.4E1,1.2E1,1.2E1,3E0,9E0,4E0,8E0,1E0,2E0,7E0,2E0,2E0,2E0,6E0,2E0,3E0,3E0,1E0,1E0],"tree_param":{"num_deleted":"0","num_feature":"12","num_nodes":"19","size_leaf_vector":"1"}},{"base_weights":[7.2065806E0,-1.7082286E2,1.7200488E2,-2.2672797E2,-3.6029102E1,3.7015997E2,5.5726856E1,-2.7488092E1,-6.450918E1,1.5432812E0,-5.4681885E1,6.466328E0,3.3782833E1,-6.7892966E0,1.014834E2,-3.0039063E-1,-6.3007226E0,-5.476042E0,-5.3503907E-1,1.0568766E1,3.0263867E0],"categories":[],"categories_nodes":[],"categories_segments":[],"categories_sizes":[],"default_left":[0,0,0,0,0,0,0,0,0,0,0,0,0,0,0,0,0,0,0,0,0],"id":35,"left_children":[1,3,5,7,9,11,13,-1,15,-1,17,-1,-1,-1,19,-1,-1,-1,-1,-1,-1],"loss_changes":[7.9219506E5,8.979475E4,3.019473E5,1.484659E5,6.2142397E3,4.12745E4,7.294303E4,0E0,4.0329688E3,0E0,2.1854453E3,0E0,0E0,0E0,1.0598039E4,0E0,0E0,0E0,0E0,0E0,0E0],"parents":[2147483647,0,0,1,1,2,2,3,3,4,4,5,5,6,6,8,8,10,10,14,14],"right_children":[2,4,6,8,10,12,14,-1,16,-1,18,-1,-1,-1,20,-1,-1,-1,-1,-1,-1],"split_conditions":[3.68E2,3.63E2,3.72E2,1.9996295E4,3.64E2,3.69E2,1.0589852E4,-2.7488092E1,1.0743467E4,1.5432812E0,3.67E2,6.466328E0,3.3782833E1,-6.7892966E0,6.38622E4,-3.0039063E-1,-6.3007226E0,-5.476042E0,-5.3503907E-1,1.0568766E1,3.0263867E0],"split_indices":[0,0,0,10,0,0,10,0,6,0,0,0,0,0,5,0,0,0,0,0,0],"split_type":[0,0,0,0,0,0,0,0,0,0,0,0,0,0,0,0,0,0,0,0,0],"sum_hessian":[2.5E1,1.2E1,1.3E1,8E0,4E0,4E0,9E0,4E0,4E0,1E0,3E0,1E0,3E0,2E0,7E0,1E0,3E0,2E0,1E0,4E0,3E0],"tree_param":{"num_deleted":"0","num_feature":"12","num_nodes":"21","size_leaf_vector":"1"}},{"base_weights":[1.2256986E0,1.3946533E2,-2.7538977E2,2.5878564E2,4.0008255E1,-4.350329E2,-6.066865E1,-4.261263E1,3.6635385E2,-6.4272137E0,7.567904E1,-8.216152E0,-3.9395214E1,-6.7178903E0,-1.7140787E1,-4.5998826E0,-5.136328E-1,3.2686905E1,6.207656E0,9.89239E0,1.0053906E0,-2.883789E-1,-1.7685156E0],"categories":[],"categories_nodes":[],"categories_segments":[],"categories_sizes":[],"default_left":[0,0,0,0,0,0,0,0,0,0,0,0,0,0,0,0,0,0,0,0,0,0,0],"id":36,"left_children":[1,3,5,7,9,11,13,15,17,-1,19,-1,-1,-1,21,-1,-1,-1,-1,-1,-1,-1,-1],"loss_changes":[1.03262706E6,2.032569E5,2.8211594E5,2.7497825E5,5.330222E4,4.4816562E4,3.632707E3,1.2470977E3,4.1465312E4,0E0,2.5696492E4,0E0,0E0,0E0,1.2195819E2,0E0,0E0,0E0,0E0,0E0,0E0,0E0,0E0],"parents":[2147483647,0,0,1,1,2,2,3,3,4,4,5,5,6,6,7,7,8,8,10,10,14,14],"right_children":[2,4,6,8,10,12,14,16,18,-1,20,-1,-1,-1,22,-1,-1,-1,-1,-1,-1,-1,-1],"split_conditions":[5.0040617E4,1.4976E4,1.9996295E4,2.57325E4,1.0589852E4,2.8921732E4,3.57E2,3.67E2,6.86422E4,-6.4272137E0,6.38622E4,-8.216152E0,-3.9395214E1,-6.7178903E0,3.59E2,-4.5998826E0,-5.136328E-1,3.2686905E1,6.207656E0,9.89239E0,1.0053906E0,-2.883789E-1,-1.7685156E0],"split_indices":[11,7,10,4,10,4,0,0,5,0,5,0,0,0,0,0,0,0,0,0,0,0,0],"split_type":[0,0,0,0,0,0,0,0,0,0,0,0,0,0,0,0,0,0,0,0,0,0,0],"sum_hessian":[2.5E1,1.7E1,8E0,7E0,1E1,4E0,4E0,2E0,5E0,2E0,8E0,1E0,3E0,2E0,2E0,1E0,1E0,4E0,1E0,4E0,4E0,1E0,1E0],"tree_param":{"num_deleted":"0","num_feature":"12","num_nodes":"23","size_leaf_vector":"1"}},{"base_weights":[-8.102388E0,1.115041E2,-2.464151E2,1.4873224E2,-9.937122E0,-3.976423E1,-1.0379674E2,1.9716211E2,-4.58479E1,-2.4406738E0,-1.4336288E1,-3.2726562E0,1.9533323E1,1.7910156E0,-6.084453E0,-2.2985675E0,3.0573437E0],"categories":[],"categories_nodes":[],"categories_segments":[],"categories_sizes":[],"default_left":[0,0,0,0,0,0,0,0,0,0,0,0,0,0,0,0,0],"id":37,"left_children":[1,3,5,7,-1,-1,9,11,13,15,-1,-1,-1,-1,-1,-1,-1],"loss_changes":[7.685737E5,1.764309E5,2.7011744E5,1.5981531E5,0E0,0E0,5.3063234E4,1.554631E5,9.94769E3,5.37382E3,0E0,0E0,0E0,0E0,0E0,0E0,0E0],"parents":[2147483647,0,0,1,1,2,2,3,3,6,6,7,7,8,8,9,9],"right_children":[2,4,6,8,-1,-1,10,12,14,16,-1,-1,-1,-1,-1,-1,-1],"split_conditions":[5.0040617E4,1.0477177E4,1.8169295E4,3.77E2,-9.937122E0,-3.976423E1,1.1072E4,2.57325E4,8.977066E3,3.59E2,-1.4336288E1,-3.2726562E0,1.9533323E1,1.7910156E0,-6.084453E0,-2.2985675E0,3.0573437E0],"split_indices":[11,6,10,0,0,0,6,4,6,0,0,0,0,0,0,0,0],"split_type":[0,0,0,0,0,0,0,0,0,0,0,0,0,0,0,0,0],"sum_hessian":[2.5E1,1.7E1,8E0,1.5E1,2E0,2E0,6E0,1.2E1,3E0,3E0,3E0,2E0,1E1,1E0,2E0,2E0,1E0],"tree_param":{"num_deleted":"0","num_feature":"12","num_nodes":"17","size_leaf_vector":"1"}},{"base_weights":[-1.2607597E1,9.551327E1,-2.1543506E2,1.317662E2,-1.17589195E2,-3.7643475E1,-7.5326454E1,-2.3688477E1,1.9044868E2,-1.1291836E1,-2.8188672E0,-1.4198279E2,1.0161499E1,2.6015103E0,-5.7599735E0,-3.098125E0,1.9654358E1,-3.079082E0,-1.3092109E1,-8.728125E-1,2.9350586E0],"categories":[],"categories_nodes":[],"categories_segments":[],"categories_sizes":[],"default_left":[0,0,0,0,0,0,0,0,0,0,0,0,0,0,0,0,0,0,0,0,0],"id":38,"left_children":[1,3,5,7,9,-1,11,13,15,-1,-1,17,19,-1,-1,-1,-1,-1,-1,-1,-1],"loss_changes":[5.6882394E5,1.4682931E5,2.8624156E5,1.4134842E5,8.4696484E2,0E0,4.133095E4,1.5918573E4,1.4874716E5,0E0,0E0,2.6716016E3,2.636123E3,0E0,0E0,0E0,0E0,0E0,0E0,0E0,0E0],"parents":[2147483647,0,0,1,1,2,2,3,3,4,4,6,6,7,7,8,8,11,11,12,12],"right_children":[2,4,6,8,10,-1,12,14,16,-1,-1,18,20,-1,-1,-1,-1,-1,-1,-1,-1],"split_conditions":[5.0040617E4,1.0477177E4,1.8169295E4,2.4385357E4,2.6666668E-1,-3.7643475E1,2.1666667E-1,9.076E3,2.57325E4,-1.1291836E1,-2.8188672E0,3.0912375E4,2.1666667E-1,2.6015103E0,-5.7599735E0,-3.098125E0,1.9654358E1,-3.079082E0,-1.3092109E1,-8.728125E-1,2.9350586E0],"split_indices":[11,6,10,11,1,0,2,6,4,0,0,4,1,0,0,0,0,0,0,0,0],"split_type":[0,0,0,0,0,0,0,0,0,0,0,0,0,0,0,0,0,0,0,0,0],"sum_hessian":[2.4E1,1.6E1,8E0,1.4E1,2E0,2E0,6E0,4E0,1E1,1E0,1E0,3E0,3E0,2E0,2E0,2E0,8E0,1E0,2E0,2E0,1E0],"tree_param":{"num_deleted":"0","num_feature":"12","num_nodes":"21","size_leaf_vector":"1"}},{"base_weights":[-6.7437744E-1,1.2187334E2,-2.6100397E2,2.1940588E2,3.1659962E1,-1.2528141E2,-3.563582E1,-3.6661457E1,3.1087192E2,-5.452786E0,6.513489E1,-1.4489072E2,-1.0893945E0,-4.1610937E0,-2.3828125E-1,4.3918357E0,2.8086967E1,1.1291015E0,7.4339843E0,-2.9559178E0,-1.3011113E1],"categories":[],"categories_nodes":[],"categories_segments":[],"categories_sizes":[],"default_left":[0,0,0,0,0,0,0,0,0,0,0,0,0,0,0,0,0,0,0,0,0],"id":39,"left_children":[1,3,5,7,9,11,-1,13,15,-1,17,19,-1,-1,-1,-1,-1,-1,-1,-1,-1],"loss_changes":[7.974765E5,1.426322E5,1.4445919E5,1.9876872E5,3.7854188E4,1.1164883E4,0E0,1.3963999E3,4.2490312E4,0E0,1.0031461E4,3.5695156E3,0E0,0E0,0E0,0E0,0E0,0E0,0E0,0E0,0E0],"parents":[2147483647,0,0,1,1,2,2,3,3,4,4,5,5,7,7,8,8,10,10,11,11],"right_children":[2,4,6,8,10,12,-1,14,16,-1,18,20,-1,-1,-1,-1,-1,-1,-1,-1,-1],"split_conditions":[5.0040617E4,3.72E2,3.61E2,2.57325E4,2.146697E4,1.29088E4,-3.563582E1,3.67E2,2.3333333E-1,-5.452786E0,2.3333333E-1,1.1072E4,-1.0893945E0,-4.1610937E0,-2.3828125E-1,4.3918357E0,2.8086967E1,1.1291015E0,7.4339843E0,-2.9559178E0,-1.3011113E1],"split_indices":[11,0,0,4,11,7,0,0,1,0,1,6,0,0,0,0,0,0,0,0,0],"split_type":[0,0,0,0,0,0,0,0,0,0,0,0,0,0,0,0,0,0,0,0,0],"sum_hessian":[2.3E1,1.6E1,7E0,7E0,9E0,5E0,2E0,2E0,5E0,2E0,7E0,4E0,1E0,1E0,1E0,1E0,4E0,3E0,4E0,1E0,3E0],"tree_param":{"num_deleted":"0","num_feature":"12","num_nodes":"21","size_leaf_vector":"1"}},{"base_weights":[-8.140082E0,1.3798859E2,-1.3424225E2,2.8905495E1,6.453596E1,-1.720128E1,-2.6554605E2,9.389429E1,-1.0314697E1,-8.800963E1,1.2300156E1,-3.128325E1,-7.366492E1,8.654739E0,2.721302E0,1.2309635E0,-3.4967968E0,-2.8371248E0,-1.1699922E1,-1.0458202E0,-7.1603775E0],"categories":[],"categories_nodes":[],"categories_segments":[],"categories_sizes":[],"default_left":[0,0,0,0,0,0,0,0,0,0,0,0,0,0,0,0,0,0,0,0,0],"id":40,"left_children":[1,3,5,-1,7,9,11,13,15,17,-1,-1,19,-1,-1,-1,-1,-1,-1,-1,-1],"loss_changes":[5.1605672E5,1.8993634E5,2.2595116E5,0E0,2.5140879E4,1.2247591E5,1.3975434E5,3.165211E3,4.105833E3,1.6234965E4,0E0,0E0,2.668996E3,0E0,0E0,0E0,0E0,0E0,0E0,0E0,0E0],"parents":[2147483647,0,0,1,1,2,2,4,4,5,5,6,6,7,7,8,8,9,9,12,12],"right_children":[2,4,6,-1,8,10,12,14,16,18,-1,-1,20,-1,-1,-1,-1,-1,-1,-1,-1],"split_conditions":[2.7660963E4,2.8666072E4,1.216E4,2.8905495E1,2.6019143E4,4.53492E4,1.26464E4,9.266286E3,4.782793E4,3.0912375E4,1.2300156E1,-3.128325E1,3.6E2,8.654739E0,2.721302E0,1.2309635E0,-3.4967968E0,-2.8371248E0,-1.1699922E1,-1.0458202E0,-7.1603775E0],"split_indices":[11,4,7,0,8,9,7,6,4,4,0,0,0,0,0,0,0,0,0,0,0],"split_type":[0,0,0,0,0,0,0,0,0,0,0,0,0,0,0,0,0,0,0,0,0],"sum_hessian":[2.6E1,1.2E1,1.4E1,2E0,1E1,8E0,6E0,7E0,3E0,6E0,2E0,3E0,3E0,5E0,2E0,2E0,1E0,4E0,2E0,1E0,2E0],"tree_param":{"num_deleted":"0","num_feature":"12","num_nodes":"21","size_leaf_vector":"1"}},{"base_weights":[-1.4924561E1,7.59841E1,-1.950836E2,1.5966052E2,8.2208805E0,-6.4605385E1,-3.4203003E2,-4.712256E1,2.9315488E2,5.2560547E1,-1.0203073E1,-1.2086316E2,3.1940104E1,-6.62459E0,-3.2066807E1,-4.9495573E0,-1.1527344E-1,3.87E0,2.7380487E1,-5.76625E-1,8.145344E0,-2.724199E0,-1.1075937E1,8.173828E-2,3.751074E0],"categories":[],"categories_nodes":[],"categories_segments":[],"categories_sizes":[],"default_left":[0,0,0,0,0,0,0,0,0,0,0,0,0,0,0,0,0,0,0,0,0,0,0,0,0],"id":41,"left_children":[1,3,5,7,9,11,13,15,17,19,-1,21,23,-1,-1,-1,-1,-1,-1,-1,-1,-1,-1,-1,-1],"loss_changes":[4.4065175E5,1.0075075E5,1.5046275E5,2.3464923E5,7.291823E4,3.6448992E4,2.7782344E4,2.605502E3,4.3538312E4,2.7229562E4,0E0,1.3920898E3,1.3386265E3,0E0,0E0,0E0,0E0,0E0,0E0,0E0,0E0,0E0,0E0,0E0,0E0],"parents":[2147483647,0,0,1,1,2,2,3,3,4,4,5,5,6,6,7,7,8,8,9,9,11,11,12,12],"right_children":[2,4,6,8,10,12,14,16,18,20,-1,22,24,-1,-1,-1,-1,-1,-1,-1,-1,-1,-1,-1,-1],"split_conditions":[5.0040617E4,2.9621615E4,1.216E4,1.9391875E4,2.5E-1,2.1666667E-1,3.61E2,3.67E2,2.3333333E-1,2.3333333E-1,-1.0203073E1,3.0912375E4,3.59E2,-6.62459E0,-3.2066807E1,-4.9495573E0,-1.1527344E-1,3.87E0,2.7380487E1,-5.76625E-1,8.145344E0,-2.724199E0,-1.1075937E1,8.173828E-2,3.751074E0],"split_indices":[11,4,7,8,1,2,0,0,1,1,0,4,0,0,0,0,0,0,0,0,0,0,0,0,0],"split_type":[0,0,0,0,0,0,0,0,0,0,0,0,0,0,0,0,0,0,0,0,0,0,0,0,0],"sum_hessian":[2.5E1,1.7E1,8E0,7E0,1E1,5E0,3E0,3E0,4E0,8E0,2E0,3E0,2E0,1E0,2E0,2E0,1E0,1E0,3E0,4E0,4E0,1E0,2E0,1E0,1E0],"tree_param":{"num_deleted":"0","num_feature":"12","num_nodes":"25","size_leaf_vector":"1"}},{"base_weights":[-1.4717041E1,1.0904605E2,-1.285887E2,2.081084E2,2.111853E1,-2.9761124E2,-3.1218555E1,3.003776E1,2.3170742E1,5.9483234E1,-5.012031E0,-3.683203E0,-2.7919521E1,-8.9713684E1,1.0813971E1,-1.1066406E-1,3.7151952E0,2.936979E-1,6.9177146E0,-1.0796426E1,-2.846211E0],"categories":[],"categories_nodes":[],"categories_segments":[],"categories_sizes":[],"default_left":[0,0,0,0,0,0,0,0,0,0,0,0,0,0,0,0,0,0,0,0,0],"id":42,"left_children":[1,3,5,7,9,11,13,15,-1,17,-1,-1,-1,19,-1,-1,-1,-1,-1,-1,-1],"loss_changes":[3.8044288E5,1.0883903E5,2.2111742E5,7.840425E4,2.9436812E4,4.85645E4,1.0945892E5,1.6103625E3,0E0,8.720137E3,0E0,0E0,0E0,1.4792242E4,0E0,0E0,0E0,0E0,0E0,0E0,0E0],"parents":[2147483647,0,0,1,1,2,2,3,3,4,4,5,5,6,6,7,7,9,9,13,13],"right_children":[2,4,6,8,10,12,14,16,-1,18,-1,-1,-1,20,-1,-1,-1,-1,-1,-1,-1],"split_conditions":[1.5894436E4,3.72E2,1.8493402E4,3.69E2,3.77E2,5.29294E4,4.8141E4,3.68E2,2.3170742E1,3.74E2,-5.012031E0,-3.683203E0,-2.7919521E1,1.9996295E4,1.0813971E1,-1.1066406E-1,3.7151952E0,2.936979E-1,6.9177146E0,-1.0796426E1,-2.846211E0],"split_indices":[10,0,10,0,0,5,9,0,0,0,0,0,0,10,0,0,0,0,0,0,0],"split_type":[0,0,0,0,0,0,0,0,0,0,0,0,0,0,0,0,0,0,0,0,0],"sum_hessian":[2.5E1,1.2E1,1.3E1,5E0,7E0,4E0,9E0,2E0,3E0,5E0,2E0,1E0,3E0,7E0,2E0,1E0,1E0,2E0,3E0,3E0,4E0],"tree_param":{"num_deleted":"0","num_feature":"12","num_nodes":"21","size_leaf_vector":"1"}},{"base_weights":[-4.999135E1,2.2164948E1,-1.6044229E2,4.69398E1,-8.067148E0,-2.8867538E1,-6.523627E1,-4.7661377E1,7.7072975E1,2.8006674E1,-1.0098502E2,-1.06249996E-1,-5.0130467E0,3.4009376E-1,9.44625E0,1.9232422E-1,3.1684766E0,-1.1589296E1,-3.4262304E0],"categories":[],"categories_nodes":[],"categories_segments":[],"categories_sizes":[],"default_left":[0,0,0,0,0,0,0,0,0,0,0,0,0,0,0,0,0,0,0],"id":43,"left_children":[1,3,5,7,-1,-1,9,11,13,15,17,-1,-1,-1,-1,-1,-1,-1,-1],"loss_changes":[2.0279947E5,5.3491996E4,1.672546E5,4.358228E4,0E0,0E0,2.9494812E4,2.697088E3,3.2344785E4,7.957012E2,9.107707E3,0E0,0E0,0E0,0E0,0E0,0E0,0E0,0E0],"parents":[2147483647,0,0,1,1,2,2,3,3,6,6,7,7,8,8,9,9,10,10],"right_children":[2,4,6,8,-1,-1,10,12,14,16,18,-1,-1,-1,-1,-1,-1,-1,-1],"split_conditions":[5.0040617E4,1.0477177E4,1.8169295E4,5.92002E4,-8.067148E0,-2.8867538E1,1.08672E4,2.1554732E4,2.5E-1,3.59E2,1.9996295E4,-1.06249996E-1,-5.0130467E0,3.4009376E-1,9.44625E0,1.9232422E-1,3.1684766E0,-1.1589296E1,-3.4262304E0],"split_indices":[11,6,10,5,0,0,6,4,2,0,10,0,0,0,0,0,0,0,0],"split_type":[0,0,0,0,0,0,0,0,0,0,0,0,0,0,0,0,0,0,0],"sum_hessian":[2.4E1,1.5E1,9E0,1.3E1,2E0,2E0,7E0,3E0,1E1,2E0,5E0,1E0,2E0,4E0,6E0,1E0,1E0,2E0,3E0],"tree_param":{"num_deleted":"0","num_feature":"12","num_nodes":"19","size_leaf_vector":"1"}},{"base_weights":[9.11943E0,-1.955455E2,5.321531E1,-3.9688022E0,-2.2103933E1,1.5607072E2,7.7327666E0,7.229004E-1,2.7240088E2,-7.316182E1,3.825124E1,-2.2915626E0,3.5530078E0,2.493513E1,6.181445E0,-2.0231771E-1,-9.55259E0,-4.62013E0,4.8765163E0],"categories":[],"categories_nodes":[],"categories_segments":[],"categories_sizes":[],"default_left":[0,0,0,0,0,0,0,0,0,0,0,0,0,0,0,0,0,0,0],"id":44,"left_children":[1,3,5,-1,-1,7,9,11,13,15,17,-1,-1,-1,-1,-1,-1,-1,-1],"loss_changes":[2.540778E5,4.521692E4,1.0639005E5,0E0,0E0,1.2630455E5,4.4767773E4,6.404395E3,6.5820938E3,1.6030307E4,3.1857287E4,0E0,0E0,0E0,0E0,0E0,0E0,0E0,0E0],"parents":[2147483647,0,0,1,1,2,2,5,5,6,6,7,7,8,8,9,9,10,10],"right_children":[2,4,6,-1,-1,8,10,12,14,16,18,-1,-1,-1,-1,-1,-1,-1,-1],"split_conditions":[2.1666667E-1,3.57E2,8.746667E3,-3.9688022E0,-2.2103933E1,3.69E2,3.63E2,3.68E2,3.71E2,3.6E2,1.0589852E4,-2.2915626E0,3.5530078E0,2.493513E1,6.181445E0,-2.0231771E-1,-9.55259E0,-4.62013E0,4.8765163E0],"split_indices":[2,0,6,0,0,0,0,0,0,0,10,0,0,0,0,0,0,0,0],"split_type":[0,0,0,0,0,0,0,0,0,0,0,0,0,0,0,0,0,0,0],"sum_hessian":[2.6E1,4E0,2.2E1,2E0,2E0,6E0,1.6E1,3E0,3E0,4E0,1.2E1,2E0,1E0,2E0,1E0,2E0,2E0,2E0,1E1],"tree_param":{"num_deleted":"0","num_feature":"12","num_nodes":"19","size_leaf_vector":"1"}},{"base_weights":[-1.5613354E1,5.712508E1,-1.449812E2,1.3872961E2,-7.416859E0,-2.648375E1,-5.7083923E1,-3.7748047E1,2.5216582E2,2.4493273E1,-8.053997E0,2.5328287E1,-8.877604E1,-4.019583E0,-1.03124995E-2,3.4108984E0,2.3511133E1,-1.4812499E0,3.9266927E0,1.9271484E-1,2.8466797E0,-1.0127018E1,-3.0578613E0],"categories":[],"categories_nodes":[],"categories_segments":[],"categories_sizes":[],"default_left":[0,0,0,0,0,0,0,0,0,0,0,0,0,0,0,0,0,0,0,0,0,0,0],"id":45,"left_children":[1,3,5,7,9,-1,11,13,15,17,-1,19,21,-1,-1,-1,-1,-1,-1,-1,-1,-1,-1],"loss_changes":[2.6235247E5,9.583341E4,1.4464922E5,1.696704E5,3.520052E4,0E0,2.3143086E4,1.8739902E3,3.1181031E4,1.0427264E4,0E0,6.194099E2,6.6303164E3,0E0,0E0,0E0,0E0,0E0,0E0,0E0,0E0,0E0,0E0],"parents":[2147483647,0,0,1,1,2,2,3,3,4,4,6,6,7,7,8,8,9,9,11,11,12,12],"right_children":[2,4,6,8,10,-1,12,14,16,18,-1,20,22,-1,-1,-1,-1,-1,-1,-1,-1,-1,-1],"split_conditions":[5.0040617E4,2.9621615E4,1.8169295E4,1.9391875E4,2.5E-1,-2.648375E1,1.08672E4,3.67E2,2.3333333E-1,1.5E1,-8.053997E0,3.59E2,1.9996295E4,-4.019583E0,-1.03124995E-2,3.4108984E0,2.3511133E1,-1.4812499E0,3.9266927E0,1.9271484E-1,2.8466797E0,-1.0127018E1,-3.0578613E0],"split_indices":[11,4,10,8,1,0,6,0,1,3,0,0,10,0,0,0,0,0,0,0,0,0,0],"split_type":[0,0,0,0,0,0,0,0,0,0,0,0,0,0,0,0,0,0,0,0,0,0,0],"sum_hessian":[2.6E1,1.7E1,9E0,7E0,1E1,2E0,7E0,3E0,4E0,8E0,2E0,2E0,5E0,2E0,1E0,1E0,3E0,3E0,5E0,1E0,1E0,2E0,3E0],"tree_param":{"num_deleted":"0","num_feature":"12","num_nodes":"23","size_leaf_vector":"1"}},{"base_weights":[-1.0766602E0,7.483822E1,-1.5278679E2,1.5674927E2,8.463068E0,-2.5071276E1,-6.212974E1,-2.5773111E1,2.2188557E2,-4.119453E0,2.7508139E1,-8.387142E1,2.7328124E0,-3.0828905E0,-9.882812E-3,2.2100489E1,6.0343747E0,-1.2533593E0,4.1365495E0,-7.908578E0,-3.576953E-1],"categories":[],"categories_nodes":[],"categories_segments":[],"categories_sizes":[],"default_left":[0,0,0,0,0,0,0,0,0,0,0,0,0,0,0,0,0,0,0,0,0],"id":46,"left_children":[1,3,5,7,9,-1,11,13,15,-1,17,19,-1,-1,-1,-1,-1,-1,-1,-1,-1],"loss_changes":[3.1087775E5,9.653686E4,1.1156817E5,1.00829375E5,1.397706E4,0E0,1.7519586E4,9.7733777E2,2.6939375E4,0E0,1.0213141E4,6.697254E3,0E0,0E0,0E0,0E0,0E0,0E0,0E0,0E0,0E0],"parents":[2147483647,0,0,1,1,2,2,3,3,4,4,6,6,7,7,8,8,10,10,11,11],"right_children":[2,4,6,8,10,-1,12,14,16,-1,18,20,-1,-1,-1,-1,-1,-1,-1,-1,-1],"split_conditions":[5.0040617E4,1.4976E4,1.8169295E4,2.57325E4,1.0589852E4,-2.5071276E1,3.61E2,3.67E2,2.1464545E4,-4.119453E0,3.74E2,1.29088E4,2.7328124E0,-3.0828905E0,-9.882812E-3,2.2100489E1,6.0343747E0,-1.2533593E0,4.1365495E0,-7.908578E0,-3.576953E-1],"split_indices":[11,7,10,4,10,0,0,0,8,0,0,7,0,0,0,0,0,0,0,0,0],"split_type":[0,0,0,0,0,0,0,0,0,0,0,0,0,0,0,0,0,0,0,0,0],"sum_hessian":[2.5E1,1.7E1,8E0,7E0,1E1,2E0,6E0,2E0,5E0,2E0,8E0,5E0,1E0,1E0,1E0,3E0,2E0,3E0,5E0,4E0,1E0],"tree_param":{"num_deleted":"0","num_feature":"12","num_nodes":"21","size_leaf_vector":"1"}},{"base_weights":[1.7057354E0,7.808789E1,-1.283145E2,1.473396E2,1.4877734E1,-2.373414E1,-4.9139343E1,-2.4742188E1,2.088239E2,-3.8997655E0,3.687732E1,2.6040365E1,-7.853931E1,-2.9595702E0,-9.492187E-3,2.0774452E1,5.7125516E0,8.643593E-1,4.819922E0,5.0134766E-1,2.623496E0,-9.165117E0,-2.5508788E0],"categories":[],"categories_nodes":[],"categories_segments":[],"categories_sizes":[],"default_left":[0,0,0,0,0,0,0,0,0,0,0,0,0,0,0,0,0,0,0,0,0,0,0],"id":47,"left_children":[1,3,5,7,9,-1,11,13,15,-1,17,19,21,-1,-1,-1,-1,-1,-1,-1,-1,-1,-1],"loss_changes":[2.6823166E5,7.222391E4,1.1872258E5,8.9809375E4,1.57948545E4,0E0,1.9727436E4,9.007057E2,2.3388531E4,0E0,4.2239717E3,1.9509863E2,6.431035E3,0E0,0E0,0E0,0E0,0E0,0E0,0E0,0E0,0E0,0E0],"parents":[2147483647,0,0,1,1,2,2,3,3,4,4,6,6,7,7,8,8,10,10,11,11,12,12],"right_children":[2,4,6,8,10,-1,12,14,16,-1,18,20,22,-1,-1,-1,-1,-1,-1,-1,-1,-1,-1],"split_conditions":[5.0040617E4,3.1967166E4,1.8169295E4,2.57325E4,1.0589852E4,-2.373414E1,1.08672E4,2.5E-1,2.1464545E4,-3.8997655E0,1.6896E4,2E-1,1.9996295E4,-2.9595702E0,-9.492187E-3,2.0774452E1,5.7125516E0,8.643593E-1,4.819922E0,5.0134766E-1,2.623496E0,-9.165117E0,-2.5508788E0],"split_indices":[11,4,10,4,10,0,6,1,8,0,7,1,10,0,0,0,0,0,0,0,0,0,0],"split_type":[0,0,0,0,0,0,0,0,0,0,0,0,0,0,0,0,0,0,0,0,0,0,0],"sum_hessian":[2.5E1,1.6E1,9E0,7E0,9E0,2E0,7E0,2E0,5E0,2E0,7E0,2E0,5E0,1E0,1E0,3E0,2E0,4E0,3E0,1E0,1E0,2E0,3E0],"tree_param":{"num_deleted":"0","num_feature":"12","num_nodes":"23","size_leaf_vector":"1"}},{"base_weights":[-9.2273245E0,7.772203E1,-1.0989929E2,1.5916536E2,1.479069E1,-1.7637068E1,-1.99222E2,2.3295572E1,2.2127637E2,-3.6917968E0,3.8794086E1,-8.207959E1,7.6516924E0,-3.529492E1,-2.1788944E1,-9.101562E-3,2.8045702E0,2.0064661E1,5.3072267E0,8.0904686E-1,5.8931513E0,-3.0040364E0,-7.939909E0,-2.4134766E-1,-3.9940429E0],"categories":[],"categories_nodes":[],"categories_segments":[],"categories_sizes":[],"default_left":[0,0,0,0,0,0,0,0,0,0,0,0,0,0,0,0,0,0,0,0,0,0,0,0,0],"id":48,"left_children":[1,3,5,7,9,11,13,15,17,-1,19,21,-1,23,-1,-1,-1,-1,-1,-1,-1,-1,-1,-1,-1],"loss_changes":[2.2737566E5,6.9400555E4,9.537966E4,4.5479297E4,1.495475E4,5.8952395E4,6.2324594E4,8.299794E2,1.6635156E3,0E0,6.255832E3,9.582031E1,0E0,1.2661267E3,0E0,0E0,0E0,0E0,0E0,0E0,0E0,0E0,0E0,0E0,0E0],"parents":[2147483647,0,0,1,1,2,2,3,3,4,4,5,5,6,6,7,7,8,8,10,10,11,11,13,13],"right_children":[2,4,6,8,10,12,14,16,18,-1,20,22,-1,24,-1,-1,-1,-1,-1,-1,-1,-1,-1,-1,-1],"split_conditions":[2.799667E4,3.72E2,1.216E4,3.69E2,2.146697E4,4.53492E4,3.61E2,3.68E2,3.71E2,-3.6917968E0,1.6896E4,3.0912375E4,7.6516924E0,3.6E2,-2.1788944E1,-9.101562E-3,2.8045702E0,2.0064661E1,5.3072267E0,8.0904686E-1,5.8931513E0,-3.0040364E0,-7.939909E0,-2.4134766E-1,-3.9940429E0],"split_indices":[11,0,7,0,11,9,0,0,0,0,7,4,0,0,0,0,0,0,0,0,0,0,0,0,0],"split_type":[0,0,0,0,0,0,0,0,0,0,0,0,0,0,0,0,0,0,0,0,0,0,0,0,0],"sum_hessian":[2.4E1,1.3E1,1.1E1,5E0,8E0,6E0,5E0,2E0,3E0,2E0,6E0,4E0,2E0,2E0,3E0,1E0,1E0,2E0,1E0,4E0,2E0,2E0,2E0,1E0,1E0],"tree_param":{"num_deleted":"0","num_feature":"12","num_nodes":"25","size_leaf_vector":"1"}},{"base_weights":[6.6451173E0,8.407445E1,-7.129537E1,1.8994556E1,3.4606533E1,1.6692166E0,-1.8837256E2,-2.3515951E1,5.0135525E1,-4.6606056E1,4.9610645E1,-2.571836E0,-1.7551338E1,-1.40625E-2,-2.8078516E0,1.4236093E0,5.795906E0,-2.3169921E-1,-4.544756E0,-6.2885416E-1,7.2436066E0],"categories":[],"categories_nodes":[],"categories_segments":[],"categories_sizes":[],"default_left":[0,0,0,0,0,0,0,0,0,0,0,0,0,0,0,0,0,0,0,0,0],"id":49,"left_children":[1,3,5,-1,7,9,11,13,15,17,19,-1,-1,-1,-1,-1,-1,-1,-1,-1,-1],"loss_changes":[1.5686611E5,9.040489E4,1.1136678E5,0E0,1.1107402E4,2.3141627E4,1.7176797E4,8.048214E2,5.2053555E3,2.0654082E3,1.2474527E4,0E0,0E0,0E0,0E0,0E0,0E0,0E0,0E0,0E0,0E0],"parents":[2147483647,0,0,1,1,2,2,4,4,5,5,6,6,7,7,8,8,9,9,10,10],"right_children":[2,4,6,-1,8,10,12,14,16,18,20,-1,-1,-1,-1,-1,-1,-1,-1,-1,-1],"split_conditions":[1.5513594E4,2.8666072E4,3.0912375E4,1.8994556E1,6.34618E4,2.9467875E4,3.56E2,3.78E2,2.3333333E-1,3.6E2,3.59E2,-2.571836E0,-1.7551338E1,-1.40625E-2,-2.8078516E0,1.4236093E0,5.795906E0,-2.3169921E-1,-4.544756E0,-6.2885416E-1,7.2436066E0],"split_indices":[10,4,4,0,5,4,0,0,1,0,0,0,0,0,0,0,0,0,0,0,0],"split_type":[0,0,0,0,0,0,0,0,0,0,0,0,0,0,0,0,0,0,0,0,0],"sum_hessian":[2.4E1,1.2E1,1.2E1,2E0,1E1,8E0,4E0,2E0,8E0,4E0,4E0,1E0,3E0,1E0,1E0,4E0,4E0,1E0,3E0,2E0,2E0],"tree_param":{"num_deleted":"0","num_feature":"12","num_nodes":"21","size_leaf_vector":"1"}},{"base_weights":[-7.9012656E0,5.848712E1,-1.2504715E2,8.7306725E1,-2.2377344E1,-2.0716991E1,-4.9791016E1,-2.949121E1,1.2951617E2,5.9296875E0,-3.458021E0,-6.6100914E1,1.9227344E0,-3.2610936E0,1.7304687E-1,1.7667753E1,3.7634375E0,-1.3515625E-2,7.250781E-1,-7.768841E0,-2.1054785E0],"categories":[],"categories_nodes":[],"categories_segments":[],"categories_sizes":[],"default_left":[0,0,0,0,0,0,0,0,0,0,0,0,0,0,0,0,0,0,0,0,0],"id":50,"left_children":[1,3,5,7,9,-1,11,13,15,17,-1,19,-1,-1,-1,-1,-1,-1,-1,-1,-1],"loss_changes":[1.9396467E5,3.9241395E4,7.78075E4,6.2979297E4,3.2070254E3,0E0,1.0017248E4,1.5154626E3,5.7401766E4,5.8866714E1,0E0,4.8460254E3,0E0,0E0,0E0,0E0,0E0,0E0,0E0,0E0,0E0],"parents":[2147483647,0,0,1,1,2,2,3,3,4,4,6,6,7,7,8,8,9,9,11,11],"right_children":[2,4,6,8,10,-1,12,14,16,18,-1,20,-1,-1,-1,-1,-1,-1,-1,-1,-1],"split_conditions":[5.0040617E4,3.77E2,1.8169295E4,1.9391875E4,9.076E3,-2.0716991E1,3.61E2,3.67E2,2.1464545E4,3.78E2,-3.458021E0,1.9996295E4,1.9227344E0,-3.2610936E0,1.7304687E-1,1.7667753E1,3.7634375E0,-1.3515625E-2,7.250781E-1,-7.768841E0,-2.1054785E0],"split_indices":[11,0,10,8,6,0,0,0,8,0,0,10,0,0,0,0,0,0,0,0,0],"split_type":[0,0,0,0,0,0,0,0,0,0,0,0,0,0,0,0,0,0,0,0,0],"sum_hessian":[2.3E1,1.5E1,8E0,1.1E1,4E0,2E0,6E0,3E0,8E0,2E0,2E0,5E0,1E0,2E0,1E0,3E0,5E0,1E0,1E0,2E0,3E0],"tree_param":{"num_deleted":"0","num_feature":"12","num_nodes":"21","size_leaf_vector":"1"}},{"base_weights":[-4.886934E0,6.4229004E1,-8.511495E1,1.3717676E2,8.460612E0,-2.0417734E2,-6.1584473E-2,2.2091797E1,1.5135703E1,-3.2735937E0,2.841504E1,-2.408789E0,-1.9213339E1,-3.1740038E0,7.9185875E1,1.6613281E-1,2.4848828E0,4.1779685E-1,4.6078124E0,1.8458203E0,7.656484E0],"categories":[],"categories_nodes":[],"categories_segments":[],"categories_sizes":[],"default_left":[0,0,0,0,0,0,0,0,0,0,0,0,0,0,0,0,0,0,0,0,0],"id":51,"left_children":[1,3,5,7,9,11,13,15,-1,-1,17,-1,-1,-1,19,-1,-1,-1,-1,-1,-1],"loss_changes":[1.4409272E5,5.579391E4,1.2150731E5,3.1740297E4,1.0030983E4,2.4091531E4,2.8255832E4,4.7405835E2,0E0,0E0,4.4369385E3,0E0,0E0,0E0,5.7279297E2,0E0,0E0,0E0,0E0,0E0,0E0],"parents":[2147483647,0,0,1,1,2,2,3,3,4,4,5,5,6,6,7,7,10,10,14,14],"right_children":[2,4,6,8,10,12,14,16,-1,-1,18,-1,-1,-1,20,-1,-1,-1,-1,-1,-1],"split_conditions":[1.5894436E4,3.72E2,1.8493402E4,3.69E2,1.0589852E4,2.57325E4,4.8141E4,3.68E2,1.5135703E1,-3.2735937E0,3.52614E4,-2.408789E0,-1.9213339E1,-3.1740038E0,3.64E2,1.6613281E-1,2.4848828E0,4.1779685E-1,4.6078124E0,1.8458203E0,7.656484E0],"split_indices":[10,0,10,0,10,4,9,0,0,0,4,0,0,0,0,0,0,0,0,0,0],"split_type":[0,0,0,0,0,0,0,0,0,0,0,0,0,0,0,0,0,0,0,0,0],"sum_hessian":[2.4E1,1.3E1,1.1E1,5E0,8E0,4E0,7E0,2E0,3E0,2E0,6E0,1E0,3E0,5E0,2E0,1E0,1E0,4E0,2E0,1E0,1E0],"tree_param":{"num_deleted":"0","num_feature":"12","num_nodes":"21","size_leaf_vector":"1"}},{"base_weights":[-4.7952037E0,6.557506E1,-8.02097E1,1.2916699E2,1.5894314E1,-1.0880249E1,-1.5928069E2,2.1208008E1,1.7784448E2,-2.9327567E0,5.4526043E1,-5.2516277E1,7.6018555E1,-1.8060537E1,-1.7552408E1,1.5949218E-1,2.3854687E0,1.6232006E1,4.107109E0,5.3503907E-1,-2.426289E0,6.031328E0,5.117969E-1,8.3777344E-1,-5.376672E0,1.7719922E0,7.350234E0,-1.12499995E-2,-2.0950391E0],"categories":[],"categories_nodes":[],"categories_segments":[],"categories_sizes":[],"default_left":[0,0,0,0,0,0,0,0,0,0,0,0,0,0,0,0,0,0,0,0,0,0,0,0,0,0,0,0,0],"id":52,"left_children":[1,3,5,7,9,11,13,15,17,19,21,23,25,-1,27,-1,-1,-1,-1,-1,-1,-1,-1,-1,-1,-1,-1,-1,-1],"loss_changes":[1.4324012E5,4.2177098E4,6.9532305E4,2.7759312E4,6.7058115E3,3.293718E4,5.2566625E4,4.3687976E2,2.2620312E3,2.0478173E3,2.530375E3,6.25642E3,5.2788086E2,0E0,4.4739984E2,0E0,0E0,0E0,0E0,0E0,0E0,0E0,0E0,0E0,0E0,0E0,0E0,0E0,0E0],"parents":[2147483647,0,0,1,1,2,2,3,3,4,4,5,5,6,6,7,7,8,8,9,9,10,10,11,11,12,12,14,14],"right_children":[2,4,6,8,10,12,14,16,18,20,22,24,26,-1,28,-1,-1,-1,-1,-1,-1,-1,-1,-1,-1,-1,-1,-1,-1],"split_conditions":[2.799667E4,3.72E2,1.216E4,3.69E2,3.52614E4,4.53492E4,1.26464E4,3.68E2,3.71E2,3.78E2,3.77E2,1.05344E4,3.64E2,-1.8060537E1,3.6E2,1.5949218E-1,2.3854687E0,1.6232006E1,4.107109E0,5.3503907E-1,-2.426289E0,6.031328E0,5.117969E-1,8.3777344E-1,-5.376672E0,1.7719922E0,7.350234E0,-1.12499995E-2,-2.0950391E0],"split_indices":[11,0,7,0,4,9,7,0,0,0,0,7,0,0,0,0,0,0,0,0,0,0,0,0,0,0,0,0,0],"split_type":[0,0,0,0,0,0,0,0,0,0,0,0,0,0,0,0,0,0,0,0,0,0,0,0,0,0,0,0,0],"sum_hessian":[2.5E1,1.3E1,1.2E1,5E0,8E0,7E0,5E0,2E0,3E0,6E0,2E0,5E0,2E0,3E0,2E0,1E0,1E0,2E0,1E0,5E0,1E0,1E0,1E0,1E0,4E0,1E0,1E0,1E0,1E0],"tree_param":{"num_deleted":"0","num_feature":"12","num_nodes":"29","size_leaf_vector":"1"}},{"base_weights":[-8.467582E0,5.440495E1,-7.522618E1,1.2264746E2,8.018946E0,-1.8025577E2,-1.5188769E1,1.4641133E2,1.53125E-1,-3.0479426E0,2.4310913E1,-2.0973437E0,-1.6976904E1,7.056211E0,-3.6476997E1,1.5366275E1,4.1552343E0,4.99362E-1,4.187604E0,-2.3968749E-1,-5.0129995E0],"categories":[],"categories_nodes":[],"categories_segments":[],"categories_sizes":[],"default_left":[0,0,0,0,0,0,0,0,0,0,0,0,0,0,0,0,0,0,0,0,0],"id":53,"left_children":[1,3,5,7,9,11,13,15,-1,-1,17,-1,-1,-1,19,-1,-1,-1,-1,-1,-1],"loss_changes":[1.2161656E5,4.6498953E4,8.5542E4,1.693432E4,8.439795E3,1.9048484E4,2.5227564E4,1.159443E4,0E0,0E0,3.725627E3,0E0,0E0,0E0,7.7026846E3,0E0,0E0,0E0,0E0,0E0,0E0],"parents":[2147483647,0,0,1,1,2,2,3,3,4,4,5,5,6,6,7,7,10,10,14,14],"right_children":[2,4,6,8,10,12,14,16,-1,-1,18,-1,-1,-1,20,-1,-1,-1,-1,-1,-1],"split_conditions":[1.5894436E4,3.1967166E4,1.8493402E4,2.5E-1,1.0589852E4,2.57325E4,1.0477177E4,2.8666072E4,1.53125E-1,-3.0479426E0,3.52614E4,-2.0973437E0,-1.6976904E1,7.056211E0,1.1072E4,1.5366275E1,4.1552343E0,4.99362E-1,4.187604E0,-2.3968749E-1,-5.0129995E0],"split_indices":[10,4,10,1,10,4,6,4,0,0,4,0,0,0,6,0,0,0,0,0,0],"split_type":[0,0,0,0,0,0,0,0,0,0,0,0,0,0,0,0,0,0,0,0,0],"sum_hessian":[2.7E1,1.4E1,1.3E1,5E0,9E0,4E0,9E0,4E0,1E0,2E0,7E0,1E0,3E0,1E0,8E0,2E0,2E0,5E0,2E0,4E0,4E0],"tree_param":{"num_deleted":"0","num_feature":"12","num_nodes":"21","size_leaf_vector":"1"}},{"base_weights":[-2.031666E1,3.985555E1,-7.044165E1,6.5360565E1,-2.7494629E1,-8.713684E0,-1.309248E2,1.048291E1,9.1052246E1,-7.105469E-2,-2.8853905E0,-4.6970947E1,7.070541E1,-1.5958281E1,-2.9639893E1,2.1238282E0,-2.9770833E-1,1.4699218E-1,8.682219E0,8.1384766E-1,-4.83475E0,1.7107031E0,6.7739453E0,1.8972656E-1,-3.2880728E0],"categories":[],"categories_nodes":[],"categories_segments":[],"categories_sizes":[],"default_left":[0,0,0,0,0,0,0,0,0,0,0,0,0,0,0,0,0,0,0,0,0,0,0,0,0],"id":54,"left_children":[1,3,5,7,9,11,13,15,17,-1,-1,19,21,-1,23,-1,-1,-1,-1,-1,-1,-1,-1,-1,-1],"loss_changes":[7.821078E4,2.2410273E4,5.1128195E4,1.1734598E4,8.8032764E2,2.7627957E4,4.269168E4,1.0115567E3,9.155031E3,0E0,0E0,5.2309326E3,2.5625098E2,0E0,1.565011E3,0E0,0E0,0E0,0E0,0E0,0E0,0E0,0E0,0E0,0E0],"parents":[2147483647,0,0,1,1,2,2,3,3,4,4,5,5,6,6,7,7,8,8,11,11,12,12,14,14],"right_children":[2,4,6,8,10,12,14,16,18,-1,-1,20,22,-1,24,-1,-1,-1,-1,-1,-1,-1,-1,-1,-1],"split_conditions":[2.799667E4,3.77E2,1.216E4,2.3333333E-1,3.78E2,4.53492E4,1.26464E4,3.69E2,3.68E2,-7.105469E-2,-2.8853905E0,1.05344E4,3.64E2,-1.5958281E1,3.6E2,2.1238282E0,-2.9770833E-1,1.4699218E-1,8.682219E0,8.1384766E-1,-4.83475E0,1.7107031E0,6.7739453E0,1.8972656E-1,-3.2880728E0],"split_indices":[11,0,7,1,0,9,7,0,0,0,0,7,0,0,0,0,0,0,0,0,0,0,0,0,0],"split_type":[0,0,0,0,0,0,0,0,0,0,0,0,0,0,0,0,0,0,0,0,0,0,0,0,0],"sum_hessian":[2.4E1,1.1E1,1.3E1,8E0,3E0,7E0,6E0,3E0,5E0,1E0,2E0,5E0,2E0,3E0,3E0,1E0,2E0,1E0,4E0,1E0,4E0,1E0,1E0,1E0,2E0],"tree_param":{"num_deleted":"0","num_feature":"12","num_nodes":"25","size_leaf_vector":"1"}},{"base_weights":[-1.2396357E1,1.1652734E2,-4.5671207E1,1.8166342E1,1.4083672E1,-1.0022194E0,-9.5192055E1,1.4109375E-1,2.0388672E0,2.11926E1,-5.380208E0,-1.5867591E1,-3.7384834E1,4.542203E0,-1.4904687E0,-4.036673E0,1.6422656E0],"categories":[],"categories_nodes":[],"categories_segments":[],"categories_sizes":[],"default_left":[0,0,0,0,0,0,0,0,0,0,0,0,0,0,0,0,0],"id":55,"left_children":[1,3,5,7,-1,9,11,-1,-1,13,-1,-1,15,-1,-1,-1,-1],"loss_changes":[1.0399004E5,2.6073414E4,4.1933473E4,3.1522925E2,0E0,1.7599826E4,4.625172E4,0E0,0E0,1.3811854E4,0E0,0E0,6.335752E3,0E0,0E0,0E0,0E0],"parents":[2147483647,0,0,1,1,2,2,3,3,5,5,6,6,9,9,12,12],"right_children":[2,4,6,8,-1,10,12,-1,-1,14,-1,-1,16,-1,-1,-1,-1],"split_conditions":[6.528E3,3.69E2,5.0040617E4,3.68E2,1.4083672E1,1.0477177E4,1.8169295E4,1.4109375E-1,2.0388672E0,3.77E2,-5.380208E0,-1.5867591E1,3.61E2,4.542203E0,-1.4904687E0,-4.036673E0,1.6422656E0],"split_indices":[6,0,11,0,0,6,10,0,0,0,0,0,0,0,0,0,0],"split_type":[0,0,0,0,0,0,0,0,0,0,0,0,0,0,0,0,0],"sum_hessian":[2.2E1,4E0,1.8E1,2E0,2E0,1E1,8E0,1E0,1E0,8E0,2E0,2E0,6E0,4E0,4E0,5E0,1E0],"tree_param":{"num_deleted":"0","num_feature":"12","num_nodes":"17","size_leaf_vector":"1"}},{"base_weights":[-7.764341E0,3.1411312E1,-8.96058E1,8.3976845E1,6.9054234E-1,-1.5021315E1,-3.473612E1,1.6694336E0,1.4529004E2,1.817951E1,-5.093268E0,-7.2307615E0,-6.899967E1,-1.825664E0,1.3951823E0,1.3332525E1,3.247617E0,-1.9933008E0,2.9963963E0,-2.6374414E0,5.9564453E-1,-1.4873437E0,-6.792617E0],"categories":[],"categories_nodes":[],"categories_segments":[],"categories_sizes":[],"default_left":[0,0,0,0,0,0,0,0,0,0,0,0,0,0,0,0,0,0,0,0,0,0,0],"id":56,"left_children":[1,3,5,7,9,-1,11,13,15,17,-1,19,21,-1,-1,-1,-1,-1,-1,-1,-1,-1,-1],"loss_changes":[8.938183E4,3.0624229E4,4.1952117E4,3.508316E4,1.5789264E4,0E0,6.0981006E3,1.9428676E3,2.1824062E3,1.007083E4,0E0,2.134106E3,8.27083E2,0E0,0E0,0E0,0E0,0E0,0E0,0E0,0E0,0E0,0E0],"parents":[2147483647,0,0,1,1,2,2,3,3,4,4,6,6,7,7,8,8,9,9,11,11,12,12],"right_children":[2,4,6,8,10,-1,12,14,16,18,-1,20,22,-1,-1,-1,-1,-1,-1,-1,-1,-1,-1],"split_conditions":[5.0040617E4,8.746667E3,1.8169295E4,3.69E2,1.0477177E4,-1.5021315E1,3.0912375E4,3.67E2,3.71E2,1.1642951E4,-5.093268E0,2.8921732E4,3.56E2,-1.825664E0,1.3951823E0,1.3332525E1,3.247617E0,-1.9933008E0,2.9963963E0,-2.6374414E0,5.9564453E-1,-1.4873437E0,-6.792617E0],"split_indices":[11,6,10,0,6,0,4,0,0,10,0,4,0,0,0,0,0,0,0,0,0,0,0],"split_type":[0,0,0,0,0,0,0,0,0,0,0,0,0,0,0,0,0,0,0,0,0,0,0],"sum_hessian":[2.6E1,1.8E1,8E0,6E0,1.2E1,2E0,6E0,3E0,3E0,1E1,2E0,4E0,2E0,1E0,2E0,2E0,1E0,3E0,7E0,1E0,3E0,1E0,1E0],"tree_param":{"num_deleted":"0","num_feature":"12","num_nodes":"23","size_leaf_vector":"1"}},{"base_weights":[-2.1838724E1,2.6342506E1,-5.8135498E1,7.687539E1,-1.3515625E1,-1.443206E2,-9.229395E0,1.650944E1,8.9292965E0,-2.5457032E0,1.7089844E-1,-1.7526562E0,-1.3555732E1,-3.5768616E1,6.4618324E1,7.9648435E-2,1.9014844E0,-6.838541E-1,7.066406E-1,-5.252041E0,-3.7675E-1,1.5527539E0,6.201445E0],"categories":[],"categories_nodes":[],"categories_segments":[],"categories_sizes":[],"default_left":[0,0,0,0,0,0,0,0,0,0,0,0,0,0,0,0,0,0,0,0,0,0,0],"id":57,"left_children":[1,3,5,7,9,11,13,15,-1,-1,17,-1,-1,19,21,-1,-1,-1,-1,-1,-1,-1,-1],"loss_changes":[4.3503195E4,2.3194629E4,5.76777E4,8.64309E3,1.7592244E3,1.166643E4,2.190992E4,3.1418604E2,0E0,0E0,4.5313406E2,0E0,0E0,7.115698E3,2.4496777E2,0E0,0E0,0E0,0E0,0E0,0E0,0E0,0E0],"parents":[2147483647,0,0,1,1,2,2,3,3,4,4,5,5,6,6,7,7,10,10,13,13,14,14],"right_children":[2,4,6,8,10,12,14,16,-1,-1,18,-1,-1,20,22,-1,-1,-1,-1,-1,-1,-1,-1],"split_conditions":[1.5894436E4,3.72E2,1.8493402E4,3.69E2,1.0589852E4,5.29294E4,4.8141E4,3.68E2,8.9292965E0,-2.5457032E0,3.74E2,-1.7526562E0,-1.3555732E1,1.9996295E4,3.64E2,7.9648435E-2,1.9014844E0,-6.838541E-1,7.066406E-1,-5.252041E0,-3.7675E-1,1.5527539E0,6.201445E0],"split_indices":[10,0,10,0,10,5,9,0,0,0,0,0,0,10,0,0,0,0,0,0,0,0,0],"split_type":[0,0,0,0,0,0,0,0,0,0,0,0,0,0,0,0,0,0,0,0,0,0,0],"sum_hessian":[2.3E1,1E1,1.3E1,4E0,6E0,4E0,9E0,2E0,2E0,2E0,4E0,1E0,3E0,7E0,2E0,1E0,1E0,2E0,2E0,3E0,4E0,1E0,1E0],"tree_param":{"num_deleted":"0","num_feature":"12","num_nodes":"23","size_leaf_vector":"1"}},{"base_weights":[-4.104691E0,4.6510044E1,-5.4426235E1,1.1433887E2,1.7616833E1,-1.3583662E2,-8.278418E0,7.644531E-2,1.2145182E1,3.0064331E1,-1.1682373E1,-1.682539E0,-1.2742393E1,3.568457E1,-4.3534504E1,1.3357478E0,4.9454684E0,-1.4799479E0,3.507422E-1,-2.047526E-1,4.962695E0,-5.755143E0,-9.077832E-1],"categories":[],"categories_nodes":[],"categories_segments":[],"categories_sizes":[],"default_left":[0,0,0,0,0,0,0,0,0,0,0,0,0,0,0,0,0,0,0,0,0,0,0],"id":58,"left_children":[1,3,5,7,9,11,13,-1,-1,15,17,-1,-1,19,21,-1,-1,-1,-1,-1,-1,-1,-1],"loss_changes":[7.130068E4,2.5422807E4,5.147225E4,1.68515E4,4.3629424E3,1.0107086E4,1.7053139E4,0E0,0E0,2.3635996E3,5.192101E2,0E0,0E0,5.1972446E3,4.6693096E3,0E0,0E0,0E0,0E0,0E0,0E0,0E0,0E0],"parents":[2147483647,0,0,1,1,2,2,3,3,4,4,5,5,6,6,9,9,10,10,13,13,14,14],"right_children":[2,4,6,8,10,12,14,-1,-1,16,18,-1,-1,20,22,-1,-1,-1,-1,-1,-1,-1,-1],"split_conditions":[1.5894436E4,2.8666072E4,1.8493402E4,3.68E2,2.6019143E4,2.57325E4,1.08672E4,7.644531E-2,1.2145182E1,3.5098E4,2.5E-1,-1.682539E0,-1.2742393E1,1.9391875E4,1.9996295E4,1.3357478E0,4.9454684E0,-1.4799479E0,3.507422E-1,-2.047526E-1,4.962695E0,-5.755143E0,-9.077832E-1],"split_indices":[10,4,10,0,8,4,6,0,0,4,2,0,0,8,10,0,0,0,0,0,0,0,0],"split_type":[0,0,0,0,0,0,0,0,0,0,0,0,0,0,0,0,0,0,0,0,0,0,0],"sum_hessian":[2.6E1,1.3E1,1.3E1,3E0,1E1,4E0,9E0,1E0,2E0,7E0,3E0,1E0,3E0,4E0,5E0,6E0,1E0,2E0,1E0,2E0,2E0,2E0,3E0],"tree_param":{"num_deleted":"0","num_feature":"12","num_nodes":"23","size_leaf_vector":"1"}},{"base_weights":[-4.0249963E0,2.8601915E1,-6.88316E1,6.8744446E1,-3.1928267E0,-2.4683756E1,-1.1784546E2,-1.7342407E1,1.23865036E2,1.4523871E1,-4.4222913E0,9.581177E0,-6.2142414E1,-1.2817616E1,3.7115234E-1,7.339843E-2,-1.898789E0,1.7719922E0,1.1500507E1,-1.3351758E0,2.6329818E0,-7.013281E-1,1.4895442E0,-1.3764648E0,-6.080625E0],"categories":[],"categories_nodes":[],"categories_segments":[],"categories_sizes":[],"default_left":[0,0,0,0,0,0,0,0,0,0,0,0,0,0,0,0,0,0,0,0,0,0,0,0,0],"id":59,"left_children":[1,3,5,7,9,11,13,15,17,19,-1,21,23,-1,-1,-1,-1,-1,-1,-1,-1,-1,-1,-1,-1],"loss_changes":[5.6944137E4,2.3193275E4,1.6565832E4,4.0109383E4,1.0953536E4,8.296508E3,2.1504395E4,4.8867847E2,6.932047E3,5.7150044E3,0E0,8.2654614E2,5.61416E2,0E0,0E0,0E0,0E0,0E0,0E0,0E0,0E0,0E0,0E0,0E0,0E0],"parents":[2147483647,0,0,1,1,2,2,3,3,4,4,5,5,6,6,7,7,8,8,9,9,11,11,12,12],"right_children":[2,4,6,8,10,12,14,16,18,20,-1,22,24,-1,-1,-1,-1,-1,-1,-1,-1,-1,-1,-1,-1],"split_conditions":[5.0040617E4,2.9621615E4,1.216E4,1.9391875E4,2.5E-1,3.0912375E4,1.1002667E4,2.1554732E4,2.3333333E-1,2.3333333E-1,-4.4222913E0,2.1666667E-1,1.8333334E-1,-1.2817616E1,3.7115234E-1,7.339843E-2,-1.898789E0,1.7719922E0,1.1500507E1,-1.3351758E0,2.6329818E0,-7.013281E-1,1.4895442E0,-1.3764648E0,-6.080625E0],"split_indices":[11,4,7,8,1,4,6,4,1,1,0,2,1,0,0,0,0,0,0,0,0,0,0,0,0],"split_type":[0,0,0,0,0,0,0,0,0,0,0,0,0,0,0,0,0,0,0,0,0,0,0,0,0],"sum_hessian":[2.5E1,1.7E1,8E0,7E0,1E1,5E0,3E0,3E0,4E0,8E0,2E0,3E0,2E0,2E0,1E0,1E0,2E0,1E0,3E0,3E0,5E0,1E0,2E0,1E0,1E0],"tree_param":{"num_deleted":"0","num_feature":"12","num_nodes":"25","size_leaf_vector":"1"}},{"base_weights":[1.3243878E0,9.048808E1,-1.9000288E1,1.47630205E1,1.0884037E1,-1.0256699E1,-7.694708E0,7.0468746E-2,1.7010937E0,-4.799695E1,1.5884766E1,-3.023125E-1,-7.301621E0,4.5645704E0,-4.2485796E-2],"categories":[],"categories_nodes":[],"categories_segments":[],"categories_sizes":[],"default_left":[0,0,0,0,0,0,0,0,0,0,0,0,0,0,0],"id":60,"left_children":[1,3,5,7,-1,-1,9,-1,-1,11,13,-1,-1,-1,-1],"loss_changes":[4.8837105E4,1.5242547E4,2.6176098E4,2.5199896E2,0E0,0E0,2.0718838E4,0E0,0E0,1.4962789E4,9.492605E3,0E0,0E0,0E0,0E0],"parents":[2147483647,0,0,1,1,2,2,3,3,6,6,9,9,10,10],"right_children":[2,4,6,8,-1,-1,10,-1,-1,12,14,-1,-1,-1,-1],"split_conditions":[6.528E3,3.69E2,1.6666667E-1,3.68E2,1.0884037E1,-1.0256699E1,3.63E2,7.0468746E-2,1.7010937E0,3.6E2,1.4976E4,-3.023125E-1,-7.301621E0,4.5645704E0,-4.2485796E-2],"split_indices":[6,0,1,0,0,0,0,0,0,0,7,0,0,0,0],"split_type":[0,0,0,0,0,0,0,0,0,0,0,0,0,0,0],"sum_hessian":[2.5E1,4E0,2.1E1,2E0,2E0,1E0,2E1,1E0,1E0,7E0,1.3E1,4E0,3E0,3E0,1E1],"tree_param":{"num_deleted":"0","num_feature":"12","num_nodes":"15","size_leaf_vector":"1"}},{"base_weights":[-4.2455873E0,2.8070366E1,-6.1989746E1,8.156348E1,1.2219802E0,-1.1665794E1,-2.2803772E1,1.4172526E1,1.1171582E2,-9.326741E0,5.1122656E0,-6.774089E-1,-5.9455242E1,6.765625E-2,1.6330469E0,1.0303568E1,2.4191797E0,5.9207463E-1,-3.570586E0,1.2964323E0,-1.0536133E0,-1.3093164E0,-5.825312E0],"categories":[],"categories_nodes":[],"categories_segments":[],"categories_sizes":[],"default_left":[0,0,0,0,0,0,0,0,0,0,0,0,0,0,0,0,0,0,0,0,0,0,0],"id":61,"left_children":[1,3,5,7,9,-1,11,13,15,17,-1,19,21,-1,-1,-1,-1,-1,-1,-1,-1,-1,-1],"loss_changes":[5.2123633E4,2.5751996E4,2.9525352E4,1.0608676E4,9.191714E3,0E0,6.447433E3,2.3223712E2,1.6713281E3,7.417284E3,0E0,1.4789052E3,5.354033E2,0E0,0E0,0E0,0E0,0E0,0E0,0E0,0E0,0E0,0E0],"parents":[2147483647,0,0,1,1,2,2,3,3,4,4,6,6,7,7,8,8,9,9,11,11,12,12],"right_children":[2,4,6,8,10,-1,12,14,16,18,-1,20,22,-1,-1,-1,-1,-1,-1,-1,-1,-1,-1],"split_conditions":[5.0040617E4,8.746667E3,1.8169295E4,3.69E2,1.8926754E4,-1.1665794E1,3.0912375E4,3.68E2,3.71E2,2.5E-1,5.1122656E0,1.08672E4,3.56E2,6.765625E-2,1.6330469E0,1.0303568E1,2.4191797E0,5.9207463E-1,-3.570586E0,1.2964323E0,-1.0536133E0,-1.3093164E0,-5.825312E0],"split_indices":[11,6,10,0,10,0,4,0,0,1,0,6,0,0,0,0,0,0,0,0,0,0,0],"split_type":[0,0,0,0,0,0,0,0,0,0,0,0,0,0,0,0,0,0,0,0,0,0,0],"sum_hessian":[2.6E1,1.7E1,9E0,5E0,1.2E1,2E0,7E0,2E0,3E0,1.1E1,1E0,5E0,2E0,1E0,1E0,2E0,1E0,8E0,3E0,2E0,3E0,1E0,1E0],"tree_param":{"num_deleted":"0","num_feature":"12","num_nodes":"23","size_leaf_vector":"1"}},{"base_weights":[-8.499629E0,2.3523254E1,-5.888628E1,5.8169556E1,-9.887153E0,-1.1043607E1,-2.1840942E1,-1.5576904E1,1.05532814E2,7.9702845E0,-3.860703E0,-5.826823E-1,-5.707715E1,6.4960934E-2,-1.7048438E0,1.5677344E0,9.769414E0,-1.10275E0,3.3257031E0,1.2272916E0,-9.903906E-1,-1.2569531E0,-5.5923047E0],"categories":[],"categories_nodes":[],"categories_segments":[],"categories_sizes":[],"default_left":[0,0,0,0,0,0,0,0,0,0,0,0,0,0,0,0,0,0,0,0,0,0,0],"id":62,"left_children":[1,3,5,7,9,-1,11,13,15,17,-1,19,21,-1,-1,-1,-1,-1,-1,-1,-1,-1,-1],"loss_changes":[4.172334E4,1.9095885E4,2.6309617E4,2.9586855E4,6.5516084E3,0E0,5.9592256E3,3.9317712E2,4.73309E3,5.689883E3,0E0,1.3170612E3,4.9341113E2,0E0,0E0,0E0,0E0,0E0,0E0,0E0,0E0,0E0,0E0],"parents":[2147483647,0,0,1,1,2,2,3,3,4,4,6,6,7,7,8,8,9,9,11,11,12,12],"right_children":[2,4,6,8,10,-1,12,14,16,18,-1,20,22,-1,-1,-1,-1,-1,-1,-1,-1,-1,-1],"split_conditions":[5.0040617E4,2.9621615E4,1.8169295E4,1.9391875E4,9.366857E3,-1.1043607E1,3.0912375E4,2.1554732E4,2.3333333E-1,3.52614E4,-3.860703E0,1.08672E4,1.8333334E-1,6.4960934E-2,-1.7048438E0,1.5677344E0,9.769414E0,-1.10275E0,3.3257031E0,1.2272916E0,-9.903906E-1,-1.2569531E0,-5.5923047E0],"split_indices":[11,4,10,8,6,0,4,4,1,4,0,6,1,0,0,0,0,0,0,0,0,0,0],"split_type":[0,0,0,0,0,0,0,0,0,0,0,0,0,0,0,0,0,0,0,0,0,0,0],"sum_hessian":[2.4E1,1.5E1,9E0,7E0,8E0,2E0,7E0,3E0,4E0,6E0,2E0,5E0,2E0,1E0,2E0,1E0,3E0,4E0,2E0,2E0,3E0,1E0,1E0],"tree_param":{"num_deleted":"0","num_feature":"12","num_nodes":"23","size_leaf_vector":"1"}},{"base_weights":[-3.312331E0,3.9997147E1,-4.329168E1,7.4097496E1,9.422241E0,-1.0560801E2,-7.8043456E0,1.3061523E1,1.013501E2,-1.0024219E1,3.1374756E1,-1.4766015E0,-9.8225E0,-2.6836731E1,4.555013E1,6.234375E-2,1.505039E0,9.232995E0,2.3665233E0,-1.3415886E0,5.0260415E-3,3.5507813E-1,4.487344E0,-4.0227733E0,-2.1688281E-1,9.490234E-1,4.516992E0],"categories":[],"categories_nodes":[],"categories_segments":[],"categories_sizes":[],"default_left":[0,0,0,0,0,0,0,0,0,0,0,0,0,0,0,0,0,0,0,0,0,0,0,0,0,0,0],"id":63,"left_children":[1,3,5,7,9,11,13,15,17,19,21,-1,-1,23,25,-1,-1,-1,-1,-1,-1,-1,-1,-1,-1,-1,-1],"loss_changes":[4.6750145E4,1.2855828E4,3.0135963E4,8.656551E3,3.7296968E3,5.217043E3,1.1377047E4,1.9726147E2,6.2285547E2,3.4127136E2,2.4141785E3,0E0,0E0,4.3892593E3,4.3301416E2,0E0,0E0,0E0,0E0,0E0,0E0,0E0,0E0,0E0,0E0,0E0,0E0],"parents":[2147483647,0,0,1,1,2,2,3,3,4,4,5,5,6,6,7,7,8,8,9,9,10,10,13,13,14,14],"right_children":[2,4,6,8,10,12,14,16,18,20,22,-1,-1,24,26,-1,-1,-1,-1,-1,-1,-1,-1,-1,-1,-1,-1],"split_conditions":[1.5894436E4,3.72E2,1.8493402E4,3.69E2,1.6896E4,2.57325E4,4.8141E4,3.68E2,3.71E2,2.5E-1,3.4782855E4,-1.4766015E0,-9.8225E0,1.9996295E4,3.64E2,6.234375E-2,1.505039E0,9.232995E0,2.3665233E0,-1.3415886E0,5.0260415E-3,3.5507813E-1,4.487344E0,-4.0227733E0,-2.1688281E-1,9.490234E-1,4.516992E0],"split_indices":[10,0,10,0,7,4,9,0,0,2,4,0,0,10,0,0,0,0,0,0,0,0,0,0,0,0,0],"split_type":[0,0,0,0,0,0,0,0,0,0,0,0,0,0,0,0,0,0,0,0,0,0,0,0,0,0,0],"sum_hessian":[2.5E1,1.2E1,1.3E1,5E0,7E0,4E0,9E0,2E0,3E0,4E0,3E0,1E0,3E0,7E0,2E0,1E0,1E0,2E0,1E0,2E0,2E0,2E0,1E0,3E0,4E0,1E0,1E0],"tree_param":{"num_deleted":"0","num_feature":"12","num_nodes":"27","size_leaf_vector":"1"}},{"base_weights":[-2.9376085E0,3.4882465E1,-4.054785E1,7.03641E1,7.3522134E0,-9.9419334E1,-7.0573244E0,1.25390625E1,9.6141846E1,-9.02181E0,3.0075195E1,-1.417539E0,-9.233164E0,-2.5219727E1,4.372819E1,5.984375E-2,1.4448438E0,8.740546E0,2.271875E0,-1.3009766E-1,-1.270026E0,3.361198E-1,4.3078513E0,-3.7813964E0,-2.030078E-1,9.110547E-1,4.336328E0],"categories":[],"categories_nodes":[],"categories_segments":[],"categories_sizes":[],"default_left":[0,0,0,0,0,0,0,0,0,0,0,0,0,0,0,0,0,0,0,0,0,0,0,0,0,0,0],"id":64,"left_children":[1,3,5,7,9,11,13,15,17,19,21,-1,-1,23,25,-1,-1,-1,-1,-1,-1,-1,-1,-1,-1,-1,-1],"loss_changes":[3.981981E4,1.3158123E4,2.6901287E4,7.7380684E3,3.6199324E3,4.488992E3,1.0326682E4,1.818016E2,4.5108984E2,2.7829794E2,2.234133E3,0E0,0E0,3.88077E3,3.990874E2,0E0,0E0,0E0,0E0,0E0,0E0,0E0,0E0,0E0,0E0,0E0,0E0],"parents":[2147483647,0,0,1,1,2,2,3,3,4,4,5,5,6,6,7,7,8,8,9,9,10,10,13,13,14,14],"right_children":[2,4,6,8,10,12,14,16,18,20,22,-1,-1,24,26,-1,-1,-1,-1,-1,-1,-1,-1,-1,-1,-1,-1],"split_conditions":[1.5894436E4,3.72E2,1.8493402E4,3.69E2,1.6896E4,2.57325E4,4.8141E4,3.68E2,3.71E2,9.258667E3,3.4782855E4,-1.417539E0,-9.233164E0,1.9996295E4,3.64E2,5.984375E-2,1.4448438E0,8.740546E0,2.271875E0,-1.3009766E-1,-1.270026E0,3.361198E-1,4.3078513E0,-3.7813964E0,-2.030078E-1,9.110547E-1,4.336328E0],"split_indices":[10,0,10,0,7,4,9,0,0,6,4,0,0,10,0,0,0,0,0,0,0,0,0,0,0,0,0],"split_type":[0,0,0,0,0,0,0,0,0,0,0,0,0,0,0,0,0,0,0,0,0,0,0,0,0,0,0],"sum_hessian":[2.6E1,1.3E1,1.3E1,5E0,8E0,4E0,9E0,2E0,3E0,5E0,3E0,1E0,3E0,7E0,2E0,1E0,1E0,2E0,1E0,3E0,2E0,2E0,1E0,3E0,4E0,1E0,1E0],"tree_param":{"num_deleted":"0","num_feature":"12","num_nodes":"27","size_leaf_vector":"1"}},{"base_weights":[-7.745913E0,-7.492393E1,7.194782E0,-1.1683463E0,-8.82151E0,5.2415318E1,-1.1848661E1,5.229492E-1,9.120386E1,-2.7638634E1,3.1575E1,-1.3608203E0,9.6299475E-1,8.274401E0,2.1810155E0,-6.121667E0,-9.4356173E-1,1.0760547E0,4.1628904E0],"categories":[],"categories_nodes":[],"categories_segments":[],"categories_sizes":[],"default_left":[0,0,0,0,0,0,0,0,0,0,0,0,0,0,0,0,0,0,0],"id":65,"left_children":[1,3,5,-1,-1,7,9,11,13,15,17,-1,-1,-1,-1,-1,-1,-1,-1],"loss_changes":[2.7638588E4,9.0495625E3,2.042761E4,0E0,0E0,1.4042109E4,1.2528883E4,1.01230304E3,3.0723828E2,9.16591E3,1.1542983E3,0E0,0E0,0E0,0E0,0E0,0E0,0E0,0E0],"parents":[2147483647,0,0,1,1,2,2,5,5,6,6,7,7,8,8,9,9,10,10],"right_children":[2,4,6,-1,-1,8,10,12,14,16,18,-1,-1,-1,-1,-1,-1,-1,-1],"split_conditions":[2.1666667E-1,3.57E2,8.746667E3,-1.1683463E0,-8.82151E0,3.69E2,1.8982324E4,3.67E2,3.71E2,1.26464E4,3.64E2,-1.3608203E0,9.6299475E-1,8.274401E0,2.1810155E0,-6.121667E0,-9.4356173E-1,1.0760547E0,4.1628904E0],"split_indices":[2,0,6,0,0,0,10,0,0,7,0,0,0,0,0,0,0,0,0],"split_type":[0,0,0,0,0,0,0,0,0,0,0,0,0,0,0,0,0,0,0],"sum_hessian":[2.6E1,4E0,2.2E1,2E0,2E0,6E0,1.6E1,3E0,3E0,1.2E1,4E0,1E0,2E0,2E0,1E0,2E0,1E1,3E0,1E0],"tree_param":{"num_deleted":"0","num_feature":"12","num_nodes":"19","size_leaf_vector":"1"}},{"base_weights":[-2.648164E0,1.7544779E1,-4.0496147E1,4.772697E1,9.9161786E-1,-9.039844E0,-3.6387417E0,-4.7950845E0,7.518677E1,1.240127E1,-2.9896874E0,1.0660416E0,-1.3089551E1,-5.9435546E-1,1.8945312E-2,1.3485156E0,7.120911E0,-6.697969E-1,2.2116666E0,-1.2657812E0,-4.794922E-1],"categories":[],"categories_nodes":[],"categories_segments":[],"categories_sizes":[],"default_left":[0,0,0,0,0,0,0,0,0,0,0,0,0,0,0,0,0,0,0,0,0],"id":66,"left_children":[1,3,5,7,9,-1,11,13,15,17,-1,-1,19,-1,-1,-1,-1,-1,-1,-1,-1],"loss_changes":[1.981705E4,8.446056E3,2.3638918E4,9.013995E3,5.715911E3,0E0,1.2967072E3,4.1526917E1,1.7251641E3,3.3983284E3,0E0,0E0,2.1221313E0,0E0,0E0,0E0,0E0,0E0,0E0,0E0,0E0],"parents":[2147483647,0,0,1,1,2,2,3,3,4,4,6,6,7,7,8,8,9,9,12,12],"right_children":[2,4,6,8,10,-1,12,14,16,18,-1,-1,20,-1,-1,-1,-1,-1,-1,-1,-1],"split_conditions":[5.0040617E4,2.9621615E4,1.8169295E4,1.9391875E4,2.5E-1,-9.039844E0,1.08672E4,3.66E2,2.3333333E-1,2.3333333E-1,-2.9896874E0,1.0660416E0,1.1175385E4,-5.9435546E-1,1.8945312E-2,1.3485156E0,7.120911E0,-6.697969E-1,2.2116666E0,-1.2657812E0,-4.794922E-1],"split_indices":[11,4,10,8,1,0,6,0,1,1,0,0,6,0,0,0,0,0,0,0,0],"split_type":[0,0,0,0,0,0,0,0,0,0,0,0,0,0,0,0,0,0,0,0,0],"sum_hessian":[2.4E1,1.6E1,8E0,5E0,1.1E1,2E0,6E0,2E0,3E0,9E0,2E0,2E0,4E0,1E0,1E0,1E0,2E0,4E0,5E0,2E0,2E0],"tree_param":{"num_deleted":"0","num_feature":"12","num_nodes":"21","size_leaf_vector":"1"}},{"base_weights":[-2.821582E0,2.4101131E1,-5.3362087E1,4.543598E1,8.8378906E-2,-8.557708E0,-2.2763533E1,-1.0741211E1,6.3021065E1,3.7115233E0,-1.1499084E1,-2.8270507E0,-4.8403156E1,-1.3071485E0,1.8203124E-2,2.5054687E-1,6.908031E0,1.2945703E0,-1.4212221E0,-1.3321484E0,3.8336912E-1,-1.1239648E0,-4.684414E0],"categories":[],"categories_nodes":[],"categories_segments":[],"categories_sizes":[],"default_left":[0,0,0,0,0,0,0,0,0,0,0,0,0,0,0,0,0,0,0,0,0,0,0],"id":67,"left_children":[1,3,5,7,9,-1,11,13,15,-1,17,19,21,-1,-1,-1,-1,-1,-1,-1,-1,-1,-1],"loss_changes":[3.5303277E4,8.705229E3,1.2328252E4,9.567848E3,5.3625757E3,0E0,3.4413093E3,1.8793182E2,9.509793E3,0E0,1.6751262E3,6.0646497E2,2.236001E2,0E0,0E0,0E0,0E0,0E0,0E0,0E0,0E0,0E0,0E0],"parents":[2147483647,0,0,1,1,2,2,3,3,4,4,6,6,7,7,8,8,10,10,11,11,12,12],"right_children":[2,4,6,8,10,-1,12,14,16,-1,18,20,22,-1,-1,-1,-1,-1,-1,-1,-1,-1,-1],"split_conditions":[5.0040617E4,6.38622E4,1.8169295E4,3.68E2,1.21088E4,-8.557708E0,3.0912375E4,3.67E2,1.1697966E4,3.7115233E0,2.9296385E4,2.8921732E4,3.56E2,-1.3071485E0,1.8203124E-2,2.5054687E-1,6.908031E0,1.2945703E0,-1.4212221E0,-1.3321484E0,3.8336912E-1,-1.1239648E0,-4.684414E0],"split_indices":[11,5,10,0,7,0,4,0,10,0,4,4,0,0,0,0,0,0,0,0,0,0,0],"split_type":[0,0,0,0,0,0,0,0,0,0,0,0,0,0,0,0,0,0,0,0,0,0,0],"sum_hessian":[2.4E1,1.6E1,8E0,8E0,8E0,2E0,6E0,2E0,6E0,1E0,7E0,4E0,2E0,1E0,1E0,2E0,4E0,1E0,6E0,1E0,3E0,1E0,1E0],"tree_param":{"num_deleted":"0","num_feature":"12","num_nodes":"23","size_leaf_vector":"1"}},{"base_weights":[-3.6513672E0,1.7746119E1,-4.3941456E1,4.2756287E1,-4.061686E-1,-8.101302E0,-1.6951965E1,-1.0311523E1,6.2164143E1,1.0008985E1,-2.7990365E0,6.308594E-1,-4.646696E1,-1.2548437E0,1.7460937E-2,6.17325E0,-5.1373047E-1,-8.507226E-1,1.6300111E0,-1.2788671E0,5.7210934E-1,-1.0790039E0,-4.497031E0],"categories":[],"categories_nodes":[],"categories_segments":[],"categories_sizes":[],"default_left":[0,0,0,0,0,0,0,0,0,0,0,0,0,0,0,0,0,0,0,0,0,0,0],"id":68,"left_children":[1,3,5,7,9,-1,11,13,15,17,-1,19,21,-1,-1,-1,-1,-1,-1,-1,-1,-1,-1],"loss_changes":[2.4918775E4,8.64321E3,1.3755018E4,8.880465E3,4.672289E3,0E0,4.1809697E3,1.7318549E2,6.6688594E3,2.3565571E3,0E0,7.644165E2,2.0607129E2,0E0,0E0,0E0,0E0,0E0,0E0,0E0,0E0,0E0,0E0],"parents":[2147483647,0,0,1,1,2,2,3,3,4,4,6,6,7,7,8,8,9,9,11,11,12,12],"right_children":[2,4,6,8,10,-1,12,14,16,18,-1,20,22,-1,-1,-1,-1,-1,-1,-1,-1,-1,-1],"split_conditions":[5.0040617E4,2.9621615E4,1.8169295E4,2.57325E4,2.5E-1,-8.101302E0,3.0912375E4,2.5E-1,2.6666668E-1,2.5E-1,-2.7990365E0,2.8921732E4,1.8333334E-1,-1.2548437E0,1.7460937E-2,6.17325E0,-5.1373047E-1,-8.507226E-1,1.6300111E0,-1.2788671E0,5.7210934E-1,-1.0790039E0,-4.497031E0],"split_indices":[11,4,10,4,1,0,4,1,1,2,0,4,1,0,0,0,0,0,0,0,0,0,0],"split_type":[0,0,0,0,0,0,0,0,0,0,0,0,0,0,0,0,0,0,0,0,0,0,0],"sum_hessian":[2.7E1,1.8E1,9E0,7E0,1.1E1,2E0,7E0,2E0,5E0,9E0,2E0,5E0,2E0,1E0,1E0,4E0,1E0,3E0,6E0,1E0,4E0,1E0,1E0],"tree_param":{"num_deleted":"0","num_feature":"12","num_nodes":"23","size_leaf_vector":"1"}},{"base_weights":[-4.2607236E0,1.128525E1,-5.7961506E1,-3.1302652E1,2.6550385E1,-1.026224E0,-7.732141E1,7.276693E-1,-5.377588E1,-1.0506714E1,3.5910233E1,-7.408112E0,-1.2592578E0,-1.2277148E0,-4.917617E0,-1.131888E0,1.6757812E-2,6.7248044E0,1.0447422E0],"categories":[],"categories_nodes":[],"categories_segments":[],"categories_sizes":[],"default_left":[0,0,0,0,0,0,0,0,0,0,0,0,0,0,0,0,0,0,0],"id":69,"left_children":[1,3,5,7,9,-1,11,-1,13,15,17,-1,-1,-1,-1,-1,-1,-1,-1],"loss_changes":[2.2359713E4,1.4483408E4,4.2508438E3,5.936448E3,5.92688E3,0E0,2.3061953E3,0E0,2.3940723E2,1.5907227E2,1.3205738E4,0E0,0E0,0E0,0E0,0E0,0E0,0E0,0E0],"parents":[2147483647,0,0,1,1,2,2,3,3,4,4,6,6,8,8,9,9,10,10],"right_children":[2,4,6,8,10,-1,12,-1,14,16,18,-1,-1,-1,-1,-1,-1,-1,-1],"split_conditions":[7.13823E4,3.63E2,3.57E2,3.6E2,1.9391875E4,-1.026224E0,2.1666667E-1,7.276693E-1,3.61E2,3.67E2,4.85665E4,-7.408112E0,-1.2592578E0,-1.2277148E0,-4.917617E0,-1.131888E0,1.6757812E-2,6.7248044E0,1.0447422E0],"split_indices":[5,0,0,0,8,0,2,0,0,0,9,0,0,0,0,0,0,0,0],"split_type":[0,0,0,0,0,0,0,0,0,0,0,0,0,0,0,0,0,0,0],"sum_hessian":[2.5E1,2E1,5E0,5E0,1.5E1,2E0,3E0,2E0,3E0,3E0,1.2E1,2E0,1E0,1E0,2E0,2E0,1E0,3E0,9E0],"tree_param":{"num_deleted":"0","num_feature":"12","num_nodes":"19","size_leaf_vector":"1"}},{"base_weights":[-3.7669814E0,1.646799E1,-3.9813232E1,3.7517273E1,-3.376687E-1,-7.3405595E0,-1.5357666E1,-9.944946E0,6.79836E1,1.01977E1,-2.5464973E0,4.214681E-1,-4.179671E1,-1.0715234E0,1.609375E-2,9.5406246E-1,6.321328E0,-9.98724E-1,1.4769309E0,9.109635E-1,-6.3264644E-1,-9.9478513E-1,-4.02082E0],"categories":[],"categories_nodes":[],"categories_segments":[],"categories_sizes":[],"default_left":[0,0,0,0,0,0,0,0,0,0,0,0,0,0,0,0,0,0,0,0,0,0,0],"id":70,"left_children":[1,3,5,7,9,-1,11,13,15,17,-1,19,21,-1,-1,-1,-1,-1,-1,-1,-1,-1,-1],"loss_changes":[2.0349305E4,6.380115E3,1.129397E4,1.2244087E4,3.974363E3,0E0,3.3550981E3,1.4267429E2,2.1500977E3,1.9174404E3,0E0,6.380795E2,1.2053955E2,0E0,0E0,0E0,0E0,0E0,0E0,0E0,0E0,0E0,0E0],"parents":[2147483647,0,0,1,1,2,2,3,3,4,4,6,6,7,7,8,8,9,9,11,11,12,12],"right_children":[2,4,6,8,10,-1,12,14,16,18,-1,20,22,-1,-1,-1,-1,-1,-1,-1,-1,-1,-1],"split_conditions":[5.0040617E4,2.9621615E4,1.8169295E4,1.9391875E4,2.5E-1,-7.3405595E0,3.0912375E4,3.67E2,2.3333333E-1,1.1642951E4,-2.5464973E0,1.08672E4,3.56E2,-1.0715234E0,1.609375E-2,9.5406246E-1,6.321328E0,-9.98724E-1,1.4769309E0,9.109635E-1,-6.3264644E-1,-9.9478513E-1,-4.02082E0],"split_indices":[11,4,10,8,1,0,4,0,1,10,0,6,0,0,0,0,0,0,0,0,0,0,0],"split_type":[0,0,0,0,0,0,0,0,0,0,0,0,0,0,0,0,0,0,0,0,0,0,0],"sum_hessian":[2.6E1,1.7E1,9E0,7E0,1E1,2E0,7E0,3E0,4E0,8E0,2E0,5E0,2E0,2E0,1E0,1E0,3E0,2E0,6E0,2E0,3E0,1E0,1E0],"tree_param":{"num_deleted":"0","num_feature":"12","num_nodes":"23","size_leaf_vector":"1"}},{"base_weights":[-8.996524E0,1.9285532E1,-3.658654E1,5.690796E1,2.3080077E0,-6.95458E1,-1.4210667E1,1.5468749E-2,6.05987E0,-1.6657227E1,1.2815569E1,-1.1165234E0,-6.3963184E0,-1.0744978E0,-4.0124836E1,-2.4921875E-1,-1.6106249E0,-1.8020833E-2,3.6424217E0,-1.0389062E0,5.0299996E-1,-9.55E-1,-3.8599803E0],"categories":[],"categories_nodes":[],"categories_segments":[],"categories_sizes":[],"default_left":[0,0,0,0,0,0,0,0,0,0,0,0,0,0,0,0,0,0,0,0,0,0,0],"id":71,"left_children":[1,3,5,7,9,11,13,-1,-1,15,17,-1,-1,19,21,-1,-1,-1,-1,-1,-1,-1,-1],"loss_changes":[2.021315E4,8.172219E3,8.599105E3,4.259458E3,2.2062554E3,1.7770332E3,3.0206025E3,0E0,0E0,1.25547E2,2.9966448E3,0E0,0E0,6.955156E2,1.11078125E2,0E0,0E0,0E0,0E0,0E0,0E0,0E0,0E0],"parents":[2147483647,0,0,1,1,2,2,3,3,4,4,5,5,6,6,9,9,10,10,13,13,14,14],"right_children":[2,4,6,8,10,12,14,-1,-1,16,18,-1,-1,20,22,-1,-1,-1,-1,-1,-1,-1,-1],"split_conditions":[1.5894436E4,2.8666072E4,1.8493402E4,3.68E2,1.1642951E4,2.57325E4,3.0912375E4,1.5468749E-2,6.05987E0,3.78E2,1.6896E4,-1.1165234E0,-6.3963184E0,1.8982324E4,3.56E2,-2.4921875E-1,-1.6106249E0,-1.8020833E-2,3.6424217E0,-1.0389062E0,5.0299996E-1,-9.55E-1,-3.8599803E0],"split_indices":[10,4,10,0,10,4,4,0,0,0,7,0,0,10,0,0,0,0,0,0,0,0,0],"split_type":[0,0,0,0,0,0,0,0,0,0,0,0,0,0,0,0,0,0,0,0,0,0,0],"sum_hessian":[2.4E1,1.2E1,1.2E1,3E0,9E0,4E0,8E0,1E0,2E0,3E0,6E0,1E0,3E0,6E0,2E0,1E0,2E0,5E0,1E0,2E0,4E0,1E0,1E0],"tree_param":{"num_deleted":"0","num_feature":"12","num_nodes":"23","size_leaf_vector":"1"}},{"base_weights":[-1.1815547E1,1.1926833E1,-3.464904E1,-1.5789795E1,2.18208E1,-6.548457E1,-1.3668294E1,-2.3925781E-1,-1.5247395E0,3.3222656E0,3.3599445E1,-1.0718554E0,-6.0125294E0,-1.0650111E0,-3.8519855E1,-3.6028644E-1,8.032552E-1,2.2617187E-1,3.135078E0,-9.834896E-1,4.7081247E-1,-9.1679686E-1,-3.705586E0],"categories":[],"categories_nodes":[],"categories_segments":[],"categories_sizes":[],"default_left":[0,0,0,0,0,0,0,0,0,0,0,0,0,0,0,0,0,0,0,0,0,0,0],"id":72,"left_children":[1,3,5,7,9,11,13,-1,-1,15,17,-1,-1,19,21,-1,-1,-1,-1,-1,-1,-1,-1],"loss_changes":[1.3966288E4,3.9095027E3,7.5153193E3,1.1038269E2,2.0672505E3,1.5119473E3,2.777878E3,0E0,0E0,3.0810583E2,9.2113184E2,0E0,0E0,6.186348E2,1.0237549E2,0E0,0E0,0E0,0E0,0E0,0E0,0E0,0E0],"parents":[2147483647,0,0,1,1,2,2,3,3,4,4,5,5,6,6,9,9,10,10,13,13,14,14],"right_children":[2,4,6,8,10,12,14,-1,-1,16,18,-1,-1,20,22,-1,-1,-1,-1,-1,-1,-1,-1],"split_conditions":[1.5513594E4,1.1642951E4,1.8493402E4,3.78E2,2.3333333E-1,2.57325E4,3.0912375E4,-2.3925781E-1,-1.5247395E0,6.60188E4,1.1697966E4,-1.0718554E0,-6.0125294E0,6.73305E4,3.56E2,-3.6028644E-1,8.032552E-1,2.2617187E-1,3.135078E0,-9.834896E-1,4.7081247E-1,-9.1679686E-1,-3.705586E0],"split_indices":[10,10,10,0,1,4,4,0,0,5,10,0,0,5,0,0,0,0,0,0,0,0,0],"split_type":[0,0,0,0,0,0,0,0,0,0,0,0,0,0,0,0,0,0,0,0,0,0,0],"sum_hessian":[2.4E1,1.2E1,1.2E1,3E0,9E0,4E0,8E0,1E0,2E0,4E0,5E0,1E0,3E0,6E0,2E0,2E0,2E0,1E0,4E0,2E0,4E0,1E0,1E0],"tree_param":{"num_deleted":"0","num_feature":"12","num_nodes":"23","size_leaf_vector":"1"}},{"base_weights":[-7.1130857E0,-5.311133E1,4.1775947E0,-6.1773825E0,-9.0412754E-1,-2.8829102E1,1.3639706E1,-2.9117773E0,5.7734374E-2,3.1471842E1,3.5869954E0,2.934453E0,2.1710937E-1,1.3981249E0,-1.0572265E0],"categories":[],"categories_nodes":[],"categories_segments":[],"categories_sizes":[],"default_left":[0,0,0,0,0,0,0,0,0,0,0,0,0,0,0],"id":73,